-1.237922804244934,-0.9976808486052295,0.8663956109851124,1.0390932476323775,0.5312919517288781
0.43943587102826953,-0.3138343484036151,-0.12110144381580325,-0.1053168241081127,1.4952674769591126
1.5618790035311327,-0.3177997556830711,-0.9049552202762828,-0.49511052505010184,-0.7917982363337556
0.33887899553652084,0.9445791703176031,1.282334909596039,0.660551014372847,0.22319946422821374
0.6930125810217307,-1.098216889991134,-0.7521031322946969,1.0457300576151984,-0.349304712574419
-1.41548966852688,1.6300727162676483,0.7205574267375983,0.15242989832311357,-0.5629658365101735
0.4832841385454713,-0.07513282039419636,-2.3051532700060378,-1.232514354117554,0.0040139000915243505
0.8492274109900009,-0.5294826760348282,-0.35461035194676876,-1.3638965451490201,0.03251012414875541
-0.09205728800938673,-1.7087967796796475,0.09512120859071825,-1.4913382922279041,-1.3014798247635941
-1.0360707605863184,1.692238895905177,-0.6043172145211982,-0.7751025155530132,0.3533716966613742
1.2784711075518835,0.016730904527630514,0.6590244820251387,0.5262422307418079,0.5802029214405593
-0.3023160863081434,0.960702306714865,0.666216971651849,0.18496634329422623,-0.23194868872976532
0.7098064691336956,-0.7901229603017181,0.6667675128496132,-2.581831612774906,1.3541000471763336
0.10698913217149564,-1.1535883790853205,-1.687659857063717,-0.6606123514213486,0.2948599479069703
0.16243460556568493,-0.0660632442398932,-0.3637464650180169,0.7294810842751963,0.6403030834197677
0.847075425736463,-2.145179241648881,-3.3261008112595714,0.27609219297609916,-0.05776472178245096
-0.3196352438708766,-1.5775705849884358,0.649256357769231,0.39375015864721186,0.5961206357798579
-0.029625054688427674,-0.9674016731835611,1.2579649199073115,0.003156981231133555,1.9370905999695867
1.7671616004133395,0.11970016171447563,0.19793217041740102,-0.35537036411933526,-0.9593600346324729
-1.8183709862991517,0.235056019771839,-0.29910179473288184,-1.510236288097417,-1.2380694515334
1.261304691914594,0.24426654798141975,-0.858484198165248,-0.8297786981532451,0.3693514802639376
0.6630225168259388,-0.5158667175521439,-1.0919056821092181,-0.898897648647694,0.3697842678221435
-0.15848164921688399,1.4623063000684824,0.9203549830209935,0.605715974444337,1.4958232665744637
1.3421459472495274,0.8782138814779276,-1.0341770624873643,-0.2393592466745353,-0.1167143662532458
-0.13098342729720305,-0.7006145388397373,0.30352606047135566,-0.020897893821928217,0.8160732232987871
0.32134543952489275,-0.5752195863571959,-1.0160214617108427,1.1410027593799015,-0.09727795787334277
0.23143128968670545,-0.33820041988447846,-0.2383461586287058,0.42128869172369504,-0.017511956154180327
-0.9038135108193424,-0.41757394547435434,-1.16928938333309,0.03305842683812832,-1.9381842111335008
-0.41992433074996716,-1.097460746437499,0.5564571334074135,-2.308307288919221,-0.1865929145389332
-0.7048712949325798,-0.1628430303076192,-0.7823584617916048,-0.7185700888539097,1.6142311921779668
-1.0574202241910504,0.8027566601121946,-0.32987275619337414,-0.9536977010141163,1.555376288170113
-0.08860356091810664,-1.1515789802441587,-0.35006983690100785,0.08613206741250493,-0.14304196659598767
0.9367350543764928,-0.44564281784335485,0.7433465659989313,-0.38635819602931404,-1.4806949152247713
-0.5641566166789831,0.2572056181930675,0.5668911647983731,0.4600624695530345,-0.3325377210933737
-0.2941377951795646,-0.5411297939222173,1.5503126785542236,-0.8678396872679879,0.377374186339928
0.40061669067199474,-0.13376502460853415,-0.9832498786047423,0.22828586524061642,-1.018207421569476
0.5988818782420973,0.16762487522934194,-0.6248028323280324,-1.839072246151215,0.025026189702754446
-1.4340919395882925,0.5098518584969643,1.6693144487716658,-0.767680261497563,-0.12971072268022948
-0.3574338585279133,0.4038026749227228,-1.8615571056391844,0.3263919291014918,-0.04972877836591634
0.007569088809266681,0.16550153703894654,0.9876217386969313,0.09152086299459002,0.6618511759582538
-0.3831093730211302,0.188287505966055,-1.4758050198789203,1.6781045642433015,-1.6335983243471384
-0.47409124643518163,1.3920624457390196,-1.4686351722118416,0.5893465241549107,0.5439654262688195
-0.08423266040360398,0.33544064954878644,-0.15539817930402114,-1.0092644581669425,1.1311187753668792
-1.1562687283869502,0.5711102182737801,-0.8187851396715005,-0.2695290236518378,0.6228232869714532
-1.2062372149231089,0.6115283058015466,1.576264198650036,-0.216133706017613,0.5587728008790676
-0.023097634107720363,-1.396819680457298,-0.9556648075277483,-0.6834044489327042,-1.753450460615943
0.6644771979480572,-1.2477885250137752,1.467312813927212,-0.6120988891465818,0.34138055148590574
-1.7295931462536522,1.7529494459345165,-0.6203321925313584,0.4298764627278727,-0.6615984686877104
-0.3207348113509979,-1.1128633297388906,0.7626529575955602,0.010923042244623803,0.3221960434753797
0.3131002659130765,-0.2078847964549245,0.6000244902811656,0.2312350038081426,0.42069078106292
0.3606011942348474,-1.0190254404926458,0.2458790552554269,-0.19259462845976535,-0.8724737327010141
-1.9800760596484959,-1.1053936820702916,-0.24985317815112001,1.3587815876493734,0.19376017371313334
0.7242931396339114,-1.2023706717978915,-0.16902241312509356,1.5171276136047198,0.9125131954103941
0.6269960342484803,-1.2220805510141308,-0.050118715694607116,-0.04116010087460288,1.1621384185560926
-1.1987548203918852,-2.0160559427649893,2.080983411242111,-0.5397330453339714,0.024391537377868568
0.4171365044347914,-0.8078465894018843,1.0237124993122662,2.425993899061818,1.0222936980034307
0.2720726920370752,0.6204583946126626,0.38335412037948835,1.9517873995284485,2.5642923111704574
-0.1924318386481658,1.8681789674955247,-0.371809279265977,1.8058360320240316,0.721388398506013
0.1341216144187718,-0.8704166192741971,1.1511465296869807,0.036561734227250585,-1.8857568478544282
-0.7250248423189537,-0.768395080589354,-0.10672336738732238,1.4852498257849072,-0.10248091522230299
0.4294174819680227,0.02561385074670027,1.4974140405192224,1.0337736563522881,0.530598990502512
-0.4166416133050795,1.5231353204679523,-0.5361064363918018,1.6304045336723143,0.43382026364742843
0.5746683974937403,-0.552399055691779,1.6423567860839956,1.0506162553184313,0.37304175408789747
-0.732662662220952,0.566858001900999,-0.9255619115278487,0.5325350624295132,-2.1135913270579207
2.626706955516107,1.1349848184541447,1.4558210276197785,-1.1287839440554903,0.557686279677078
0.1439215645251469,0.6865524383085596,0.5783618524136572,0.49821976042693084,0.005751688555293106
1.4494050710777195,-1.9724092264709037,-0.6775107512031228,0.46895497702695793,1.0960412380750095
0.5682541144511748,1.2021610686927453,-0.1986876487113701,0.4479745686948904,-0.018413933980204446
1.1699626247719297,-1.3173326043305722,1.0025098991361103,0.8044458015361992,-1.6471046847892854
0.8342429055492642,0.09478823411839815,3.7931989845110974,0.5719902579403264,-0.726811458178963
-1.4548496858045734,-1.4084055218938571,0.4116631139237839,-1.9239982044591817,-0.4353362356654672
-0.38075582873840497,0.9314917142282539,-0.7568208532758317,-0.5648315183406791,0.7223008805159874
-1.135567691088904,-0.7047381696740569,-1.3462197666312237,2.032480436040603,-0.37640275020725855
0.4575581052328427,0.6091069773088078,0.13266553091652225,0.7016273701142037,-1.4530138528388417
-0.04668703184403124,0.07306182886882553,-0.9505714889503026,1.4240692724874098,0.7101939791285967
-0.7163879511534659,-1.9337277563950066,-0.3629825285121652,0.8887348801949041,0.8951794683329067
-1.585531579048069,-1.4207216849988875,1.1917825281465415,-1.4078998518488468,-1.2757501674328073
1.0166938109881578,0.01091472472095542,-0.3720700534636661,0.04749737874995271,-1.349549187842164
-1.0683276216854514,1.7888345073783336,0.05444780561729357,-1.1504217578720093,-0.3514351107752413
0.4861355892607638,-0.13735935638478364,0.4064819635221026,0.2172933737498013,-0.6406511596601298
-0.48300260194923217,-0.7971998184987021,2.4876403426347293,-0.5024360113485419,0.786880095253806
0.3917962049061475,-0.7104755225371858,-0.19103311323679947,1.2990008856186093,1.9972620516920705
-2.1169928154783677,-1.2956207756936367,1.0758733337835418,-1.5836367804986144,-1.1969139314324002
1.3446764749452007,1.105852291598386,-1.2339756080889164,1.7314069630295654,0.7037938377204568
-1.082783128780736,-0.6398187810404976,2.088066732228118,-1.013557118966728,0.29755556734824645
-0.7026863316468667,0.4637392574733262,2.081511515171095,1.4119656522538153,0.18241984130911384
-0.8032877091833115,-0.8306625410197023,-2.082100010948606,2.0353125105668712,0.9064570563754359
2.350317044834709,0.7545985395655668,-0.6625913565560305,0.04365021087125549,-0.47247520264035786
0.4848150241422283,-0.1819759043447424,0.3636678387414739,-0.6420489787224549,0.6264109387505433
0.1348890412217427,-1.585659448295344,-0.18601483054121612,0.05586385432203595,-0.24027936447708828
0.04759958356861871,0.2555884125239356,-0.21351560149300894,-0.6390681239546578,-1.499420227604765
-0.053684211728781635,0.07072524690335921,0.2249508773710989,-0.38671836350383404,0.6646692539375317
-1.420018785295586,0.39789526847298845,-0.6830457700571323,-0.6475513705679333,2.156498000580531
-0.38381370822383354,0.9144672920582748,-0.37633971106029,-1.0335114167312431,0.841027682623495
0.21954339498352046,0.9832732462537379,-0.23244393286060105,-0.6326876886172828,0.7213585939104027
-0.9391379309998238,0.4253428298793142,-1.580131734104802,-2.270192908135134,-0.1522495621299857
-2.0868323232164605,0.34549029820818494,0.8971618057811398,0.16198562515980744,0.9174984533417166
-0.04113143110050804,1.0893483130152728,-1.0173285957821112,0.23236989702615518,0.00837027612988217
2.8773318891032833,-0.6340393776292665,-1.5076915415336947,0.23671151708953247,0.5907443861395784
-1.1766149624268276,0.337837013122123,1.2855319684649698,-2.1297276796459235,-1.3888969361715684
3.0569104675692516,0.49819923999604354,-0.16785353981228346,0.012097833294486526,-0.41199258354138485
1.2086515775043967,0.1612960163570068,1.2122619905667578,0.5042535632326377,-0.9521820003231951
-0.3616105281960684,-0.40642248904911454,0.21173286086430831,-1.2084381515141458,0.06548840586484701
0.9112383656975198,2.16794467822589,-0.7569015638888752,0.6764343151518024,-1.2142531718481262
0.44297400091777184,-1.42492839440015,-1.336859817222691,1.1878267711860864,1.20845316115205
-0.5464657764905249,0.5895962609275158,-0.3525913671579576,1.7699091611071351,1.3359633115437233
-0.21672669260436117,-1.8609161165150039,-0.7581544544243541,-0.463188893254364,0.6776493481457813
0.3573706354880662,1.216262629227358,3.534492387358831,-1.574151140541125,-0.7864659360811616
-0.506129364334393,1.5135858476936719,-0.12621423320586445,-0.2862692516259254,-0.26074376033511343
-0.8843115884074124,0.4739232502361877,-0.9020478126900651,1.5466235515974671,-0.719925319325793
-0.17807009240557883,0.06747383057489476,-0.14522033230305723,-0.3400072232177486,1.884929557832838
0.5146949633344684,0.4851911130786977,-0.8368243010759708,-0.35581984089250046,-0.24015303164836221
1.7588497829576644,0.7742409685124796,-1.4531417237102182,0.23363661431108013,0.8946671154484193
0.5022053735045855,1.2304137850282728,-0.047995856640171974,-0.702765600499126,0.5387075910861996
0.8615326408470175,-0.3015187251234535,-0.8698783812518036,-0.9561750650000993,-0.4317392195486595
-0.3046526966691801,-0.3646274698765466,0.9793266091484014,-0.6965947374789963,0.7272883115834814
0.5290833527996313,-1.9385484674329578,-0.19305333665546903,-1.9129636327666943,1.4013935671451947
-1.4472508009257197,0.5647745238328477,0.9527850519229824,0.6757679742705406,-0.18877642086238527
0.4235448204255096,1.2509535326436094,0.26108991338081566,-0.25239271473052366,1.0209341510242766
1.015320556564731,-0.4106972438344852,-1.7051008878658322,-0.8153439613749618,0.22964297757443136
-0.41407989791581645,-0.7191379796849936,0.0615580045655896,-1.3075676584130023,-1.2232525072924565
-0.2877646738875097,1.4828517515119224,-1.5439249322414084,-0.22560510617431595,0.2144672459788377
-0.559854442284391,0.449577678786882,-2.356956149371912,0.534259330121684,0.8650681703193225
-0.5804270062973372,0.6771003551373952,1.31479089732265,-0.38855268712347585,0.10238827495283792
-1.392514903452722,1.5049796496193948,-1.0029748288383638,0.028400176348800592,-1.8906469465906386
-0.44465205205717995,0.4375817575585117,-0.6728721957318959,-1.886633351931748,0.21178792336082733
0.5027029755331941,-0.7749512320111239,1.8417078707497225,-0.04705995606442664,-1.8354433726733945
-1.385405290825402,2.0624559380562104,1.3218790016357997,0.26707371333324975,-0.1165766907948132
-0.9536952449448483,-0.38330662608485727,-0.22316865437098932,0.0336917176261196,0.06434370328871303
1.1802715500360246,2.1541880833764857,0.3057528812836659,-1.260464596936725,-0.6181777802532415
-0.0941109504932128,-2.086198350341059,-1.5876299439641233,1.2990732823406161,1.0156511790505465
-2.568323112930296,-0.7092303608042065,0.3483014022473853,-0.8207432892974684,0.35374010800232497
-0.8286835943316925,1.94951121622858,0.4818040332188862,-1.222348046084467,-0.6625429070714822
-0.5103231949536566,0.9100587406857193,0.8606784064283125,0.4385836863479568,0.19509843519006173
-0.3046507308040987,1.4992040804476987,-0.3473813855176638,-0.02325816185851371,-0.045022905266031456
0.23789908997866854,-1.5033923349655869,-1.7955245415435308,-0.2689574553598866,-1.0345658678014205
-0.3017673439871147,-0.38856834351223923,0.21511182031955853,0.711081660067465,-0.8451686982044434
0.1717303860014431,-0.06157971431128117,0.6923450249437993,-0.9242175933426595,-0.7704915700695052
1.08820017664163,2.0811584472107043,-0.7506132580958871,0.3052319047494646,2.369049171766765
1.600239519549202,0.26437819499659326,0.7360839639083533,0.06323649718332267,-0.4421449646832021
0.35114869164007045,0.4085890972043756,0.17487948142985835,0.19589482878086503,1.2701663158965792
1.5697123337813934,1.181587600213019,0.02234814476279224,-1.1526571583959477,0.12378932784567234
-0.043920660595020956,-0.1600427190237943,-0.6488704228135024,0.5854099932180304,-1.5575492452479214
0.6541006278649285,0.5113460255988702,-1.4461351674673344,-1.4989153910165902,-0.1773252865889934
-1.040974293428485,2.918175531090769,0.10009629700664296,0.6224791180054127,-0.8833401379464123
1.0055887219863437,-1.8752735647784184,1.9111137102204732,-1.2064549246653684,-0.7340938212258015
0.3276771778359399,-0.12901950057932093,-1.9463989658788101,-1.0020564543884858,-0.35848378078390636
-0.08568630503523982,0.7335341706821029,-1.3856250018137022,-0.13596944082669069,0.4942513309117173
0.18166863152887103,-0.8179307606583236,1.0203149933871127,-2.0289307902913687,-0.572019367029578
-0.3478454363516498,0.5124636921921472,0.632065284239091,-0.5442576727040798,1.221613782426136
-0.01674809450032118,1.6978881187804788,-0.7451866769245383,-0.7198263873770143,0.5580285887787763
0.5532040909037957,-0.9845827706862812,0.20840643149608568,-0.9090188941761485,-0.4341365950915998
0.4038958583741389,-1.7762407281651462,1.6641090653982573,-1.4267959812236148,0.17178185416660563
-1.810514177364314,0.12415732153835142,0.23236313759482188,0.8235725024659761,1.2020287956917801
0.8024333299707488,-0.3729044050148453,0.16108958007346086,-0.021922677750945713,1.153582387094898
0.6404215474619392,-0.8221440957379558,-0.7818275208274689,-0.47694036817465507,0.8326828826876862
0.257839313451073,1.7400791381067648,0.20311718613773722,0.592117001162612,0.9718601057409159
-0.19290391622821867,0.5131206779369978,0.8583355147256285,-0.9445165005036248,0.3001115768814307
-0.3816395769863185,-0.34142439342921865,-0.47048243133604273,0.11873156715078124,-1.5255445985502654
0.26630739886198973,0.21900647511327306,0.5066766046978183,-0.6298274335458449,0.6202178731560396
0.4857625625645596,0.16751135492957503,-1.5709815211218923,1.6155121108932744,1.1550467905390298
0.3196161473007615,0.9466554092925309,1.4420201474047474,-0.4687630811613571,-0.03241673555578086
0.6065070130545471,0.9236117347769001,1.0710314572926,1.2906997581098003,-0.9776330276629889
-2.3271764915518527,-1.687646034170407,1.4980763484246162,-1.0183541171120316,1.7167334375316823
-0.20238811842623536,0.2897226042040328,0.2803684401380377,0.8486750048755674,0.5551582142573672
-0.27855450259645337,-1.862230462642892,0.5976161631806517,1.6184506442814233,0.9245696456444192
-1.2794490226101998,1.7789626207147378,-0.5288917483699559,1.2200967338159132,-2.11052359904007
0.06324955974459179,0.4296136180929289,0.16266096886727172,-0.17480660196741896,0.12876894898396182
-1.0642257502095087,1.404150916608066,2.1008693765296544,-2.2376086432620728,0.02500116050810751
0.09263533752390778,-0.7177220700823521,0.1741528226093665,-0.5236451273080386,-0.6813871491712101
0.3880080620999019,0.11124787741158353,-2.2402246430502117,-0.8067771881181184,1.4244021113202223
-1.6878353458200948,-0.7686107848052411,-0.5739304682679887,0.016300495116741316,-1.0632269010235855
-0.879577408868286,-1.1652743359662148,0.5440640351234787,-0.8405626436391866,0.8202769337397079
-0.1995695094258423,-0.9944377129523735,-0.20969008187035604,0.1889198452077938,-1.18003468131417
-2.147501950142777,1.0663757098059414,2.2365620240055004,0.04685696395541807,0.6097984678218569
-0.2621436965473804,1.3336721015831876,-0.10583066615349862,0.8815779593944197,0.09294923035150346
-0.7925647779978592,0.16205714259103787,-0.48736047535457633,-0.11640102808414968,2.1504822577432203
0.044170620972792285,-0.22549621044760343,1.2391865236213324,1.0604900330166385,-0.029017634305907942
0.7087339810949241,-0.5665122483389015,-2.059269575698318,0.1650047647568353,-0.024625055935753842
-1.8870133289935371,-1.0904929955933376,-0.034532472026155385,1.4757566212778856,0.17152216089124472
0.2928349665301951,0.48179658545814397,-1.698689429823568,0.5227324186722673,0.4265694956004695
-0.49929675932918527,-1.192502923852619,0.6165203528993872,0.603835208297059,-0.6477240877247095
0.5888764764651819,-0.09512726368095009,0.8025971718235361,-0.2728164501081841,-0.21581727170824674
-0.757130445919988,-0.0019377572766362415,-0.21979207163383357,0.0005546865767868585,-0.0333760342287991
0.5357596684876101,0.43950834843679265,-1.4255282120855788,-0.19401314460445418,0.72781190257181
-1.2937436384103074,0.8142857888913634,0.3549699068758334,-1.0209359456971552,0.8746540261276179
-0.6210184529988726,-0.41220877032489184,0.9754885453033684,-0.9419239338495288,-1.818449792070317
-0.5899292587344274,0.438087339564899,-0.04831403340119181,0.4510117476392162,1.5652840954784664
0.23571112812932968,-0.44379297532553474,-0.2633021717107915,1.2479693552774063,-1.1523222268055253
0.6932175949590758,-0.3404355786231355,0.47895901000240726,-1.8149644450917932,-0.23183035140391162
-1.2759036812987241,-0.1019763998052167,-0.19434696956096767,1.5621601103202603,1.2398340107613524
-0.15062648833529868,-1.057199806245307,-0.13893208950209915,0.31515983920251367,1.9215461516362018
-1.3804932731521962,0.6461394695497741,-1.9021485280920314,0.42533820588243576,-0.11401954375019088
-0.061906788893861094,-0.9441032769244645,0.808715160105068,-3.9256730189786593,-0.9147162869911933
-1.960379744890854,-0.9256357979309242,0.11523284562123388,0.009186364365624644,-0.19910780560925093
-0.6159230105294945,0.9618261221724667,-1.0009269673967611,-0.41962856609820937,-0.7560597074742247
-0.6146517881557403,-1.5992263401976534,0.8295128237257297,-0.27126263724313804,0.8560050635227733
-1.8690186805952083,-0.6504964963623495,0.7115852884476748,0.9529890659488129,1.6924866966464884
-0.5686315525186587,0.21506177676872987,-1.0748533873695127,1.0561092557146687,0.7117347457286635
0.21941000522427223,1.1876317184091405,-0.3103299107948612,-0.5283767898837669,-1.3152563392737167
-2.53745817748055,-0.2103240153390164,-1.7839084977441142,1.5854346533984476,-0.7048807677493261
0.4961387415983225,-1.1026281932653135,0.22506184074387936,-1.3312432594016614,-0.40465415329046023
1.4157753811361249,0.7756700705704268,0.49414466080614494,-0.5669661898422098,-0.21559746827373372
-0.03403307759663168,1.623955576521042,0.5818968805145733,0.078290377412458,-0.7921353797995708
0.46124704617239715,-2.3095960281601196,0.30980084946761977,0.6081588486692455,-0.09281113608807406
0.5635238460233836,1.3493335964703717,-1.5746184917337847,-1.1025519513579272,-0.07033293264121286
0.8965024774860983,-0.6597132760496851,0.17260586199993644,-0.8169840256462793,1.0777940521318212
-1.3015461776082162,0.5958886945320412,0.5108986712182637,-0.6490033271802454,-1.1677984055802304
0.7983516022122978,-1.0473344728013243,0.44190998321279334,-1.3887165797172956,-0.4694077450639762
-1.967022046158412,-0.20938633995260605,-1.9057283401085876,1.4049693787926407,0.8858006605425734
0.3517620877574866,-0.7139393490092425,-0.19677761888012257,1.6474653461631132,-0.15191297202702048
-0.8458839602193373,-1.35498240102353,0.1483788479730876,1.0723669597619734,0.3361046773623417
-1.492668318259416,1.02350797743328,0.9217791889050063,-2.219676491945942,0.4481340300335047
-1.9057881513855315,0.19000928551696206,1.5646532881162052,-0.012402775167094732,-1.193560513634989
-1.0255532268225351,-0.3897166324807153,-0.6276553454124694,0.3913954145439537,1.0759060413889003
-0.2530069126199963,-0.8095692700859927,-0.26393021722871474,0.5502367415626562,0.5858930845439096
1.283435237985608,-0.35041090390305957,-0.8868240645896917,-0.38578168952001135,1.495812319985157
0.32396680886597223,-0.9915460234685635,-0.8660545426772428,0.3428716505267593,0.564051318003361
2.131687344580099,0.8944906513058483,-0.8927458256483312,-0.44542831460383137,0.7792431574123523
-0.8732767236968785,1.172442605705579,-0.22700226845257576,-1.385233848523822,0.5525051517291554
-1.251464746414502,-0.7396255311430642,-0.25032824726076386,-0.2334611368071119,0.05555378993707267
-0.4026698586595384,-2.168235481388163,0.2573389654310188,-0.7422777382480326,0.7358451996549394
-1.2348092941935869,-0.2787382333108614,-0.45671744685092797,1.0220395251449603,0.9889041168463268
0.7491177276729685,1.1049826242456469,-1.0116249621541398,-0.5663257758213672,1.264255583838571
0.48617334607068696,-0.5452257946098752,-0.31634827990955183,0.2632571581451568,0.4245763851330553
-1.3739006207218114,-0.4049292839993675,0.11449414628482496,0.41970227827588336,-0.3995992137702438
-0.7439812287413817,1.1053356641550882,1.3538770548465942,0.942499085046914,0.6282139073808636
-1.365627177531076,1.2474696923941897,0.1155654971353051,-0.3612925543231411,-0.22501465788254957
-0.8973542423940875,-1.6853174173625924,-0.4815831990904869,-0.4004341762371268,0.2170395397114516
-0.6013878670689434,0.19316998019974066,-1.8275056051579426,1.6537321192635592,0.44081217810529
-0.09523408612768786,0.5712778421118395,1.684106227791863,0.7951252843528724,0.4423926071447976
1.5115978092000193,0.6069753822239784,-0.7633812298642857,1.2792884359639758,-1.5469722182716998
-0.9203773198149563,0.7505013157205483,-0.0734308123605518,1.3442456940202616,-0.5401431942729628
-0.3714561220267434,-1.012227470156494,0.012966208253176617,-0.2711807656707908,0.03225299042416937
0.14022026339978103,2.0032040766573767,-1.0589517740449241,1.1682476974109175,-1.1719350132355708
-1.3560872089553504,1.3839687611872966,-2.3129081345191227,0.0537168975100107,0.2908617370245567
-0.17356742616206414,0.6955471385666561,-1.2993941721740567,-0.17218638034691722,-1.9064707734026571
1.5251096210485189,-0.14768241198098586,0.16873711085292994,0.5775126298683995,1.164713010557717
-3.24145764895708,1.4927262166867579,-0.1254022405338183,-0.42685221915061544,-1.1195641841571218
-0.3755787238409695,-0.8410615920675594,-0.13130840665337776,1.4184501784915795,-1.8356490513798756
-0.4855385595298857,0.04916419489867258,-0.9268688749421274,0.011443187148908499,-0.5293344709995745
0.350359148745279,-0.8706630255449889,-0.0655757016175597,-0.4590088557202328,-0.9369151392789364
-1.26515250821497,0.6253173448701786,-0.32566014883882,-1.539610220290413,0.3696497935101022
0.42227492429330504,-0.5862452518932378,0.26633598294087946,0.2126992158625595,0.2512743492835906
1.7107903642562596,0.054486559973629035,0.9664769698220875,-0.5166321888274268,0.15577356338569076
-0.44595572107433495,-1.2178485770430132,-2.2636120488002756,0.2539524091348896,0.5196761722880817
1.5559773071001544,0.26802912005657026,0.3685354823209801,0.9975581835165197,-0.444286652424463
0.11707283966666684,1.5589915278594892,0.022074221341315207,0.1453742538703682,-1.0911979876336177
0.11643592843858813,0.8777409438604341,-0.7334327277721014,-1.0888886424541528,1.946215291388901
-0.39055742029805857,-0.24205853795820312,1.2337920519097736,-0.4988127617698425,0.15451468899913479
1.6361781739814845,0.9644220418261832,0.6657366379086391,0.17578990974133893,0.4005247502154891
-1.617772180604708,-0.9184422012545285,-1.9691736557762818,1.333835409239321,0.027161236004467845
-1.1449528737584185,-1.515249906698663,-1.1205527255192504,0.9955881805278418,-1.2038387660362326
-0.4555185537740573,-0.9711857535980614,0.11929976571815441,-0.19037853130024274,0.32413243240000544
-0.3590301197691355,-0.47683070935811184,-1.185490403651387,-0.4938825982794183,1.2709044535555993
-1.0733195182161699,-1.3410919737714837,0.7897944343776642,1.1551824591972153,0.2072111549102534
-1.2800789844635947,-1.293644560532519,1.4023366045738475,1.3691291945065431,0.45707819677912387
0.174193286422099,-1.7732583563352693,-1.0269711176225567,-0.3534635814086793,-0.14859657421274639
-0.7948941695509252,1.4675886221859893,0.0383967004412529,-0.1583017382856805,1.5906623885143807
1.0525008757834045,0.3959230327324694,-1.0148976243576233,-1.2562571601965198,-0.4000887879755094
-0.006287686531878955,0.02634683131618141,-0.1984783152673502,0.008913741134505717,1.9475222579108287
0.12003018711074306,1.4954301295574035,-1.1446375824964772,0.40031568920152405,1.1255208912260601
0.665789562655969,0.43012834037840975,-0.3468078754394065,-1.001319741737586,-0.036857609913728315
-0.11606724869524304,-0.6961770746725973,-1.3055027997117894,0.16107428108628657,0.3395809298790284
-0.23506821829478963,-0.2617774978601886,0.9357873244434282,1.6151562825953742,-0.8143520099359877
-0.2836368790877297,-0.5227601399540026,-0.39336822210226047,0.15537515969267263,-0.05768392218694912
-0.9253855524027603,0.22246162479609563,-1.175013558364948,-0.8404844772967532,-1.3810826951898438
-0.06891631053584474,0.2660979393441046,0.3383550381581738,0.3279639400947022,-0.2588275670918921
0.5909815739855713,-0.48598283953614624,-0.445154168002127,0.29021773269194917,1.2757895773370425
-0.7994834256765752,0.8339123380025986,-1.2823299400170758,0.45929269130788825,0.7564172800308973
0.5973305593225624,0.1542884155189524,0.8080306028484499,0.5243513527924428,-0.8104147962051254
-0.33410150044998954,1.3490012950638308,-1.431695063034117,-0.7136367658012192,-1.200306609119919
0.9581302985435628,0.5349323484863131,0.8315909193881981,0.505549898895518,-0.7636149548145935
1.0712968005126402,0.1549298835753569,-1.8772200325622344,-1.478807954721155,-0.32885831884335204
-0.7123331318437004,-1.8344040215569446,-0.11870101011552524,-0.8955438599919969,-0.5978613932587459
-0.35550264747868426,-0.5212188108217667,1.4948465122650099,0.6315183852060943,-0.17693335171015045
1.3761338050864116,-2.1283532564665806,-0.2872596201587194,-0.0770682446318033,1.1438485619815686
0.9808348190325296,-0.3374310061812026,-1.0755220285238412,1.72118854336042,1.5105131633872375
-1.0830010509647077,-1.182061548295247,1.6167992021098117,-1.8448330238025648,-0.2176613540760009
1.7492248293910908,0.010549763462682537,-0.16644312368317787,1.4822303272072275,0.6330107518531607
0.07400037358813646,-0.04074645924382544,0.4721517305080829,0.6639262333883522,0.09425910234443938
0.4746887629419224,-0.6079209455605334,0.08745470125015044,0.3905072206955414,-0.79252308874879
1.3434878416658562,-0.4555902114004175,-0.4732293372489687,-0.303706196586574,-0.6056399003033681
-0.13315637665548724,0.5441702312719235,0.41326094036129496,1.5181576909588579,-2.1916038875606074
0.7691263013525959,2.018644373168947,0.9427612697482686,-0.790331814799178,0.5247964211789979
1.1710351297200987,1.2629887080820597,-0.3307563522832433,-0.3533878749259782,-0.32418035220826935
-0.2493475854382256,-0.24176425116395553,1.430524862168271,-0.8461903286130938,2.0620493419491726
-1.728808732353884,1.1664107628379865,-0.7862407538171768,-0.7071425520094105,1.0412064820604272
-0.20164659166403742,-1.1298532001481978,-0.5885767416012241,-1.5389639009519729,0.27991598593371475
0.5582789360248506,2.1143934427579745,3.427493604491439,0.5669984881847966,-1.1368200159979531
0.5310258141815518,-0.44837186066279955,0.8322077215697993,-0.007865328335351687,-0.04674930875158767
1.8179156246841714,-1.1299556078215534,0.9863585644142491,-0.7720548041438986,1.278928533011019
-1.987388207737291,0.04576803182461548,0.317895491911809,-1.420546577633769,1.7181501776112116
-0.02060162763319943,1.8103930555251173,-0.5801576558684689,0.9037421400261074,-0.4874147584332251
-0.11469504107726736,-0.4985412533458784,-0.24636007438348356,-0.0404927938321739,-1.1818718936220456
0.6819264778939986,0.9952310386475219,-0.29551010937919825,1.322950864499736,-0.5644846289237114
1.0288840751976378,1.1016620895046934,-0.0020656151474900577,-0.9997654058345516,-0.14512294622939031
-0.5411262716330726,0.6891002809015807,-1.4066984329744163,-0.07555558160988475,0.6842041052709914
-0.10525481771065083,-0.19853570118170955,-0.5266789693526706,-0.7050299785917455,-0.40850605340461454
1.7642222832220098,-1.2610588995295895,0.9202428729567758,0.16677184293547506,1.461736869729881
-0.5941310040506783,-2.3646900488126827,-0.3514733298244144,0.6395285559353895,-1.0488729238031342
2.201147151878325,-0.07369086284730625,-0.2690885916041881,-0.5476434192874162,0.9121590303792207
0.4933447814914732,0.29609618690261075,0.9254189341845546,0.23566208929068486,-0.030906404794620885
-0.06975243596353693,0.3937599635337551,0.25310966309688276,-0.5235180747560941,-0.2164228171309815
-0.6039748099383501,-0.8713478924994617,0.6610117432300023,0.7806037010804247,-0.39626246142700755
0.514054950195391,-2.093940413282662,-0.9505833659906782,-2.034122762501641,-0.17489547199207742
-1.371827523320499,-0.7588829147741961,-1.155032923536325,0.8914694727176923,0.19906126928995285
0.08659469363511368,-0.3195339943029482,-1.079236407786897,-0.013740085323553631,-0.5310102716278118
-0.3627753538762024,1.8017822722365668,0.06632794395687451,-0.8490874198248577,0.4740113935276642
0.5744577613712999,-1.8528221968771081,-1.0731339503170079,-1.817879936130993,-1.1365581093909194
-0.11611533309599162,-0.6332922524602076,-0.9134185931848953,-0.0018919656358975753,1.538909420113409
2.911910793027634,-2.5944266572220007,1.112913992851904,-0.9217049891282618,-0.6972267822125108
-0.2805121804270656,0.5121918314965404,1.7823005539705388,0.09306727103652684,1.4286687437699996
-0.7973988646395936,-0.5739504248546549,1.3890737517028406,1.5591867925039902,-0.6143055125853489
1.1601178403184205,-0.15246695316462702,-0.7045790293451846,0.7355526041884133,-1.0949373904837736
-0.5723949934158794,-1.3498429420943197,0.2272464231968869,0.04637129365442833,0.7056137828763467
1.3445335986024531,0.012896964353180529,-0.930184767376471,-0.7889455081900628,-0.9535236715420827
-0.15015664249849803,0.24076319624009157,0.6675284915415409,-0.7316304468206383,0.5809736957429393
-0.5898975792118984,-0.5592441190420933,-0.2954774839589103,-0.17077935327036403,-1.7552139469444454
1.9198043322977436,-0.8562370403414579,0.2208047771549579,0.2504626657305643,-0.10172983171759549
-0.562097742197878,-0.029842983579885792,0.3419746473108025,0.23865757111371155,0.5918923614673165
0.3789838610636668,1.8182873263202224,0.5671613355774182,0.15209788972904503,0.310629805986259
0.5310264431237726,0.4995494028989215,0.5775473970250108,-1.0778131244353275,0.31709763262045493
1.6609854227339904,0.5665301165600989,0.11966995141226748,-0.6860676323582808,0.6583229006766618
1.28901548607731,0.19495874032533542,0.9759861410851588,-1.0023132429551374,0.6027527699651111
1.1287574411123595,0.3496943545191118,0.0014432884289634622,-0.19363874284121874,0.0034323684968245146
-1.3218737256300193,2.8650727730550636,0.5855273688562341,-1.5421199012379838,-0.9465194666433591
0.4199242774472065,-0.21210837038295616,0.674368414934593,-0.7754039991627841,1.3613069700253182
0.7933158800027625,-0.33213005899492143,-1.3225153596653583,0.1512415357709526,0.3872808212975976
0.27732014589550347,-1.4549824244693494,-0.156642162780495,1.7332255220598387,-0.7167735052274471
-2.0820918383915843,-0.43416791365156016,-1.796453890936854,-0.30367745732122026,0.8812089470241001
0.9738990934979517,2.4047857506754617,0.11490031560040252,0.20510673298042248,-1.380696492545421
1.2328560207210593,-1.0754327206359893,0.3915901446602319,-0.3489905061895354,-1.1382865088428658
-0.0157998812841168,-0.25481694105577346,0.4954963791207284,-1.146877581202656,-1.4495333555635495
2.176403847966706,-0.8247496517016152,-0.6878593880332196,-0.02847852229957716,-0.2778160565370681
0.16437476442711216,1.1049186070861812,0.8881199034180574,-0.21489639237434577,-0.4530867970283984
0.7763115852949054,-0.32064292489666435,-1.194660884733415,-2.7184390378963816,1.4366006864532794
1.3241235953698391,0.447152936939729,-0.11787641510223834,1.4442766704339827,-1.9893378361005587
1.324914666646325,-1.415578174270257,-1.6500739778339903,0.17662391747034772,-0.2692542898203954
0.9082645886852689,1.098868693551117,0.22641390170295386,0.2531673127554521,-1.1293141599583334
-0.8819962231365295,1.5547346341585389,-1.2840399905668878,-0.2307566522025821,-1.8452572920048311
-0.5554003216997815,-0.03724675245588161,0.6271290467086127,-1.0170566185988639,1.0616668769453517
-0.10977744831680751,0.8312340209237866,0.9774491642425627,0.9627387550583574,0.7094560378244263
0.48066983980888073,-0.6714864291560587,-0.2926437903652995,2.034143137939304,-1.11001615457434
0.4299121955689279,-1.890497640006621,-1.3718387492478947,-0.2557647264497973,0.16318285355251727
0.37518125958737386,0.140955688811028,1.038409353515447,0.789498838492146,-0.9243194530334188
0.5189894810618376,1.6839934390486082,-0.409021610332208,-0.04457885478353928,-1.5105143895303348
-1.5279160834175443,2.1782171005600826,1.697574153779773,-0.53576420138193,1.3282397363676743
1.2039365809388791,-0.6233640071842208,-0.8736848915685582,-0.9894666704632277,1.7189139908992872
1.0959359510339095,-0.6514873206094172,0.5270561405545277,0.02635627297051354,0.3065285686970931
-0.09162844513104233,0.18502141075488812,-0.5510360575311144,2.270544220681974,1.5353657947673582
0.6996859545876445,0.24422702505616153,-1.291615880427542,-0.26621899708290636,0.5767982037919671
-0.33552537319406256,0.44099772288268696,-0.15311380629374785,1.5812092947725698,-1.6300053907506031
-1.3077233936797794,-0.19385990673245498,-1.0061074002214838,0.8875104444201279,-1.7148873121368322
1.694920214058933,0.9415508658308165,0.7106614202160155,1.4490003212534062,-3.7440980262000942
-0.045292704257296854,-0.030365133782484406,-0.7508882501265095,-1.6242597108375747,0.1732177989864658
-0.8294837601090971,1.7421208378408672,-0.8464423626361258,0.008268369285404949,-0.008724429907185386
-0.39714139827828027,1.64379545390666,-1.1699329968022132,0.15556534427886695,-0.7566926824988668
1.1509414654050478,1.2516285375840448,-0.6890865331943928,0.06648590973978598,0.5640972659722546
0.9857132748662437,1.0507665636998456,-0.22536872122406137,0.8169154763017806,0.8950920953082094
-0.30873480849139084,0.4002469670409921,0.3222573531899975,0.14510587682230458,-0.7093562804640248
-0.25225535000109733,-0.37620314368012503,-2.124358219033248,1.3405067148111036,1.5394039088693092
-0.22608756336651134,0.8803911571672863,-1.5182044058283761,-1.0916410194857,1.213392028430548
0.6430147379666901,-0.42676919976782207,-0.9550587089229264,-2.098051063096073,0.41414940032066333
1.5620111288476106,0.002939408748832642,-1.2965835896248785,-1.371071040128488,-1.5407563850344028
0.31618363163076063,1.0332610480153086,-0.5907805233518193,-0.10593175877282637,1.1833574563841973
1.8004634864272664,1.1785759128739004,1.2351462817725558,0.2947180600797621,1.1777899124270483
-0.530143029277894,0.3695232435332138,0.7336694279876428,0.08220077211650537,0.5855131698136498
0.3924969089178248,0.9630890726115924,-1.145496039322262,0.6413949326109698,0.7367976417992135
2.249839855418553,0.9104436568568097,-0.10687091683488444,-1.7919017675219422,-0.7204969441354091
-1.59746180725541,0.8855244596135166,-0.23340864862574137,0.7312496121375667,0.8257243126643392
-0.2998145095903366,-0.8312415365339165,-1.103389528043188,1.1754412220291752,-0.04069521464570847
0.1897904240908014,-1.3716099963436807,0.5047909198279774,0.5014131255470332,0.14269759449645164
-0.6338708164721668,-0.05217871324569718,-0.6885458332583028,0.14090090220821844,0.5315699771413803
-0.9398572339478736,-1.110720970504328,-0.3132798701273438,0.4515291542858885,0.42772463016626133
1.6151058634138324,-1.0137376406249499,-0.4954556100573546,1.4632942370656508,-2.556187225401818
-0.4295910646874529,-0.06158393401201827,-0.5134420670706034,0.03932161626855755,1.5363038851544217
-2.087340898669114,-0.6710992658485392,0.9207653736575792,-0.1278190659770724,0.7613216061194715
-0.3097667119632057,1.970219394868685,0.8101796868080414,-0.8524350165440651,-0.8206259394770482
0.2927231671740505,-0.4637841765345598,-0.015294935823598881,-1.563723752530753,-0.3653853029388267
0.5421545873481614,-1.155861921645579,-0.6483129013363224,1.2871549170457846,-0.4002312165225955
0.614243973321345,-1.5597861431957138,-0.3842662196935524,-0.9417784174463293,1.7104019336007128
2.737540298804328,0.028583837832990996,-0.6532033365556523,-1.4150733828177493,1.0380443810540252
0.9405821615076231,0.19020184800970244,0.777340122404954,-2.0446519761254467,0.3397701183482872
-0.9402764462723375,0.6445471375426158,-0.3786393271696137,0.4963493603685354,0.4111404847198662
1.444477027246262,0.11689982156532538,-1.740186977671706,0.9231354030818986,0.953831511428564
-0.15320442979326,-0.28260072311545065,0.823801222852639,-1.8540972725066953,0.34048486573806463
0.24173380963060212,0.9189845292558126,0.08494967550406954,-2.017326237000261,1.0432089303891894
-1.044792571084467,0.9684018435469312,0.7173103094403583,-0.09031638576083208,-1.0694285356532824
0.16315756754867403,-0.0025402905662096262,-1.37122675627199,-1.8216183431472697,-0.22940001985048705
-0.10206938446018313,0.1420472986613897,1.401053463897382,-1.2648867061949967,-0.17927074112002167
-0.8417266340174895,0.7039936924626485,-0.620111446196694,-0.3409855167676686,2.2355853745421173
-0.48410882858701765,0.6379732324597336,0.6140550198167655,-0.9447251045511021,-0.6786146173902732
-1.2292431370398822,0.8715574855702244,-0.6794438819166705,-0.4329743570205124,0.025080606214734992
0.9556451874802363,0.8376298665288726,-0.37606060524852614,-1.186321599774522,-1.1763415491043596
0.48726839960201485,0.3956618015116452,1.7167972066230508,-2.296827307270432,-0.08328230697737309
0.30818275033788495,0.9340981982605947,-1.392021345203507,-0.3891225538851806,-0.5542230168790397
0.8897502819459633,-0.5765789560472282,-0.3882846707314936,2.07021651415185,-0.1288341886168133
-0.42294022195673414,-0.20195866455027145,2.4885536960839905,1.7155420455696875,1.317609173535522
-1.1820818061552978,1.6918595462719022,0.310354123530905,-1.336427550002772,-0.7832981740127103
-0.49683971564569085,-0.8701803243307814,-1.1616742904747077,0.9079699828464992,-0.4292887513139171
-1.0853096538775013,0.709334824770728,0.9762487159236771,0.06641529369045912,-0.2807491867550868
-0.7760041532308477,-0.41538033787020573,-1.7763529277241774,-0.2994832474641774,0.6517751375094882
0.7671360484289593,-0.6065409118829358,-0.09936589442877836,0.6267882535410805,0.34193661922018886
0.6264865543119402,-0.4778627161305527,1.5936240466693394,-0.22636767114786904,-0.318928105233044
-0.09998981951991066,1.07775868757513,1.8850554243364528,1.3867203507017374,1.6829949804357311
-1.2740464141175798,0.707918727452089,-0.512175702443615,0.08016937775904916,-0.8700096257859509
-1.708271150725092,0.3740208067797016,0.5345754675532606,0.5020693426085686,1.0010605702836761
0.6665549701952396,-0.31793546341926293,1.0361834824313136,0.4980635981291886,0.26096323040465963
-0.19962525838296602,0.022152746794329072,1.5002391816016603,0.8104798328483267,-0.9309584596211101
-0.8050907550172067,-0.20569463819629208,0.003684639818829376,1.2547554421009206,0.34791744857913853
-1.337709741904325,-0.12464728407053204,-0.7231164208504148,-1.4921358616738332,0.021770767213358473
-0.9586036714948711,-0.1249453317004726,0.6293789094471343,-1.633459979838618,2.1924717640505786
0.3566577054738119,-0.48714478361771435,-1.3469200309829226,-0.00657649334661935,-2.0154021708135623
0.3312606950193238,-0.10316985771236166,-0.32736674978302077,-0.30738929417418714,-0.7201553966427074
2.5690275356507035,-0.22058627748253554,-0.5207888392411202,0.9581227859893066,-1.5502147819145315
1.1120811247038964,0.618529243137696,-0.2959262812290672,-1.2445561024996,0.06303326388503751
-0.7854518021468234,-0.23823252276572093,0.5322380434018548,-0.5370874236348815,-0.25427619574468396
-0.4454503454139903,-0.3425439120836641,-0.6717997868712817,0.6593702908455121,0.14871682338164763
-0.9526792045749375,-0.9899292703596432,-1.0818711798970815,-1.7138424171008482,1.3549601989807043
0.9192075048313421,-0.23064653233395768,1.9301956153860709,-1.3365143369326165,-1.1987621013429854
-1.9723144431592263,0.5323342379833752,-0.8720222350110971,-0.9548264525617866,1.0599747579984133
-2.094490299526005,-0.8360679615430398,0.5852174383706765,-2.7092921247469604,-1.5128565595382766
-0.027850421287834295,-0.5176525796086684,0.04601829534642291,-0.44102170848759187,0.5716565644508467
-0.8474201377241406,-0.5575633920847329,2.573871109158314,0.14485796796389014,-0.043421711676860195
0.8813846741669514,-0.02928097107788037,-0.059044603224487485,1.6780629803878537,0.473145552227986
-0.7343138067565425,-0.7830884918127137,1.57967576858508,-0.9767674524997861,0.4432113412305423
0.6729680367515599,-0.031381841949080336,0.6515945714990067,-0.512139871556568,-0.8938675316548023
-1.9809502809721848,-1.0615671815975385,0.9904104296637908,0.5118268779419262,-0.5784879866841446
1.0922625600072504,0.22825088253512563,-0.7753301156122896,-0.17732871844404946,-0.002761722119263182
-0.5416010875623787,-0.5830702731767792,0.7067108196286734,-1.2514818070406601,-0.11237369732273479
-1.7245769297915376,-0.14350870825975232,1.2192421772205173,0.7378868734945231,0.31456270640339495
0.06734173670740629,-0.614542147249051,1.4968259193467264,0.5108215149231872,-0.601333286215102
-0.1340637751188817,0.9087295396965119,-0.18906016844524245,-0.2005451628507277,1.6050761561368756
0.4237826409602783,-0.251547071004558,-1.7907885467550793,0.5284485228211462,-1.8117190185240784
-1.8415787477153316,0.8938849368431493,1.1110975989679284,0.39656738389722945,-2.749850275513853
0.8196089030318665,-0.5065235818215974,-1.599688730547545,-1.234025961600374,-0.7807045780122873
0.5521098792883414,-0.8568466703804157,-1.5779900533822333,-1.116221915516334,0.4201085937793721
0.7865749590234897,0.4603918988886227,-1.6810265721871562,0.14860980175180324,-0.9012740007136963
-0.04405169539342392,-0.7548087268966288,-0.834551520266012,0.5452665434189877,-0.43755438113421347
2.1913483577616066,-0.046271114213575826,-0.9603361823160264,-0.5219187864877256,0.5443932674791684
0.5643787580533859,0.18270552635371531,-0.6281105090339738,0.12621379216888842,0.015066220051236012
-0.7255379720196474,-2.586326179170379,-0.332268014662972,0.470916315436752,-0.13977834357023677
-1.1204541553436467,-0.28968270619858494,-1.2190235594898873,-0.264619628743169,-0.7106061560188447
-1.0730536251585698,0.9738729921317482,1.2412649704042682,0.11994369068888666,-0.0843410497283491
-0.4735328133872826,-1.7331603154865423,2.1542408521634377,-0.2908485293784138,0.6145013613749547
-0.012409601435733629,-0.4795246200165867,-0.8194680672790555,-0.7730935705907713,-0.1242481354679118
0.7908256449587593,1.4284452961413072,1.1800087469149005,1.0384422617737055,-0.8703598215279038
0.1711691315209129,-0.7487103763822865,1.737042588818545,-0.732004949053993,0.694048530781268
0.5344437138945602,0.25568793448107874,0.2793424707414668,-0.4811587905012922,-0.46254163080770483
0.1294798999451815,-0.37154284289233763,-0.9878779635097273,-1.018379258488685,-1.1334225030895475
1.3998799518725031,-0.18724998231438095,1.1575185867941888,-0.12156639953460145,-0.31294922087121924
1.6526305539504582,-0.22010630577906373,-1.5541360744827841,-0.6610138244434546,-1.7501233095600768
-0.6779316273355246,1.5450973651094657,-0.1115013036479228,-1.3946528842245325,0.8269682764899012
0.883620157662228,0.01926417932994662,2.1224392843145563,-0.3979397236278923,1.2975573838436698
-1.406660301700613,0.7147012377328463,0.7242523688157224,0.058320224122965066,-0.5900906253061656
-0.16844531203057903,-0.5231103402812258,0.3395373236207414,-0.35933745652451554,-1.2382035645711957
-0.6270945040306252,-0.3891734160115375,1.0855371617634497,-0.47602217543489955,-0.7783083972240674
1.8758588759362476,-0.4635472867593081,-0.5960862312170857,0.22603469960948894,-0.49014499128874106
-0.3958919915488671,-0.9651091974833296,-1.436780511591706,0.45112371952866703,-0.22712311323019369
0.10367909258932911,-1.686379406154766,-1.5099744879625632,0.8238308512877328,1.4122314481299592
1.3507088916305907,1.3350630910186931,0.9923881082788917,1.7366595494821944,0.19312205984258998
-1.8779809947672381,2.1809148970339236,0.5532987573849749,-0.38897559983529856,-0.41296793287827954
-0.7081559311997797,-0.2380033065831847,0.0775196278855613,0.2111554367655953,-0.971408450478167
0.11841587936071725,0.43236847246841187,0.9671354593094026,0.34741314956258634,-0.01387671900029718
-0.04414651102055308,1.3034175448072116,0.5976359192013627,0.38575621719448433,0.6594656697143692
1.0784109325506215,-2.3251217825619723,0.587856380484356,-1.1459805390298663,1.5461141420345441
-0.08081024279779625,0.4531045714217787,0.5913810739472439,-0.0008594229480218445,-0.6883453336868651
-1.5808135584414376,1.5850047002282361,-0.6159573292790007,0.5601728912446148,0.1257285591947615
-1.8606831041514404,-0.04296441289775331,1.5743712587458916,-0.4247409582544946,-1.9093387111200668
0.057176078745091376,2.785333687389692,0.6713861868397536,-0.3973526057808816,0.8653945254449249
-2.492240287471633,-2.2113487917249586,-1.0407316201592003,0.16993613549507952,2.1924000811060242
0.9826989512702319,-2.6251647337582114,-0.1977916902697477,-0.3856552380394915,1.8263266721566336
-0.12309321069673847,-0.10273477681513464,-1.0591080264804897,0.06885553346677961,1.1489345148002792
0.1750173852439178,0.8669121075311516,-2.384734151099345,-0.5062050980670264,-0.8666901929692363
1.6377119047338613,0.9844670325378129,1.5707933237848613,-1.3104851582615304,0.3484867392553892
0.2104669236520062,-2.0308963253996364,-0.6880542921941223,-1.2972841346434052,-2.6725725446681703
-0.48330589998597556,0.4571935345115501,-1.445008497626731,0.3218896950334195,-2.8113107306499807
1.0111799136063844,1.4269600486780345,-0.4090394607569974,-0.5931418712941829,0.7558717882500761
1.1308320113657355,-0.6627193988049576,-0.20157542031536013,-1.1504795311123182,-0.7046366217449979
-0.8316788496558025,-1.8844155459667407,2.253070925512104,1.4732360047541402,0.4597842805746605
-1.4292920454900477,0.08557546113176298,-1.4580023816382854,0.3074175002182831,-0.22475218204222855
-1.2633579445667074,0.5251149637522535,0.23467014387809695,-0.40759524549362325,-0.5017101438110549
-0.7588823999201648,0.14352097802601024,0.21285837521623216,-0.38694073894574466,1.7773143033494585
0.09808172098474847,0.5620103769094645,-0.2971151388213697,2.04060128833766,-1.4274794172203091
1.228837217215636,0.05067100077017917,0.3388726059722752,-0.500472697103116,1.096746026508146
-0.48265224539477225,0.6141273196145931,0.7761388286168691,-1.0914633231171422,-1.5632307118550306
-0.5132872561833719,-1.862207312937377,0.33165331083480953,0.07470148839001806,-0.003598075398931218
0.14751327629459562,-0.1909601713834282,-0.7831320798715398,-1.0721453473900122,-0.027585535615534913
1.2715192891645997,-1.7550756708653892,0.27394936389198815,1.3404580955907617,-0.5553271166067834
0.7672440760921214,-1.2833020619010307,-0.4761030054435163,0.3245620766847684,-1.9354361991853484
0.20602551457919302,0.8640905559951805,-0.8534603640316321,-0.48407380940397976,0.9592899838289595
0.19347614833739127,-0.4795613366907943,1.4095990426807672,-0.542991286294364,-0.2834207169356555
-0.7785151727270694,3.024424844136707,-0.0408149534657338,-0.663859337293716,-0.4084788689900022
-0.3617353837837565,1.0209307467370263,0.462701178728925,-1.0222799040010677,0.6908861588410177
-0.05145262865226321,0.8548485931649131,-0.5937505264268653,0.8074285695525036,-0.8211173894191401
1.595588481166919,-0.2216536314699132,0.9560433941030622,-0.9255620317904701,-1.0407858121262665
-1.1902755058448677,-1.6253059760989073,0.82013321862365,0.4491090619074102,0.18653966364606805
-0.20198616902059113,1.5049243151333285,1.6194248558998465,-0.14455114395515165,-0.14562874200503462
1.6216917276707496,-0.03780815982220263,0.7452721622997915,-1.0086683328151949,-0.4681754267540695
-1.1132194047167492,-1.3088272972819515,-0.5138126782188335,-0.09959208946897738,0.7276348077224606
0.9709485000248155,-0.8046161758498129,-0.14399513090927996,-0.11967749107559501,0.46532470045242497
-0.8931265635185024,0.7623400190194514,-1.7781651543506807,-0.2653368365461209,0.7747935061625172
-0.27082614208540506,-0.43497563073259965,1.500205248752407,0.19834555390016234,0.6218567075322713
-0.6782701427722487,-0.6106275044236301,-0.040353457867595505,-0.13229225960708654,-2.1016617887119384
-0.002546775296836599,-1.0393359948474772,1.3801067805421534,-0.9408421452031175,2.005128532870928
-1.0815968450802371,0.9326775298867042,0.8904690462699617,0.9671763604832808,-0.07345870837886723
-0.15773581836264633,-0.42162060333637813,0.2835982472492305,-0.025453023036529007,-0.337290788266583
1.4838985163362206,0.8655030745005673,-0.49099810232997204,1.9196045043883156,-0.8916096374966374
-2.4282948298775167,-0.48508439681981697,-0.2852148459612105,0.3858278604140428,0.23105501760910513
-0.7627852371081321,-0.022081836644402143,-2.6229180391335487,0.7475433390136474,-0.059407702811953414
1.0299304800288611,-0.39251520118124406,0.6143357574696522,0.07386843755801303,0.17863402020282276
-0.23760651057623655,1.7232878950978847,0.10867122717356846,1.0183837659867154,-0.45544300742633304
0.6886182422382019,-1.8259208107955505,0.7506242717745512,0.6986974837471366,2.4084385265747508
-2.1059033680143324,-0.9377902953402584,0.04177710235850488,0.6012447074163355,0.7713796040622156
-0.6289344946209317,-2.9299647416312977,0.6962676104074247,0.5471814139442147,0.5967648409519163
0.1058301989529758,-1.507936697072197,0.9704361279341124,0.8410545433760765,-0.48000765933050277
-1.198730148079998,-0.08457964445174428,1.9224819789517333,0.5226576951041119,0.432103184681324
0.5200621503327879,-0.2636248523308787,-1.6440393102382949,0.9608805152649836,0.09897962338923835
0.04005260805682006,-1.4402054420292216,0.12893722118349088,0.10567401548644258,0.6259941753569842
1.126756364044649,1.752471626978458,0.19384717096581713,0.04070701603477194,1.9043529856642571
1.5271880703504448,0.40153551150949196,-0.01804840011619565,0.2264272826430432,0.07118909624512403
-0.4818769802483031,0.11288342417169898,-0.14237332505759726,-0.2620600090931934,0.7891446169935503
0.5067784351475147,0.23925434845625548,-1.436548928790171,-0.08750854876024232,-1.2165345647232393
-0.30745723528326885,-0.26952068813670255,0.04836429588311414,0.5754077505608383,-0.23274533509290463
1.9935689681226976,-0.24521559474588658,0.8164428223266457,-0.3057207793970951,-1.3172025365643278
0.48634855496288065,0.2999951370381265,-2.216529181586372,-1.1923530069948272,0.7586226310054154
2.30886723874424,-0.184937287284029,-0.25000490948832954,-0.9679359438640927,-1.4728573228997501
2.5683624893723254,1.4113478295331683,0.8699377230396944,-0.03273251122953635,-0.8230649749419867
0.8383971443423761,0.7017988768153254,-0.38041833559402827,-0.060549304526970854,-0.07906659885530047
0.15152503775692944,1.5608411251323229,1.5445512441610025,0.7349506059502714,-0.5399691688904414
-0.31606244681206397,0.22494646188369496,0.65490742849297,0.7174012126189286,-0.9667171100445584
-0.6122622066033971,0.21992653228812498,0.6243023774112959,-0.6485437281528753,-0.6667767498896234
0.44586956860107924,1.7219268673138752,-0.3149254649646948,0.5084699047386573,0.10792929116294148
-1.2054907259951781,1.0068391798245402,-0.24311116354268122,0.9912684906049836,-0.3118139716842192
0.18272796130025024,-1.3444402664005735,-1.3402545230405498,-2.1851776581982065,-0.6727302838564861
0.5948841850990965,0.37741129842176074,0.5267620278824598,-1.525302681425949,0.7714531853911901
0.4243885873168056,0.05568317682044837,-0.6981217034921658,-0.29703112269488086,0.1938508705024836
-2.7333648524712144,1.348891286022598,1.8716549475557636,-0.7572834564866864,-0.8208309032897613
1.0799622815920364,0.30728396969923,-1.2412318066132875,-0.40577486872275104,2.3992809890489792
1.639945281967998,-0.009914220506097256,1.1024976445454775,1.7659147615221273,0.8970712762764748
-0.21237269837364825,-1.226220969652976,-0.5741221507613647,-1.4090679215865582,-0.1556783390455875
0.44240489744858125,0.9496113735534583,0.8861582961131661,-0.9900285812997084,-0.0741899408387269
-0.09864182554282858,-0.883364443152431,-1.0782387643162477,-0.2523806161639868,-0.47403921252194015
-1.7480158154585883,1.7981294544338067,2.022018325153012,1.9212156520632542,0.0200666792545034
-1.5590303554743792,-0.12388441697237175,1.169411690983254,1.7328706863223902,0.8397067780204945
-0.5322213992937791,1.8688547621973486,1.405421291511341,0.99969125918934,1.2937668021870452
-1.3407387009760505,1.4260683898498858,0.5914407091634094,0.8676136994428729,-0.2672633618064313
1.3222668730382663,1.8378275728356828,-0.1985604548744059,-1.031479011460437,-0.42329458768732875
-0.019086627470536632,-0.11515800333023007,1.228131320361344,0.37024602989147753,0.8100795704710947
-0.4725516719416956,-1.349373890844937,-1.5061251997451233,-0.5538885891043364,-1.1644918671557416
-0.8207604223390839,-0.4164348574677654,-0.7636858975465718,-2.1047619034221694,-0.18970577807790331
1.5782769878848157,-0.9797003256198278,0.5582657561214888,0.32868425261885287,1.035209814402999
2.081265093206482,0.5326695215249421,-0.43829740540762724,-0.8242331548094564,0.2804410182339433
0.21833102465278603,-0.7804106740715762,0.5525117656788142,0.6583482275279933,0.24607673205837216
-2.862381117579005,0.17523272911834742,0.19714457510695288,-0.9577228224912078,-0.3148616597898461
0.8348844486970881,-0.5102004647586752,0.45584596880675343,-0.14969516277410147,0.5563179773785066
-0.20751345631332543,1.734215134978969,-0.676278889965989,1.4436734828673026,2.2369498600743203
-0.08304191381082013,0.7355970131687817,-0.9794190404933916,0.2373508115473483,-1.1319143415815636
1.488752468981099,0.7880026847779545,0.12259316526787013,-1.3833764087141625,-0.34496680369653215
-1.3607250158983006,1.9602220692573886,-1.2956585385100448,-0.6345835524818714,-2.1582431488045475
-0.14456325678869436,1.1173831937796816,-0.9520473041014421,0.11422581193087848,-0.31274294845404177
-0.04469052588718604,-0.14963180492219044,-1.42299385140912,-0.4527393578562114,1.7103606372956013
-0.09728152439321974,-1.4914833839516857,-0.13789721693261128,-1.3431265564154766,-1.2543218026258598
-1.9874816935848711,-0.4392966184149056,-0.27047345549473895,0.27417476260345874,-2.180063920387818
1.0732837077751265,0.9733767720702275,-0.7927857631455245,-0.6811301466490308,0.08368765257725864
0.46034969256972,0.3648287110704029,-0.3575118615216503,1.0568274980175092,-0.7243315015108912
0.3478732226961515,-0.9530898225581996,-0.15558930139134866,0.6389782923706074,-0.7236044390957623
0.7558568653994139,2.0505740399806727,1.55234269961152,1.8813694378207113,0.8606551695562583
0.4211212414364776,-0.6591625788734925,0.1532219056012293,-0.14175442672260707,-0.9184832949361914
0.19493513236140253,0.5812385998624662,-1.0110624111023905,-0.38952449861305294,-0.6592250849433388
-1.6907198573123638,0.8563755588470128,-0.6219272922703745,1.5798511050209485,0.3307031712878894
-1.1316466946178692,-2.3511203992290657,-0.9123722392165594,3.406533867847836,0.5609607105559621
-0.01604431554436878,0.7354385382206989,-0.959004203511052,0.8928090462542124,-0.9765247437199518
-1.4753378836874282,1.7993936210770713,-0.3426758499343725,-0.451137318484323,0.7128123804618582
2.230292973309641,0.4206532961918848,-1.1016882185042147,-0.012380620808626999,-0.2768631614189033
1.2005727303893523,1.7913616759264916,2.0808176192411914,0.8993856806943537,0.929376367866612
0.9576243319999788,0.10868505014035197,-0.4657775013664313,-0.6854118156828832,0.107407562943544
1.308086083909127,0.8490243400706105,0.27117188119080216,-1.0076543043358988,-0.948699945287127
-0.0310985735288311,0.1051792078639254,0.7004701133430826,-1.7346008508784314,0.40235740791860863
-0.3959463510751132,0.3347528427956213,0.7208567427275118,-1.126121116196396,-0.31763084810081815
0.46133502783196473,0.5642306131104076,1.3363004571650072,-1.406973851662973,-1.2407223044953473
0.018699775457983354,-0.723811225571047,0.3213791676644315,-0.16939560389348704,-0.11442548053551754
-2.1883409387465336,0.1934389353651539,-0.07117336946586982,-0.5480400194694467,1.5739448143876822
-1.1065647565430008,0.9666833073122415,-2.2592792914256283,0.37164694757363076,0.4309962738250229
2.3924820063762517,0.07723958792607787,1.9380031350031242,-2.1084297243783094,0.3617158058205824
-0.39318699895566367,-0.9777760244914764,0.7475766246521153,0.678631287598182,-1.0742107475375196
-0.0008203254523890723,0.17456585968750093,-0.5586582540268651,-0.4309953720170935,-0.19634588245318113
-0.26727572270827443,0.20366741719416917,0.22684841182760682,0.17104191802206933,0.10073148303967572
-2.270386505282395,0.7724645997079459,1.9716463414280487,-0.767452468803494,-0.8706923737582869
-0.6174912526701871,-1.1907605848497023,-0.5922811349964555,-0.8844650850661095,-1.1901448418312526
-1.0240774096870924,-0.24044448485488049,-0.6396739569675669,-0.5649257980391708,-0.6042735975257586
-2.617302346138682,1.7872151308088595,-0.5209938976569449,-1.2812005666629618,-1.193859084168272
1.2377916950250507,0.28416790077620974,0.8642567686493022,1.369742073650833,0.07608811583300293
-0.689266519926735,0.4224051760610954,-0.2790764701136394,-0.3741279130784723,-0.6617248204549511
-1.912803098611529,-0.5799880475932978,0.001132875246508563,0.8846727182834153,-1.0988665498769787
0.6687086669710939,2.2553100992224304,1.2390004948136168,1.3176713573675936,-0.45131508400168496
1.5417771959598778,0.42115111525013377,0.7113742110209759,-0.661843617661855,-1.2004185501354374
-0.8510940943402233,1.0907756456830764,-1.5077904496517909,-0.4557674033565499,-0.42552978460696606
-0.801589048417846,0.46571149156200636,-0.7812816497726466,-0.4013357598048614,-0.41734289884342746
0.21182065017359275,-1.0371526521529841,0.5234725216851319,0.8613445986907223,-0.5448228874810792
-1.0068017087948724,1.320610456339901,0.21330888311294544,1.108370127448732,0.4446229642920007
3.3914187657199726,1.3663116625184548,0.24446849585892597,-0.7519924067447503,-0.05704308322000941
2.6882108647036707,-0.6007847886311908,-0.9236687726910556,-0.17748301325967522,2.0409644036220453
-1.7405487432039952,-0.3489444322011716,1.055146084279341,0.4550383124645399,-0.8999809529784737
0.5075980760836057,-1.5923861699497188,-0.2840390781179043,-0.5497041797230231,-0.10043283380519041
0.17555125970482927,-0.4419658634078121,-0.065729385651956,-0.03538955261724351,0.34171523682358845
-0.3755031360057241,0.9519276079810739,-2.1986661078632306,0.16020547417577347,-0.23303512618221164
-0.5514671630875847,0.565491235546885,1.2334510185533878,-0.16981741244979684,2.078298802417709
1.099472895220701,-0.276996734128293,-1.4385329313427158,-0.6709095926446614,-1.3599254778758867
-1.5078254139156368,0.18698602443881032,0.15376271616588771,-1.3059705613127315,-0.5567651708914576
-1.7013651216299424,0.44712227794468096,0.4653972030817979,-0.9212492957737058,-0.04336259001765672
0.46049252270579,-0.9497548427249127,-0.5312970073679022,-0.49716801064579563,0.0417453942516135
-0.688517312102467,0.6413289459765166,-0.7993247922755079,-0.7366338677229975,-0.5905124482222032
-0.09920293511897041,0.12514466213379427,-1.1989597984396803,-0.6809407485816862,0.9127648857258333
-0.05520623048888091,-1.623085020422604,0.3553415007633146,0.9481480781574686,0.648911687442365
0.1777482985820064,-0.7766649737366026,0.8046934729967145,-1.0779491881852692,0.02961048776827122
0.5933304372101907,0.18067855499000426,-0.7422223496918893,1.0224835477733425,-0.26657604421884235
-0.7512699495688474,1.0800501183310536,-0.5506016706406442,-0.866271254195841,1.6720866722498458
-1.0351879227620617,0.12460840349725526,-0.26951246111046046,-0.5069776794199415,0.026271495257412708
1.887095788359273,0.7460116104077179,-0.36084326049508525,-1.6183145974794275,-0.6240756470247995
-0.7165713088972454,-0.00564030478150038,0.36914300544234496,0.15330646633574582,-0.18434551038347705
0.8280126928085227,0.07224378964084933,-0.02955742917291534,0.1700431016798995,-1.5327905159088904
-1.0354937504974944,-0.10051890058357955,0.36912464142723755,0.8772327242601899,-0.9117765029265992
0.10096031539507215,0.25455721860453334,-0.14415082080201175,0.4047715253701859,-1.2564051970186416
1.8072408837072702,-0.5126340616551813,0.6689507914981845,0.19605239661519447,-1.1783519842841288
0.6338940375341382,0.7337129761897214,1.354444211579947,0.4365157337114013,1.9519712959811089
0.06454350575606502,-0.5995977843421293,0.533429367537698,-0.6390557190450086,-1.0857118023948042
-0.5320757219712283,0.6844423792583827,-0.1597023833903482,1.6910533716969403,-2.850725165030504
-0.005749222826841416,-0.7155276877624784,-0.1974429875849933,0.08597610991502241,0.8247708374361435
-1.1835998708979734,0.10721930483188395,1.575401585745953,-1.7503189559048278,-0.11186337097477325
-0.5116334882721196,-0.1616494109256911,-0.8459295920897894,0.7707507689787064,0.21258413930383022
1.192371502235749,-0.12262584749191448,0.15566750941449845,-1.1608804513747788,-0.6295955501887557
1.0913972727951158,-1.2338281475065536,0.9974348419440339,-0.9086828925443021,0.8297004309467807
0.1431274650975115,0.09019378959219425,-0.18869466205937147,0.08835050541031805,-1.2775894710158242
1.6370900001576725,1.1483198816998064,-0.6836948440022139,-1.1646707823345193,-0.20620513136048427
1.9528559309881501,0.5123305233985579,1.0879749269491596,-0.7779930108024339,0.9828749851392449
-0.04322222475313647,0.2134363213365808,-0.7097079773167727,-0.7745152445816936,0.5092808849389459
0.1747243863692039,-0.5331282993468698,0.6346609156287875,0.10296039695813387,-1.8550213166429332
0.05313331365377219,-0.04124069242638974,0.8296967682072759,-0.6815722037639133,0.9915628377293597
0.5040321800319312,1.2525522153208717,-0.8993210791496924,0.46129568067307175,0.9161164995984847
-1.0195379606222235,1.7344252720537126,-0.6334386937519716,1.3150416049924687,-0.2980157890171154
1.5815614371691593,-1.5362376370945852,-0.34189868767361237,0.36716555162765646,-0.549026690252183
0.9552310355848103,0.012242058745688698,0.06915416392797503,-0.9289005765751167,-0.4783815125094815
1.5084164724770917,1.0113832416058302,0.530912865109767,0.40844896172290474,0.5411748095785078
-1.8111664443889857,1.5953342868212976,-0.458033337169824,-0.4179190383496235,-0.8247088208643857
1.55332352852988,-0.8944293119587782,-0.9912657087111929,0.21469549128858034,1.1347848534568254
1.4439377593935208,0.4091473536785008,-0.12720927410360394,0.35371257746732676,0.09389402019274495
-0.4985074685300195,-0.7168182823497766,-0.41466683338739024,0.4408153883246698,0.16929476731112375
1.1285704206242846,-1.0169672929018774,1.8480237415082217,-0.5670692069390635,0.25839637140405075
0.14824627072548752,1.1368073220163475,-1.9009006177415881,1.39366377853144,-0.4558720000388802
-0.3704368836375811,-0.5452408000536069,1.7488606143994463,-0.7455860045758032,0.032398519574967914
0.12772728278509388,0.499448848512675,-0.6173554466973474,0.576675586703342,1.3504108379760582
0.48836598246667773,-2.3125880524393563,0.8122404408228281,-0.2241062814890275,-0.12090950041488854
0.027084107265261118,-0.6671705848466596,-1.317531420392084,1.8069976590975958,1.0309832375045573
-0.33615851310136363,-1.659815000101182,-0.6425905280380653,-0.6693651730886986,-0.5337034313700092
-1.029151513571722,0.6957051376808708,0.9088444939183831,-1.2170864501550362,-0.17214228478000804
0.055243706390365015,1.5425985516745648,0.2755419933841378,-0.516856294741937,0.4521806674147495
-1.226613875874746,0.028800813706494507,-0.5343132382155974,-0.30060170063198105,-0.8135779161177243
-0.7075518108327075,-0.02929620406427138,-0.07777925367757435,-0.14456198156283337,-0.6797373135474823
-1.1255474798462515,-3.502654041587252,0.7126734650114124,-0.44725306416384875,-0.7700370786885286
1.6827115246113096,0.1297885197258899,-0.6764725032423997,0.3218530722139772,0.07900642430934894
0.740716468555263,1.568964055593951,1.0950887563557037,-2.960980163277709,-1.3637649680596764
-0.045948591520727,0.6472848256286166,-1.0417255094364144,-0.5657722914512582,-0.36672187391179445
3.0804022744393116,0.3293643746514608,-2.1072009829640153,0.18369298479978266,0.6209707811508196
-0.06533467285502131,0.07834635670962127,-1.6386471484057243,1.6321065695620125,0.44629732274186656
0.6618127606806907,-0.5721765723738736,1.512491625303912,1.3267202387559822,-1.6688525883247844
1.1504645898760875,1.6723155943035113,0.9714934984875063,0.28755270766578755,0.7480284218510433
0.1279236855546026,0.6687670570974319,-0.1449804390544287,-0.1586572826809687,0.8168385458190025
1.443743318895887,0.595139045324622,-0.6032461682106927,-0.7523247213498812,-0.8852997527784263
-1.0241599378576025,-0.17888822778667976,1.0183342277053868,-1.2282396407712755,1.673199995335052
0.8411086686995378,-0.43724172699090247,-2.4972571308600147,0.06332541780448836,-0.8054857155713235
-0.04386339649334322,-0.1945701863869462,0.40577402224219183,1.1526652321746533,-2.4841363385143347
1.7517238703014517,0.9249806459166023,-0.6956737218843279,-0.19382622564058632,0.49101816758691885
-1.6189907621430526,0.8279432617357262,-0.8893463276799203,-0.6703183950257969,-0.09677533368210638
-0.6594236152586971,0.20056230333413377,0.889470221067338,0.20631495971161723,0.0877370701644641
-0.6956247343731999,1.1490504187337822,-0.6284712867551331,0.4266603043033894,-0.7512779390352954
0.14494350878243928,1.059826679031624,0.15544245492115216,-0.4282530628286399,-1.2077180837427244
1.0954093799384867,0.04428642661601034,1.4355099463357845,1.52817366838658,0.21371782480617532
-0.5869693792813561,0.3430281275917087,1.0530154433776224,-0.9647995958106643,1.2789530527657333
-0.5576133773653692,1.470758121938198,-0.7607270420303187,-0.7464094196011191,0.6800710968651618
0.5406855988275312,0.363928515758222,-0.051904368057626875,0.256842549322942,0.06860338330353107
-0.14323364782958095,0.6882237152852655,-1.5310518590424298,0.31929282705339895,-1.8392823979623423
-0.221230816789875,-0.9517790869689075,0.3387860765141936,-0.43179989266972,0.2288056277946531
-0.004632354332333532,-0.43382064486479605,1.1244584842668743,0.032502735051416806,0.5284100342457891
0.3840780933316346,-0.47994769299595647,0.22573684209056966,-0.07901684077733619,-0.19540191459515263
1.8421926592939055,-2.0214642073500855,-0.34716646660681094,1.1759760218633426,1.3061590703599586
0.4715818987483004,-0.6035403807174649,0.6171627158450289,0.12692246536383028,-0.8419909736921627
-1.3954081648746686,1.3171965981693619,0.0881796295029006,1.0652993778340472,0.9167829805331411
1.1437069785210756,-0.9073123882173432,-0.8211354191266105,-1.1034547202897613,0.6987245337592171
1.6404912069149395,1.2412709472690782,-0.3602840980911091,0.5622914071398846,-1.8515794112171264
0.8010322439088924,-0.9225471509362689,-1.0283924198507512,0.7057755612056108,-1.6090509933590451
0.20467740663745707,0.5740337852771519,0.6144014729689653,0.7007121119008513,0.5807361555974568
1.3307121019055534,-0.17029152316669396,1.8769510411999002,-0.6642611893392294,0.9575093241210287
-0.7196871848067086,-0.07853443070841529,0.15008505034027056,-0.47179165552926694,-1.4881076003602918
0.2876616996460764,-0.15008747903183142,-1.4210564594601591,-1.2612425717161762,-0.6852933488264272
0.38017091892970567,-0.2526275641365897,0.8201458317258724,-0.022003117189548525,-0.3848269581975244
1.7812444484635168,-1.251932431209498,1.190106977892953,-0.424440605208159,0.9445725488726353
-3.3346264612699965,-1.1114299532188685,1.199699400518235,-0.2933327628909053,-0.4219250635871927
-1.4965402191697077,-1.3630207485676278,1.4629161247926332,-1.1623988863937742,-0.12834205679006036
1.0444964770323253,-0.46134142388749333,-0.5158694817747282,-0.04992280318089958,0.4282666388083823
0.6738098827621206,-0.8471296361690454,-1.0927479035651784,1.0549047712612873,0.1308365291445095
0.40334087991660916,0.9862114005825476,-0.9795351511825102,-2.0863836255335317,0.5327289749234425
0.5322888303152755,0.8643187561996484,3.0501708721020453,1.1670544288400202,-1.142901391859381
0.4740943703461829,-0.9460742241827561,0.9626034123226599,1.5217265704566334,-1.0712739365583785
-0.5610819783790023,0.6817821052421601,0.36113559277706875,1.859285869708607,-1.0878650197149422
-0.5871858248033326,-0.552712949492438,1.1181616491975064,-1.374129474544722,2.854661058061046
-1.6404585331176946,1.395926196579628,-0.5759660983549819,-1.1209026685060983,-1.5286991757983726
0.9456720465938616,-0.5739296646783876,-0.6189940254474716,-1.2371221563186345,-0.26568010880952936
0.758157122537666,1.1866090413972097,0.8796553646740469,-0.6718469056103245,0.22551821449290782
1.4870156707520135,1.0483631228684298,-0.011056659986160292,0.4512534061915719,1.5366586479910964
-0.28805684274203947,1.388317385796909,-0.32042831237949754,0.858341970169903,-0.3795545793285852
-1.4394521865264405,0.35018565575084587,-0.32678327787643285,1.0296384043401372,-0.2202290704512219
1.2020445100132535,-0.0825121942929658,-0.2253707451927486,-1.3788264764562739,0.06022363944582229
0.3436576393182945,1.2303636770690596,-0.3159618754574257,-1.3149877563938859,-0.7775120591321939
1.2432331885092913,-0.25418949536886193,0.05723539966591503,-0.16876255783656696,0.09870960122520604
0.5675823148014673,0.0009834991851183554,-0.8757777630883855,-0.5842388422881666,-0.7691575495362295
-0.806765845997019,-1.1545735672432744,-2.0426521689058625,1.3041292668913178,1.5494858874326558
-0.14277397062272906,0.5370390818552068,2.230867434554685,0.4364040382979564,1.1555305519043755
-1.0436300437936314,-2.307930897908675,-0.5481620050847604,-0.001659424290011063,-0.4784074221762512
-0.17629990229975323,0.20786737372461608,-1.0757276950892172,-0.6658072963438468,-0.9691691085499318
1.443555426195149,-0.2064130012524118,-0.9952411516973402,0.21460006625680103,-0.3747169601805381
-0.5393633912543123,-1.4969582046284673,-1.229968810606469,-1.027970601038867,2.8090795682543277
-0.5204977448043724,1.0924668140240648,-0.005188820722952608,-1.6213609391696133,0.5448847742801324
-0.12291204551724337,-0.43996952192626965,1.5825381903904023,-1.5429631130903587,-0.4533850323173649
0.279529647613391,0.5980612905575712,-0.1461299788341991,-1.1615999011684173,1.1322833942757147
-0.5502462128808197,-0.09188592964150308,-1.0458459984887938,1.2555190240721001,0.466682914084589
1.2870031643211945,0.1438461259142088,-0.21933434844981273,-1.7233157594646653,1.1539505882152132
1.8114515469894588,-0.7818875534479226,-0.1158819172362191,0.7442121250764292,0.734892729805819
-0.15717380298371889,-0.6257232455359446,0.04008482110323632,0.49938671816179675,0.7228434880832794
-0.8177775445929731,0.32056318257272914,-1.5022954111707478,-0.25112678970554275,1.1119681810206916
2.29616210103975,0.16569997608118767,0.6611425966039433,-0.4180318985700959,-2.0687174172195872
-0.3040921874398834,-0.10358731011387208,-0.3081401927461439,-1.1707639664788583,-1.1878232181074555
-0.2783479252603445,-0.2384403365645036,1.4029799393909377,0.9532776480712205,2.4915062305878877
1.6809979600661518,0.25124634766376386,0.9868280437599338,0.027321065282031598,0.8128591416797468
-1.0227090535332848,-0.3988811884225569,0.0037158033651196456,-0.7281478829819379,-1.3205060733291885
-0.2817439277276372,-0.657020131370874,-1.3056353295966372,-0.3167270066111407,-1.014591766908608
0.6736512720467612,-1.527086525954455,-0.9169078362652338,1.2489599530616535,0.8209819975367308
0.23408302543578377,0.9327326231267126,1.1727613388506073,-1.076380075927059,0.6659703917032881
1.1095740023036404,-0.624575842050091,0.8352024320049231,0.23506038943181856,-0.9668326031353247
-0.45203038504222354,-0.7822194697293797,-0.9111839720132996,2.3369837881437308,-0.9916427297252857
-0.1725481622326361,0.9403873513533669,-0.12829844642744176,0.3362975121233955,0.8407536259044642
-1.5528540716950578,0.3686095715028885,0.9136434756672919,-0.3110369382055909,1.2083798463142568
1.034168857936947,-1.5193379731423315,1.5454857817269654,-0.8981434840566469,-0.9110348777317056
0.042555038345632054,-1.5226930227632607,-0.1345046780305856,-0.24791388923011615,0.4502730733262892
-0.27919847650034785,-1.032141048861854,0.5734216361454477,0.892534333937845,0.23541941246920164
-0.42387324355253325,-0.835883564020338,1.413398119973705,1.6390767593268074,-2.6367370937634362
0.7804787879106031,-0.17327655544599005,-0.9529165415906977,-0.3909489519348621,-1.736818343935619
-0.03849022932216646,0.7747186281926981,1.4147826156481031,-0.49691794530826217,0.5582122702053157
0.2235475084988421,-1.629216617639176,-0.04336176528099316,0.6526622971269133,1.6394057886556537
1.9460613752420093,-0.3475353409630711,-0.3943893700337021,-0.1499161009838793,0.28756496679068866
-2.0547852310353503,-1.490824285084612,-0.26074321918469096,0.6787867278641175,1.2271865106643147
-3.0440982835720547,0.7082875961885289,-0.057992967256434894,-1.1427932926813007,-0.18880831601308865
-0.6991595603365002,-1.2675942372835256,0.5292887965286117,-0.24690867256915483,0.2774760313692796
-0.10437827087659639,-0.7076079051014312,1.0133278304495656,-1.1251709064402953,1.955568054481633
-2.086898664735937,-0.9623524781252207,-0.37906464133896306,-2.0120224177229997,-0.33755980891463666
-0.2464633963004233,-1.3558231725835888,0.006895081760827675,-2.5057918799741756,2.991222582821057
1.2030875758616917,-0.29142278762565893,2.5862446611370213,-1.236739514159109,1.2679464786871626
-0.6453345363545265,-1.2604808642576826,-1.5679956133078368,-1.385630158202071,-2.3356891687289494
-0.1467794035079338,0.39162346645511165,-1.2451439555265738,1.5708238718051024,0.9964926862617228
-0.5381678963678341,0.5518408491979584,-1.5632603925020867,0.39238284194571027,-0.25830042868190645
-0.3399493000357959,-1.2158262860383868,0.3323576346059586,-0.09264870133301374,0.4934395865332368
1.283563511490435,-0.5067829184656963,-0.028265331475177673,-0.7792325824522782,0.4750853318022653
0.37433289898695804,-0.3161015335940774,-0.3905047070388548,1.7916448249475458,-0.890575391565792
0.6067957042644758,-0.09628594398802759,0.5426559226430671,1.0846742864013466,2.0861539612537774
-0.6346778069875115,-0.8480990159541537,0.4660730748097789,0.0425049651208405,2.3291220191695756
-1.413798224907394,-0.9667280328261613,1.7158138425388427,-0.36793269966310443,-0.6165222816001771
-0.0669773069945505,1.2119721941044315,-0.8199849779069858,0.3263290911970879,-2.1210233947040416
-0.17381698972084064,-0.4400386071634189,0.3875990943798362,1.5783392535818501,1.2188924208857757
-0.5867539415433473,-0.9794842371635792,-0.7594528360076768,0.8129672012529799,-0.4560254040849492
0.9537714842124904,1.81520274929866,-1.0202669976174836,-0.9188953841539071,-0.5412447553403302
-0.24927953483777185,-0.9501137687580639,1.2669146908498197,0.16499589755493593,0.24001984906545157
-1.7084767276316486,0.3466101684664414,1.1280872937402315,1.8525119044491944,1.3334900409986319
-0.5674263030388154,-0.3319600995620884,-2.816923598209563,1.1121051998099558,0.9138777167482849
-0.021021941616370284,1.6655516905162377,-1.3080227906256185,0.3947062952921152,-0.5684816821437071
-0.5644261566499332,-2.8642536547786253,0.7442277658302545,-2.428607894154203,-0.5375364047620258
-0.7167774916017475,-0.13581902597069623,1.1657356651724007,0.7953260320277268,0.8160291077826267
-1.1568533663723595,-1.4394453340222706,-0.43742898010079906,-2.0262519333233855,0.35547375220864175
-1.3044738799823559,0.09324842835632342,-1.5329623328274729,2.327688872990073,0.43136023269973883
-0.5511975519919491,1.6685981186144092,0.4365770824278834,1.0038069186027967,0.2895627907227889
-1.9594990315059493,0.01950165401150503,1.6360943833533783,0.8432826141574826,-0.37998479681794073
-0.23436852846813844,0.14670662132323298,-1.7705425392239078,2.223140104496019,1.0173828917307777
-0.6614042416131636,0.8128894254645563,-1.6926703390315505,0.45512564060766003,-1.0402706829827428
-0.19321863125955366,1.8548239599637684,-0.4107737026734728,0.8026146369631317,-0.8722061498357159
-0.409667843613781,-0.22956342392829834,-0.5034843928728211,-1.5925194006603487,1.7826886262515393
0.4889458148839995,-0.13568374059155938,-1.7392474326272485,0.2146729037917546,-0.05561083556155759
0.09745214433309442,-0.282071171061964,-2.31466141608618,1.3452200325336985,0.3697409584256184
-2.9081737726040764,-1.9302135981628572,0.3409679695275484,-0.7068396041677998,-0.5531648834000837
-2.123813549910189,0.8476077763215588,-0.08873850347456877,-1.6533182631570678,1.1080927608295008
-0.698351511903245,-1.3565616121170299,-0.014477845317390499,-0.9212179298800158,-0.7509539445329133
0.2837098178615793,-0.04650259186583778,0.004975540998345855,1.6704352118479242,1.3558753101520398
-0.9974423978258735,-0.9840428562222928,0.49073275038429015,-0.5744751535916918,-0.3910727142925866
-0.8707596260205527,0.5659176037793159,1.9014565604260654,1.3905403662143692,0.07598254557482377
-0.22395121719555264,-0.2918414237148658,1.5485847032797455,0.5287241833574726,-0.14780162785233356
0.3535713474417598,-0.710224822715725,0.5549864338662268,0.779617178696097,-1.5659435194267641
-0.7316671235252568,-0.507486512261964,-0.4563488992000649,0.4891162631184798,0.19953428569847276
-0.1264200793393779,0.3450105981309377,-0.461041322192909,0.5719988244117897,1.4178414620730797
1.1264262394609645,0.4979318656715918,-1.1979849653461494,0.10478944073041438,0.6588677822643346
-0.34682479019804574,1.1614942049543453,-0.17071983884346686,-0.4145529402963691,1.1043625191226032
0.3486667238701305,-0.09999523722114748,0.8157083987357541,0.03830077459847263,-1.0157288060335907
0.5521475174195442,0.36697808769582757,1.3191566132674648,0.08732410487944711,-0.058356410755335604
-0.2176253874325814,-1.4145039601764529,-0.7856018475154438,-1.3239355746235342,-2.0596503576702667
1.6905306531255742,-1.391650763285614,1.089225071287208,-0.6228612635371359,2.2225231735605697
0.03735971277712749,-0.5225257136557309,0.14545734467494836,-0.4656527992317573,1.0606450999363548
1.571452548501645,-0.8353187794161975,0.08691876380426596,0.6416825802188422,-3.218920962430831
0.1469438275461523,0.30962702655348473,0.16637497638899953,-0.48537440561948036,-1.9063422794529359
-0.3332671552352572,0.3552254466210608,1.5309989172698104,-0.2917629298287007,0.6691430933081189
0.36677605545114295,-1.1284707500975955,1.3137482523068829,-0.34877871073014616,0.9452465965412522
0.05621309457618296,-0.20930854396672283,-0.27928065718371803,-1.1298923676348736,0.841103532382467
-0.05636193269354368,0.6396552529838568,0.5563958542603721,-1.8811321562858438,-0.09448283684447496
0.8811692984630177,-0.22248189966707171,0.13455760985425697,-0.05187406157547308,0.14805622419809109
-0.8242285099686553,0.4569020754192363,0.44657263891075716,-2.1000408047444457,-0.6047012329454724
0.18427804511625104,-0.1314050785278588,0.42772476620956423,0.4900539842859034,0.2426636901680066
0.8986811839576346,1.9981745310206442,1.206323763078992,0.0014628773093589757,0.02417466397622449
1.479617512502628,0.9014805485266212,-2.3789647145738044,-1.8962860699152218,-1.533737916520383
-0.3268694798085494,-1.7433669812381605,-0.6712598809609298,-0.6016406928096637,0.5729581275526777
0.8245707558424136,0.557186179259931,-0.7587712808393503,-0.01785448910343449,0.7365228269627917
1.8837744479999596,0.10214490886709077,-1.052581371544197,1.415349236832876,-0.9216027484870661
-1.1884263413936886,1.50214652175354,-0.22515197908173426,-0.005341680050355546,0.30517111990022644
0.7096579632401383,-0.864529172379866,-0.5323446350907617,-0.4073587752897631,1.1190268854425884
0.781310442019956,1.150570093537281,0.12094175033846347,0.6292602626617166,1.8911538109976438
-0.24010951148407614,2.067033035848745,-0.33200809410903254,0.2767044995672603,-0.08663808581953734
0.7333006879974395,-0.2635826412717315,1.0752325192676704,-1.6972104031200168,0.29668470808558284
-0.09478746681548803,-1.5627978679869232,1.8067911450310612,-0.7221303864926484,1.1003060296104434
0.4031141698525544,0.920768020873401,0.1025907821995691,2.236392030736389,-0.9524339303350116
0.7255369952395092,2.0055174430250773,0.03385336427577544,0.2580485483685698,-0.3676855086839621
-1.531658614973715,0.4625488919972986,-0.81155199780693,-0.08866875341833093,2.400990907505197
-0.13626716361632027,0.4119857365253184,0.6305643663513507,-1.0161429189071,1.7966517987528465
-1.667520749501723,0.6643584868737555,-0.7909395333418343,0.322356972665625,-0.8230572547382988
0.2083279187915633,-1.2499121862435931,-0.7339733307138653,-0.8724719646773771,1.6579207578054918
0.05267081021357416,1.1537637015352544,-0.17745122951517803,-0.63950853267891,-1.1193758062483807
0.23847264053599201,-0.5507740265910839,0.2452523598232815,-0.3361928044715725,-0.5705507478347884
1.3144437104034987,0.10308151943918678,-0.6616973947580663,-0.25706232360208997,0.4240899716533625
1.9291618417861476,-1.2664684073025303,-0.6279246848900903,-1.0416235078141594,0.527547834572675
-0.4911705740840168,-0.9427137417982869,-0.0680244718753923,-0.503326260905937,-0.2869405854626483
0.48031139340272777,0.1581625262141657,-0.12061626279478745,-1.0895796051759916,0.7386521005692137
-1.1831114375499638,-1.0088994623197975,-0.17124646947614863,0.9447913436853508,1.665133611489161
-0.17271617976825382,-0.5870230067930123,0.36094235184987994,-0.1149792482141035,-1.370077907663625
0.7696395276792657,-0.36486869196866323,0.127288866440081,0.39115149624922807,0.5773594250201702
0.4438603881825649,0.7884986466063258,-0.7583524010386883,1.8546927945527254,0.9540814627042816
-0.8950734186797218,0.07261042429491633,-0.3448270943472178,-1.5757299701624774,0.592915926065259
1.400387454763508,-0.6138282879211796,-0.721013198967279,-1.999889085058651,1.4779607112235198
1.6182201199337916,0.08570375546444524,0.7249525195696299,-0.3493073766779581,-1.083753509190231
-1.9317813836487292,0.01696291998262951,0.11521531496614898,0.35292102610549114,-0.32844328884513385
1.2217888698024504,2.393735926055021,1.1130391834297597,0.41707091782270145,0.8335909820017017
-0.8145521422533177,1.329975748308462,0.015893292899896706,0.2839088762934565,-0.18132975003409346
0.6420995096523948,0.6439944815701224,0.5156331245764211,-0.6794243920428793,2.2289612083823775
-0.5984545544290555,-1.2455984486758245,-0.027629763297399686,1.016488362180878,-0.3855368774239865
1.321326935949404,0.6200976964463143,-0.48693033694658133,1.8726638257443837,0.44638656027814405
-1.0869141185958142,-0.5521687148552266,-1.303103893448237,-1.025200934428414,-0.31469128179969175
-0.3673302427075156,0.506883597092899,1.2962920356159693,-0.3425634350560381,-2.6316148649610747
0.35462111019469916,-0.23994690606619073,2.4522781898513673,0.5550045988184362,0.6011322727805407
0.4223514078656155,0.47291821330239453,-0.350198155822263,-0.7126513227855813,0.49132243087588395
-1.3646966402467513,-1.1877748605433172,1.8195678797311183,-0.1420453723286774,-0.3138276559227497
0.2885657768406947,-0.9510591955010997,0.7275315054635915,-0.23640132135713043,-1.8963470332542693
-1.1262121197053085,-1.7966624080560687,2.570571119780568,0.7350722488171458,0.3531684289563886
0.07338702648788206,0.3714779269475032,-0.21382057912684868,-0.10641053146602199,1.0165406969354838
-0.7680721921774809,-0.8938530355728412,0.8083041923295105,2.7596658100596256,-0.06625163776071254
0.4308202269312929,-0.9460645683926328,-1.0555016958728238,-0.2522596515509995,-1.9242560599701948
-2.35601061745274,-1.298208938533558,1.1226364066560737,-0.35582837418049795,0.05459814373254096
0.5297789232398425,0.37417417008682097,-1.2515584016426828,-1.4493704269105714,1.2033378407780697
0.6467115155689015,-0.8109388238235615,-0.7365097543389066,-0.32435010079205095,0.3738905492226634
-0.4568067499353049,-0.039860483197542054,-1.163529885972301,0.4136364623860435,-1.3928272907195918
0.9046471673513948,0.4502517338504477,0.5972949451366888,0.35928741805691733,-1.3372389141102459
-0.9035796639324558,1.2855067426578903,1.2936215801944575,0.6697384581587477,-0.023787648523209342
-1.2911689899162777,1.5569876861030958,0.19508539100881617,-1.031323100790022,0.27873212201986663
-0.942262895164341,-1.071719855182689,-2.3066526587283556,-0.038738686317849234,-1.5602865746211192
1.6650530523807217,-1.091476117884524,-0.34473833227529327,-1.3685118442642688,0.6285006663433698
-1.9200870116772428,1.2048839559849769,-0.5832395810793856,1.15003496316461,0.6151540721599253
0.8568962567246071,1.2398684046029522,-1.9909852037478777,0.5118473050952372,-0.6256080433419199
-1.7810300519709106,0.7076441683977839,0.07603018519011638,0.18094404813316253,1.1284680508318976
1.0742817398926923,-0.7403626140144741,1.9219395012120892,-0.7997080413813912,2.0337360604924912
0.031015302150455015,-0.3697358411940883,-0.11968905862529795,0.681957460354549,-1.343606084524225
-1.4306342351763932,0.7535815144860118,-0.14768563619014238,0.44699758876057494,-0.9024103226058968
-0.034022908081157904,-0.807907761715492,-1.3691496321496486,0.9826593185255207,-0.04885730393347998
1.7748999174649618,-1.9216117247567688,-0.024934337192329084,-2.524410980059766,-0.5806574189638081
-0.6044044315182667,0.2519270119403148,-0.8987634305593807,0.9548639279360777,0.91840517203544
-1.2128766777714868,0.2709105740080421,-0.17774262200095098,-0.29301475036297653,0.8066508244906089
1.0740502535640115,-1.2016902694093874,-0.9638635853743114,-3.2399600265836064,-0.20103082895631963
1.2434991885514137,-1.6301265635161963,-0.5450819095886956,-0.5415070304342392,-0.8513472259171934
0.17603688996789774,-0.7818416466019276,-0.0330774297462017,-1.3358663043868941,-1.7096841570486663
-0.11883270024853151,0.44304997068011,0.3738782454653516,1.8653780361587275,-2.976111075513342
-0.8825323583501818,0.29049071982509556,-0.4560317859573086,-0.24462846390962595,-0.29129208478902097
-1.3823752980382864,1.3850252815467572,-1.1734596327668192,-0.7502641288638275,-0.24213242239879337
0.47562283597046584,0.41672470042466647,2.0429714669606205,-0.9296229623600795,0.16435569090848465
0.03210945091160305,-0.4076407178087377,-0.2433415525619299,-1.1691217543235517,-1.59058421115698
-0.25869421572203094,1.671018721648933,-0.5613564457628352,1.1389989258756372,0.6376502647921168
0.18816851763468928,0.38595701621093637,-0.16425408978861192,-1.1616162794288938,0.4592329086186836
0.002706612838427744,1.0393512069339248,-1.0311948329184963,-0.9546891727099363,-0.3867404160726011
0.3609686026321732,-1.2787254409254951,0.11975209178475833,-1.3524462888595126,1.1092888870978266
0.10433930994676577,0.29194744316225446,1.4656594786460917,0.7479658627352572,-2.316517087879922
-0.7224026383752794,-1.4439257755009713,0.032570216186596196,0.4892936930520344,0.5927313386307368
0.4322995906889113,-1.3835137610692012,-0.6106226875807909,0.9934194152305456,0.8422191384300854
-0.34620041527675127,-0.7263487332296797,-0.3915279809705808,0.21902578037615275,0.8578623878243504
-3.189110620022596,-1.4522744114676358,1.8111389671873594,2.0269161385601127,1.9194725286826062
-1.1946145466471616,0.220662057558703,0.08957211802236503,-0.27881963346825905,-0.37082880324848966
0.21574100155742337,0.7362551795691678,0.6577450746729475,0.08300069057195228,0.5699578668825381
1.2226117427093448,0.8755569064432808,-0.9384016883210954,1.1727172957576972,-0.7761308887311046
0.5674659973742594,1.5036926342905252,-0.15766241634202963,-0.3950021610828026,-0.9561702859311101
-0.21990082826814322,-0.5034122392648781,0.5828455595418902,-0.8258807919052069,0.05825348592849704
-0.6948067732272701,0.8134572395121751,1.5590197837854674,-1.8821966893318487,1.109653569215848
0.11347479206765934,0.8868824060429641,0.3601407902296719,-0.34002244598157594,-0.14842012496286106
0.42568311725136015,-0.04139048183746971,0.40945520703154087,0.22686195922393143,1.88281257479135
-0.5305865702151618,0.5852871294829654,-1.0569606067407595,1.0220069498620499,0.3089467611912787
-2.081934031741679,0.8003047656642062,0.1473146709803836,-0.1905824209397574,-0.05573215254738025
1.6718424928782276,-0.5087580615074534,-0.020452541016683964,0.6141067142663093,-0.8241184301687672
2.336044910516795,-1.3424203968374788,0.5221346100067403,0.546377472714134,0.3247931859944276
0.06695831645236432,-0.26061787304733913,2.0742043663264136,-0.8297227863796317,-0.1467609850426953
-1.05308819026694,-0.780422059691094,0.19815601434536437,-1.3421912335750132,0.4023134136734273
0.4710345153674672,-0.19758474107498122,0.9576243713527193,-0.23217643575070768,0.11328714062840901
-1.5279321494961904,0.8916595049280192,-2.2668874924020446,-1.1282654376672647,0.7495202805095991
0.2401825903989231,-0.1832768490418414,-0.3703863570559497,-0.7212015311297892,-2.3580802051141267
0.5155248960635054,-0.04495077499800327,-0.001276986897608677,0.20390139861777581,-0.3901376430712141
0.3281844587640084,-0.4684369430025651,-1.5620803342358802,1.4475979174101785,0.27948691099095047
0.6049785280956623,1.9908407132751857,-0.4872445998318997,0.4951866951750328,0.5397277443910897
1.4849781699596434,0.5005142874106298,0.013103434027355818,-0.6295435555514429,0.31712132682986854
0.8501502725521543,-0.2995453770323455,-0.25186810223851575,-0.37065374876901114,-0.5226826138097908
0.19556336261140778,-1.842084308465753,-1.070260644268714,1.6569243737287862,1.5288494767190834
-0.33024616887156444,0.4363105361548288,-0.3473489374481103,2.02066686359937,0.2179946929096768
1.8120660022582693,-0.5449855167370259,-0.9351099280515354,-1.7842826250269115,-0.46318936080002415
-0.6955551848437044,0.058520626915248564,-0.3611503169639511,-0.18641248995152168,0.275231983472273
-0.6142916543462834,-0.5019479116805206,-1.5605719413159114,-0.08001402843135438,0.5015748973055142
0.6509838205636388,-1.0359125624875711,-0.16962868774291312,2.153924812542824,0.9025653032923209
1.2622989044397732,-0.9765332444193109,0.15729421323026638,-0.7933418103403682,-0.15481877216339693
0.31152439354900896,0.009516509052613392,-1.5532832972218917,-0.2993005196701685,-0.44777129998537174
-0.3367198786223391,0.5877524143862423,1.1418603026165344,1.2165900384799264,-0.5687631769547249
0.13510885613056942,0.3911762845007424,-0.4965371841666236,-0.39542583070721277,0.4817361528335616
-0.6626261640114656,-1.553313239231234,-0.9934605675423898,-0.21334054680218237,-1.3590347907954894
-0.38555209984791494,-1.3207808170642819,1.8588963669423122,-0.2869271072114006,-1.0162685422501152
-1.3511384962873771,-0.4920862688249726,-1.420179585180126,-2.0755545556597155,1.2997137902340297
0.9454377097512402,0.003985976740660965,0.2941713700145634,-1.5926285736889352,-2.2740637850635688
-0.13937163837216565,-0.42960316071604415,0.5198858439570101,1.2141365977044338,-0.49465878994295504
-0.6865276174522106,-1.2731091198246287,-1.37847853178541,-0.0684434759680787,-1.1497469805835356
1.2052482384511172,-0.8383401818895369,-0.5420906681960013,-2.6811425463262855,-0.6338403468759113
1.5130988470706488,1.079384252679404,-0.47898088144928,-0.1565534822006879,-1.0156020853859071
-0.12464616718512783,0.44059588466733807,-1.8293210318438942,1.7724955353285332,0.2751134739515398
0.493928989932817,-1.1020738567034059,0.2447639218263186,-1.0489296953269551,0.9950754111313952
-0.6475975321653626,-1.0639471687724014,0.8012413259082184,1.5827826993120833,0.11116668359541014
-1.344367920537862,-0.9902381894013744,-0.268465809163457,-2.131312853305439,0.7454987023498629
0.7865918139454713,0.7034549207605716,-1.0288841153056594,1.2883720910243133,-1.467066478352133
0.26723827249455706,1.6578865625620254,-1.2188506432592499,-0.2121170994979642,0.009937739787266416
0.8487091583108759,0.30358982709564963,0.024186488859165127,0.40559518224237645,1.2501132410318454
0.4110387589688007,0.07493683875108548,0.7897152307431776,1.9561486039265656,-1.756605007908576
1.0595659089681375,0.39468684815267324,0.327911700469647,-0.0975525906072872,-1.2119630532126784
-1.6646355458389885,-0.8832862393401627,-1.2527625929361743,0.2019689940520569,1.1964307300284114
0.0441325208321077,-0.28787339124451516,-0.46621998194145764,-0.5413683344684251,-1.1830087417356656
-0.40606037445127086,0.1726219371282322,0.5241922170506357,-0.4031047622898893,0.1430062556268766
2.077365307648809,1.7937592714123785,0.3546870377149581,-0.03779310603119501,0.5547028381499852
-1.4335805040094358,-0.3259963954028128,0.039471455817145264,0.20299630145495393,-1.4833998538473558
0.43395919266282273,-0.6251568279438703,-0.8554151162030378,0.49194348944771177,1.9213754260692582
-1.2199683047427479,-0.3626449723268209,1.3578853970715303,1.21799508067298,0.9851341787186263
0.38066357457161554,0.31322206235596706,1.9449275106316957,-0.3400661207851334,0.24367907656983698
0.2932274273923063,0.0384249836429768,0.3504823693420921,0.20242377333676118,1.3133765783072218
-0.8461365050215787,1.5060065951674975,1.3250443908952243,-2.037173589735291,1.8813559263745683
-0.5334664233015323,-0.14513388181050804,1.2258044589002106,0.44731701518922456,1.3863286977788476
0.7851052180246431,-0.5824029917894782,1.2869596199957218,-0.9254236951690153,-0.3048903466953744
1.9872566417315733,-1.6875632970193117,-1.5126323472577443,-0.22155309157993933,-1.1350903233657117
-0.6606025332937907,-1.1279946765747637,-0.10395530399210252,-1.3501613789423643,0.22139593362811472
-1.4274389337739302,-1.8179506916283852,-1.4857943629679726,0.1990717847822833,0.3022764186955329
-1.498960648003512,0.7034063464696386,-0.2363292297544194,0.06830992476071236,0.0024072502549118907
0.9301211821378325,-1.8737035310384484,0.5407293880649781,0.29180044356011353,-1.3615557757988628
-2.426961057312011,-1.4840188800502303,-1.3951915202628105,0.8171414562612977,0.14301070844042252
1.4819906504844278,-1.6841871904758297,1.6696537525323594,0.7572410481589297,-0.18552409884975407
0.29164397821906224,-1.368949807434377,-1.030829867893792,-0.49294266755797495,0.47896991312732423
-0.6648699435842768,0.2530124920078122,0.7171023493963801,-0.2710321072003916,0.029267368298801614
-0.6936440472978812,-0.13456468106549163,-1.3320186734187334,0.9008042290057614,1.3847970836350967
0.18717738857640578,-0.9431497458614044,0.13900274335807009,-0.13273182097058364,-0.6478188053658472
0.0679496551611202,-0.9593725914840344,-0.09177386757638556,-0.2803727305044578,-0.3832508379061164
-1.0827015082884361,-0.5792360660555792,0.5359427464298161,-0.23865565045075612,-0.15337023474033074
-0.6513252728516338,0.39773716689509236,-0.6700103022930344,0.8929786429414708,0.3728870403334898
0.5703070270492165,-1.8253725910676255,0.7897841111892113,-0.22384808708132262,-0.7599282308276535
-0.5954490611653745,1.7465081936981126,-0.8424292867541451,-0.8153564053470503,0.8633640037351139
-0.35454131638354475,-1.084583873159844,0.7730171853480212,-0.43553868428098624,0.743542505148298
-0.5007153428461969,1.0735015339200566,0.22260383074689852,-0.8252433952837247,-1.5360480313762568
-0.6731168686978979,1.9842668558704508,0.6545398552840079,-1.551258477664801,0.8600769541193932
0.4212168450650364,-0.5841385806724404,1.528314353515975,-0.7879959978422268,-1.5534272127363977
1.923701914415039,-1.208648562383825,1.046355054990146,1.1474868762476926,-0.5352032632320114
2.0231414350728802,-0.31412552666487886,0.1635241587565547,-1.0127822906442638,0.5088160049468969
-1.7008460270205583,-1.2111773716612906,0.8949585900611396,-0.05894546146158825,-0.4386004165401671
1.7357907225444102,-0.5725711754511251,-1.6760120700210934,-1.2974960832765399,-0.012840719162665772
-0.8011907331850882,-1.208419720918767,1.1633415032938128,-0.5043854203786112,0.03213718987775871
-0.8621493013646168,-0.7577919946481138,-1.2938953914978737,-2.599689376585436,-0.33056824560029385
1.853286146437073,0.06819559324449093,-1.7150880705719207,-1.38466104636251,-0.9819480601685462
1.2304178645400257,0.8215542337754648,1.0898002072327797,-1.99248158674747,-0.6450791617566038
2.8181783186194638,-1.0972415272218676,0.06330137159828962,-0.3382858787589813,2.549590761336117
-0.05775084899731588,0.3706341948158437,2.392534435306356,0.00937446669212053,-0.42069724624170524
0.2391542195089987,0.900085614630416,0.8030300625438926,0.5832446944433667,-0.3951090368647443
0.14483986165104182,1.2592135674430962,0.7063002079318395,-0.7938334133089737,-1.2975539180506017
-0.14816027992865638,-1.1262981941704877,-0.2723869684824191,0.19627355686305745,0.9860587786840664
-0.9793310711846668,1.0456301087319888,-0.5213525991537786,0.8879653287906466,1.426429499090774
-0.7903351496543506,-0.46804812897583375,-1.5952374401434257,1.1326029510225442,-0.5540091767155566
-0.1126930490124562,-0.6036039202700872,-0.6636843616163343,-0.7421864774586463,0.7569453221376526
-0.6394295095494416,-0.2376182445127834,0.1010706664474313,0.4316343343463568,-0.38982564275694453
1.0689793586352818,0.5259181487641317,0.17625221695236018,1.0646223107516197,-0.5622629631146481
0.46857439818347946,-2.070906165641125,1.1550474114928975,0.18486668540701207,-0.5464322754464808
0.4778971853024118,0.3488756971752096,-1.252216727751348,0.41665607946786204,-0.9095668755954986
-0.19619442707341647,0.3363397899694076,0.2491672620204406,2.7013440841369083,0.5079870236300623
-1.7364601508216475,-0.14529646750279523,0.18902043278398342,-0.8304008670781603,-0.3490936379344855
0.35115996166161983,-0.8897775012475239,-0.462272605246331,-0.09336591442626653,-0.23285015588728256
-0.40151012987217705,-0.12551303175158462,0.3308787719953519,0.6878857746721029,-0.5071619412775301
-0.6310216112684391,-0.20628910514400278,-0.8227387972126645,0.2575535894705304,-0.20213733362008768
2.0050483079639005,-0.6883961455477661,0.8584024877556339,-1.2380275332732098,-2.1489207775997508
-0.17643397642727884,-0.5484056242262234,-0.26847138108230034,-1.0169999073804643,1.135388203238629
-1.5268262619241029,-1.4462252061869667,-0.0471119496813973,-1.8654200593961492,0.8767585171861882
0.9512957725789741,1.0765390775951929,-1.0303722678884177,-0.28654997671754956,1.5134584951721446
-0.5895401615955939,0.6155295948392812,0.638730152225427,0.2829024878653787,2.6101012956128535
0.6107543190144494,1.1490562488548515,-0.9828517481338825,-0.8364610256662212,-1.0548711960737744
1.5309537430002336,0.7679536759706882,-0.66584814024928,0.4319199364239383,-0.3903013305589327
-0.2035685846673455,-1.2602173871379634,-0.24550403621931927,-0.444632239723164,0.3398537070956532
-2.218696390021994,0.6646669358187671,1.3280741596984094,0.5143059285128898,-2.1494378808630734
-0.7725057498370553,-0.3163126610547839,-1.2408673666151546,0.8302243981162735,0.20208081931363686
1.9707181879516769,-1.11745397651226,1.0425675466714903,-0.09774954425781174,-0.24762247514247396
-1.841237220304435,-0.4147731526788634,-0.8623784408780192,-0.42097169635702125,0.17067059997775016
1.4121012025866837,-0.47664794586762227,-0.4471777648442026,-0.16234183809479097,0.09670195760174924
-0.4137201482839029,-0.9021506951091128,-0.49078353743183284,2.811431047108857,1.1127336627367486
-1.8175191272202427,-0.08303847765713442,0.1587517381883286,-0.3276765702676681,1.0407479558835724
0.7005457669242581,0.4203779543196067,-1.1827181780618612,0.5138967105917496,0.675735951821978
