0.992053916387156,0.18976094362391954,0.5495457746197372,-0.07202365009564346,0.7728010937860013
2.294755811567805,0.6428292639008378,0.04242379705284049,0.3904261045776445,-0.4015957156603249
1.0283849816873332,0.08228323591035064,-0.22624290105367856,-1.1425150439954963,-0.5357631523198138
-0.6038844224275489,2.0707465704987804,0.3818276471955416,-0.3937719709966605,0.22813015516360172
-1.2527336691647315,-0.14979253263240302,-0.6574453870986157,-1.0538328036439293,0.0697073124116607
0.8691799200654962,-1.3880962036677227,0.03324304109335159,-0.3826349192192479,-0.024726291458005097
1.7629193986793308,-0.11027864944574435,0.40364502952878384,-1.1181791320545271,-1.1604015117378528
0.6379792896925508,-0.5971531804449068,-1.30006185744679,0.5143854031122319,0.20867042136430478
0.06631752954099343,0.007018325547230695,1.5609449832089157,-0.3612377450288374,-0.5190879962089796
0.7007095366266197,1.15313875098613,-1.2121341768714218,0.047444183714780395,1.8817263419516623
0.011938819201576654,-0.8226827658592819,-0.15806263966033524,-0.724396895656084,-1.1944536295164279
-0.044036595622729796,1.8464041351989577,-0.18718338523424574,0.5392029153797152,0.42974443146010444
-0.7885089452438937,-1.3421694112238136,-1.0645918761469697,0.3301010054110626,0.2253724080770301
-0.807347305134427,-0.20839439354534786,1.3098456370218217,0.06036176150450598,-0.22989110815906832
-2.423189987043648,-0.4622592354029393,1.3791548660489976,-0.19440564876273195,-0.038776879205479474
-0.06063051635038413,-0.36939601409879774,-0.5553693211113319,-0.4653031629924675,-0.1022622932197483
-0.03937897676555391,-0.4415087538967346,1.7729165669471592,-1.518381684533013,-2.1233997394827466
1.2560541425901783,0.6734206293729337,0.3057092521229654,1.1888512195339613,0.9930537769311879
0.6413457241176489,-0.539088101435923,0.6690436189250346,-0.5746861298577595,-0.14158221942737406
1.6280684709562154,0.36611566815331403,-1.7111040473867278,-0.7273028308700672,-0.3589633663338141
1.296040306785694,-1.1708438595469612,-0.9551956729955386,-0.6585335066722765,-0.004334384148670159
-0.26174110542377066,3.190855536197317,-0.3288634811599357,-1.2624052384856543,0.04028328444145506
2.936968233667151,-0.015219649234841101,-0.7812556018472084,0.14349893608447437,0.22775457669546895
0.002843282821255582,-0.48478066804865205,0.4146772919564375,0.9190941443325167,-2.2137807141113743
-0.7408222780490619,-0.2792366948116444,0.39628153820253015,2.185791808871865,-0.3925930091954088
-0.03744886032045026,-0.37517047845209506,0.8335852495330341,-0.5382486414505632,0.40841427622809556
0.8443425048581721,0.5525429958714848,-1.0949320502347024,-1.021565535247743,-2.7279429622655096
0.20088492583782325,0.2270722403230669,-0.30333656112019025,-0.009289014889408007,-0.2511842202684811
-0.1794371025962988,-1.3025270471514763,0.7880473738817729,0.9959753620598619,-1.071353099558812
-1.4657348998104565,0.6143587383480381,0.21543828706287912,1.41362684822314,1.4342353778189734
-0.285776303630685,-0.004506293959154678,-2.2272869742435257,0.8545859213333017,-1.7881856141108625
0.26417182239425685,1.0637194827551484,1.130141323518444,-0.6049029311747371,1.863447233843747
0.6056927176249967,0.3464076312902169,-0.07762686061232307,-1.4340680461589066,0.4872157600301688
-0.6210643835467833,0.6778956628649845,1.1548776112469588,-0.3527013673400455,0.19323916414411058
-1.4038711109347377,-0.29920482855578295,0.8562625673683449,-1.0843637300453577,-0.42639347159536956
0.504205890561397,-1.3788220049148916,0.874168865472134,0.26747991086429934,-1.2489860906383214
-0.3967960400752396,0.16659275317936367,0.05978328044577152,-0.7186535459879907,0.3936193220503802
0.5689841236510337,-0.09056356504138917,0.07406177052457809,-1.548442722497217,0.5550612524624287
0.28077136364185956,-1.7414836077408269,-1.0154033324902196,1.3660033414086115,0.9093691837914442
-0.5495665788411009,1.0900843035537382,0.20099740734880134,-0.703204734916076,0.4231123015294017
-1.303422895411175,0.7871834107210791,-1.0249928506271129,1.3660373440691622,0.8171067678837304
-1.1246430148597057,-1.4047031125914395,0.7783407625705063,-0.4973149288860492,0.693115176496816
0.16608353602166329,-0.07627776436238196,-0.1352126960845823,-0.8030471350354561,2.271097787462412
-0.3927517127834975,0.8546255408293406,-0.3409662060897374,-0.010883212539335893,-0.165981054546795
-0.2068056419095729,1.5768904719964085,-0.16625102012621243,-0.7040584532849401,-0.8059349604446113
-1.1685758807581645,-0.10008536933649123,-1.6639383595892068,-0.7646982697283009,0.49956225880248173
1.5358130142921333,-0.9257016368773895,-0.7770202762314025,3.933111386790323,0.8200498054061065
-0.34540679572046357,0.9264725280042607,-0.8454123668959654,0.4741453659012148,0.3224096204660698
1.7386900252944666,0.24914290881128817,0.5598572011019703,-0.3279914898997665,-0.6214129883091631
1.7331334973866375,1.2027076640445742,-0.9913699741787011,-0.9941087459215582,-1.2398014177169596
-0.8551370974331821,0.438455415758724,-0.5286060693481845,0.12110691118516001,-1.745790176653641
-0.32577801531840267,-0.8951644605134766,-0.31316348092847923,1.4477554191155602,0.1679482455364257
-0.572245181836738,0.723825649632699,-0.17809306812458942,1.3716687033669885,-0.8599216869636189
0.8484549148292218,0.7485394396488367,-0.2093536788249092,0.9717140351068951,0.18797546381793206
-0.7678512684855662,-0.06236030997014551,1.127762727210738,0.3414252466791873,-3.304162408512268
-0.3496841307888678,1.9612679149556937,0.49795006690394783,2.4540264158607084,-0.5767604820834967
-0.8337733194416981,2.8622191223803832,0.5439323273152163,-0.8069725398024142,2.498972785163858
0.8013184124809839,-0.16591070701936383,0.19302480850094902,0.4969819240274185,-3.000704643459258
-2.2408473413157144,-0.15452468740720174,-1.0052324168765074,0.9077771735716524,-1.0005474956732472
0.13396907104321817,-0.0825252088594728,-0.4187207712496923,-0.7514072148865807,0.37006490028644967
0.30074856356754015,-0.008659376769662035,0.19308450296977242,1.5660195409666222,0.4817939614375257
2.5867128564978987,0.7213097875951969,-0.18568764470612995,-0.152138003029257,-0.9396257308451711
-0.33418792901545147,0.28983394530698475,0.6299456825618448,1.0112263277747935,-2.1671820025945228
-1.3431571064271457,1.4063784929682919,0.5329592747404204,1.7598408323867663,0.44202388052772623
1.83777247652712,-0.4195876639480833,2.2255001672637635,-0.9522272114616515,-0.10429950976915518
-1.3858658804316097,-0.2173034154980749,-1.6157113288650484,-0.1627385531612049,0.25733405959805283
0.4686883303129172,1.2103938434727244,1.049599024786081,-2.299360650288047,1.177351823329174
0.5729923270094935,0.23090886114066086,1.6464380186180665,-1.6424526858036521,-2.2816060348161558
1.6844293657707872,-0.11283254191217502,-1.8688834187504368,-1.0917755071000779,1.6409249976448383
0.28361319498784304,0.39974446751152376,-0.4856817216490837,1.2665433942802626,2.0441031096760054
-0.37958595077750884,-1.430946049258538,0.28798051900756644,0.5278747048357283,-1.6920113324134456
-1.8181124755358873,0.4753205047304028,0.49002209275489517,0.6333522458958328,-0.9948519479124479
0.38249125196090344,-0.4543306223973138,1.4867909146022522,-1.4272959120053286,-1.60067603717057
0.36160174114529325,-1.4609920726911556,1.6400599064035084,-0.08376505358071809,0.5137094663045069
-0.7468956522986632,1.3779201748565568,-0.02758958176167362,-0.550408723108183,0.6602061903205022
-1.7901903019795133,0.6335320265962088,0.03788123828476317,-1.159904261681863,0.20951328401761043
0.4184972726017126,0.6165152207108755,-0.357895322441939,-1.1084441272483845,0.3976570425860562
0.2999603533196581,0.7057550635345907,-1.0055446394000873,-0.4673221518298871,-0.01487866568883247
0.29803422485756464,1.0462504159547719,1.2214141007969026,-0.5646729515782793,-1.5889743130751897
-1.4997959929790212,-0.35637336138110126,-0.249188592669916,0.21907928617605552,0.2979114773173019
-0.7969055994811387,-1.9439110170525007,-1.7141340474661606,1.0241327653584877,2.1359833623494033
-0.5369922530479246,-1.8583788553797254,-0.055230161863602106,-1.3137548682727826,0.06327902620804766
0.27054010842700654,1.0282388898119488,0.2581784093321064,1.0199536564194285,0.8318262842075508
0.2821713839366113,0.984284104270336,-0.13971113441087415,0.06008756616624974,-1.2238974217652838
0.08888898293305067,-0.9740114483513246,-0.6485084196758631,-0.16685437312927318,-0.4105052003587024
-0.003182153362397919,1.35648692789547,-0.32345690473517724,0.9319433377898909,1.8915924806032525
2.3065284181667853,1.041135443209809,-0.4455171458544079,-0.5894425478483454,0.7039930193311048
-2.114832333269197,0.8718801737741355,-0.7519694628351321,0.8440694551919,0.38468613189228273
2.5563327485744805,-0.8544303446482133,-0.9566737831072611,1.0118462780584174,0.544484061797931
-0.15670997564977873,0.001983348509319401,-0.3924358315022532,-0.44596112502049134,-0.3998105013791756
-1.9127881601429404,-1.307659273031453,0.24113203315931653,0.9913365896930678,-0.17887038377748274
0.6023893887228718,-2.896967981774698,-0.23307278978792528,2.0412915353690724,0.20833645966722236
-0.372293932509575,-0.21389915016640254,0.6794488025117331,0.4774820063118632,0.3165089193664596
-1.2738991674474487,0.5038405375220599,0.01834381518021815,-1.1389660037832088,-0.606649786937628
-1.4671264115381801,0.6629788080809228,-0.3993254417696051,-0.5524263121684116,0.3269741796671061
2.323508593220054,-0.20363040163323837,-0.6278196095617717,0.3738419929448261,0.5159737865930286
-1.2902970727994267,0.056732585742503124,0.3073455025207596,1.1698991300682262,-1.3584910111138344
0.7228468830668057,1.5704484488558526,-0.8437682697951178,-0.9535562061125636,1.2358963559826355
1.1415155027695976,-0.21314826136082904,0.2553492507674102,1.0823992459263687,-0.13239710659189577
0.6593713626962465,-1.4208161775308015,-0.5493859094725653,-1.155843903900098,0.14228959860644227
0.839758342009677,-0.1521883710199412,-2.4601851085321114,1.461519183719512,-0.7191188275454898
-1.4801306785326518,0.4547690168077558,-0.11340536233472917,-0.9510931720339959,-0.4406674740269474
-0.23866016013757546,-1.992231924426413,0.41924854792477123,1.282171228406965,0.17493429135945432
0.8215427450451206,-0.23135817716958362,0.22221149370469007,0.07703244801604012,0.2928526797222043
0.3583767255110403,0.9412825814989876,-1.2596302156568517,-0.6101642370191842,1.2820168510687058
-0.5666271769724595,0.09523633227444868,0.027079433248067854,2.389595566873275,0.13170238955271732
-0.6599376913435966,0.309105258141458,0.07240647129914707,-1.0645199020290623,1.3634862027571695
0.3879615601839076,0.3013057073463161,-0.07945579138385231,-0.3253062010225484,-0.8280428354503683
0.5222607407493499,-0.29371104810795445,0.7797697595977862,-0.0962790516184471,-0.5090524091665587
-0.5102728734908034,0.5468792384452316,-1.1383772922522255,-0.42301091722001793,-1.012611501874275
-1.418174456969205,-0.8613672358658798,0.2121012340808502,-1.028358307979686,1.2511826727031705
0.8729021148303162,0.5766868133725882,-1.0290389342584165,-0.0671612472502386,-0.3601264947503071
-0.5400000624218174,-0.12528740639336627,0.9080899503359008,0.04093703619448501,-2.0945771979360965
-0.06945858596786726,0.4273166871396215,1.9248427120771614,0.4200414268443592,1.1797570412099543
-0.17091485768986653,0.4980014210571902,-0.037575085391473244,0.09057234986758406,1.5915549023130897
-0.22279191959195752,0.08358209634252853,0.050636778832095206,0.2288859296044219,-1.0704403390456345
1.531290162525835,2.3170801158252146,1.1002532705950208,-0.652692537518645,1.5612421407659245
-0.9470972388709182,-1.184460884676818,-1.5820056037042687,0.5057334712135081,1.6717990535249805
1.349587723187197,-0.13040537881408212,1.1006568469973956,0.9505001672589306,-1.2145269150024827
-0.82366284368358,0.19804401259098078,0.3393720572431051,-0.9974294411789792,0.5331093457350291
-0.12765068107340316,0.5123838447137035,-0.36965759560181327,0.5620904354921947,-0.9060589792471305
1.8305264695189067,0.011504317511281744,0.8632400838789372,0.23754262217529937,-0.06428321254802674
-1.5716318002093195,-0.21404071863423843,-1.61187113462431,0.37131063406199905,-0.054093081645433055
1.0843499797069462,0.5895233454921689,0.8435145683464724,0.6242837473781462,-0.8384623633775692
0.8560526734842124,0.07508707169845517,-0.7365891703193058,0.7834983207431577,-0.22637282462381314
0.4340810517164479,1.5813252246875649,-0.9452980058516067,1.2657356097450772,1.5401330330622063
-1.0947662815141297,-0.31470262432117063,-1.914077830443746,-0.8821170305682751,0.987557156224219
-0.40414887903790164,-0.7796193467092618,-0.6564466178813939,1.2815087314091649,0.6509093269498412
0.525591003699673,0.5071039035093211,0.3476066871417157,0.6310798119564096,-0.5132841329025875
1.6654310287528948,0.3789565252573517,-0.508983001869358,-0.41563272698798004,0.5182890836895522
-0.6574859213729799,-0.6504747833295121,2.9516468231885926,-0.16488501760046384,-0.6586978743430512
-0.07742602489709344,0.7081666591378705,0.02480470350219932,0.4615083403666504,0.19826059182531222
0.12571198612068735,0.9994479418919255,-0.8071358572754104,-0.3804092336243946,-0.09810398182796433
0.18294176313437338,-0.6261809119623842,0.6850108300395822,-0.3931582777442149,0.0010451604221088323
-1.5879074032507563,1.9959366286910925,-0.010555026576249514,-2.044383063385308,1.0979670716500998
-0.7887325514451564,2.328444538453234,0.21215313668161503,0.7598679232619764,-0.011935961386340871
0.13108079367838812,-0.08399381111550805,-0.2681628777431578,-1.7813091399164163,0.10288006193617201
-0.6360905482262182,1.001944116710814,0.6518967737851079,-0.35604111344024225,-0.13735169854142165
-0.24126012384307655,-1.4858782682456353,-0.1998609074753345,0.37943798666666245,0.2488888711893614
0.07272644267168393,-0.43729396272832294,0.2166010139713583,-0.30941515712793527,1.3419186666902794
1.6278957625764516,-0.7659899689320527,1.7548465414115397,-0.645904277981343,0.15937912505555324
-0.5027108399769733,0.9378045678612292,-0.6713014410328784,0.02413416359654415,-1.7369061578331844
0.6840234131513652,-0.5544038765269469,0.485879118397589,0.5559176912142255,-0.04319762746665776
0.1894955343744997,-0.8527413058337472,0.16532765693513166,0.6558942675882519,-1.4033492352194126
-0.8709161797113836,-2.0776055914397773,1.7260164630764219,0.1669091714932039,-0.3720525421454328
-0.5852688331892062,-0.7530340124254635,-0.666828571497154,1.8800059201315769,-0.7419235337850798
0.23792044658917136,0.15281151853705133,0.46484246544616353,-2.435700874726372,-1.1303220709488724
-0.6648086091807577,-1.3634914522628878,-0.7798004759695869,0.5102233468699698,-0.09365326258518626
-0.00645827020438188,1.3272656391221516,-1.7860677436344556,-0.930052449450634,-0.9816759866949973
-0.05199278816510874,-1.5997519265860476,-0.30005401692634703,-0.08046256182269283,-0.05737339236627602
0.19003427318184846,0.27796163326960494,-0.3565913709177487,-1.0021476369431441,1.7069419425207224
1.2891660272607743,0.43693828625298853,-1.4997741781128588,-0.8991359983415751,-0.6668468870692754
0.43749678470971853,-0.8780761032640694,-1.7954850317900541,0.8456659706478062,1.3260006911496616
1.4628759460967895,1.7008941079930497,0.7594674490816437,0.6082328103118823,-0.27345179531272124
-0.41830341529650866,1.2683879420678907,-0.03016527350463501,0.6682080204668703,-1.3066109883897148
1.0225394931876184,-0.31311401570391856,0.03880702209266516,-0.38506946908723344,0.5941209805766673
0.42776206364816427,1.0912639184198893,-0.8908067641362439,-0.5122255553362838,-0.7454929612346347
-1.4177722091130143,-1.0869598666741003,1.4160489857303955,2.5139803559926337,1.4841957158395478
3.1093909004000757,0.3992356814499312,0.1789935880152299,0.2628846401679137,-1.1933123792894473
-0.004135327884880678,1.5285268237280645,-1.3977201500057739,-2.239574110885184,0.7976156328619459
0.39945092625994577,-0.6739769004344901,-1.2424988022089343,-0.8813137040507942,-2.289441615004109
1.036289229276196,0.5541411113402628,0.6248889186890152,0.05933782849075471,-1.1630922319561356
-0.11723454917360934,-1.3278841726958368,-0.2848181303982351,-0.689584251291497,2.292239436600431
-1.0706578956866777,-0.957453229949757,-0.48028088197945346,-0.2280162621707989,0.6453456933874296
1.496543901892891,0.44850428772377465,-0.3016013682239449,-0.39317891989342646,-1.0896733122793352
-1.00534488925729,-1.013360858294509,1.0097384658459385,-1.3152855091349467,-0.1929551726725527
1.7557308715042594,0.38342706502580304,1.6470158543449176,0.035832054966044795,-0.7096824882520348
-0.034202399475882196,-0.7085730402771435,-1.0512239163435193,-0.1474338123940683,0.16042330520866546
1.7748125922283287,-0.2666280826027244,1.3968132327333609,-3.052913484923752,-0.26963407172527437
-1.6581900107998782,-0.09092046000687284,-1.05483830861006,0.1760855121160598,-0.09411534203473275
0.7463814694162325,-1.2562173735324202,0.29804454683703796,0.7970437286520512,1.062678660382441
0.0031682853184438284,-0.7886172279364551,0.1485911914347773,-0.21455148903818957,-1.081453035129033
-1.8400520947150762,-0.6741283985620327,-1.2855580325854574,-0.37114526068024506,-1.6166319302008207
-0.3534384601575639,0.4328118083386861,1.3256195614591526,0.025504251929172085,0.9702181110851374
-0.25767481684324905,-1.365954499530237,1.0498270511495855,-0.36169906368917026,0.0972849973779944
0.6217343415534097,-1.158035973703445,0.6935462554703232,0.9777143190233507,-0.40029292801104244
-1.514125917176387,0.587435091174407,0.13611823500113626,-0.340229904303004,-0.6149201259160292
-0.008610414915516198,-1.7450628447372643,-0.850993999978292,0.2554711644062577,0.7921181376165352
-1.118212717895655,-0.17457514055491757,-1.5323258778831457,-0.8862924510632699,-0.9006388298942414
0.38691185457203076,-0.30296709820573814,-0.5229684776282394,0.18012676048735032,1.1145595082097979
0.29003791680955293,0.527505859658073,0.9128247742837757,0.21165708986112491,0.7275536265297827
0.600038724470636,0.5004827048341227,-1.6917489571790254,-0.367966196684947,-0.0721896010890573
-0.43456331731619124,1.4869389946150515,1.0148897567342545,0.6373067046690938,0.7747222650366966
-0.9432550354704208,-1.4224506874830227,0.29526507206618674,0.3591035914385028,0.6698470330965546
-0.07693757563650455,-1.373871914283705,0.7446090179998528,0.5273755808807553,-0.5441396664154221
0.09441093635025977,-0.587423584171264,-0.12070074044124576,0.479896291331764,-0.6557936044583355
-0.3376191861728585,-0.5807983203944975,0.08658247413401314,-1.1941051052718166,0.4728606904669817
-2.086664492147149,0.5883625725021681,0.4356800921113587,-0.5055932001463698,1.2368105287135431
-0.08973014300419824,-0.94478231952344,0.15415985509348937,-0.3244235044100228,0.7020188846585859
-0.7785746333523098,-1.0516819250436404,0.8472565392836519,0.9899448568037066,-0.34903669379293123
0.4531911689070424,-0.09467940067415151,0.9169956947969504,2.072194007760683,0.6582383134884394
-1.2240691946511701,0.930641808672708,-1.334732717427393,-0.8159170990333168,-0.8752716819009719
0.9350157528078801,0.1429030298139755,-1.4786137209677972,0.424874894401847,1.4628343320900308
0.5518219028439865,-1.024228039181981,0.7286588783849859,-0.5681239290644047,-0.11989207839183828
0.16702010913460869,0.567196617178326,0.47199903537960863,-0.43463155347936794,-1.6062516319039037
-1.420874556179033,0.957736201688858,-0.7157870884163002,-0.45542357874696576,-0.3227054932821548
-0.5807708817695708,-0.266238292068617,-1.421362590242446,-1.9888719591930435,-0.8260407221645603
0.36169104055830115,-0.2946921415373713,-0.8241658045719308,1.1490339781005043,0.4361102067861643
0.9303579081593017,0.23944225356699197,-0.764932321579933,1.4070865390526905,0.7140652723833602
1.0502495712951625,0.10880341861442204,0.37655481536528174,0.017137222525330495,-0.5724279674418716
-0.6016827973815515,0.3145021173393823,-0.92399077560393,0.383919486934256,-1.196998321901735
-1.8933902480822191,0.3736806138116525,1.1586567362777012,-0.3640962130444022,-1.2646092707862249
0.89599614386442,0.7368078496507163,-0.6186013035620697,-0.32427572960045786,-0.6184306466592178
-0.4866580343478604,0.7824620593999134,0.3290160656508381,0.6209405391537797,0.14463423735851416
-1.4158898928288357,0.6343965603281133,0.8661837845574477,2.1113500011635598,0.601164400146482
-0.19372952148959613,0.4055157517108017,-1.1898546632592757,-0.6762116009661864,-0.15894270154428705
0.5303989556326737,-1.1710762619438886,-0.604952785004986,1.3709259804071074,1.908270323368564
0.3778318098660675,-0.2094794392217841,-0.8891687020790398,-0.8373310334661241,-1.4475637326098618
-0.09484859211259568,1.0511047766176904,-1.0927965465053753,-0.9437242316184118,0.6799548342217675
-0.6878620467513189,0.11633475245832083,-2.083224282006777,0.4433055936415527,-0.5343025492504881
0.5677103798202189,-0.604476134182042,0.48756435261443015,0.8005094634360341,-0.47633594564603055
0.9051734131388627,-1.335483480771113,-0.5683487847930029,-0.033752273958483806,-0.9133074235204749
1.3935630162768087,-0.3230540037801235,-1.7242648888482033,0.4585730626543042,0.30748662019601036
-0.0005701873730123804,0.3066338153649964,-0.16313029532704126,-0.09149926273233927,-0.14804142232801498
-0.6203051431729117,1.3707648698380832,0.7069799981250786,0.019401736551119098,1.976878077427232
0.9051023750809762,0.0945241835262149,0.06743153644563407,-0.9195688386440987,-0.004202589019728153
-0.18601147437191454,-0.0703622864043599,1.0420499685265772,-0.5570752049063765,0.22265950775981247
2.4938451918939593,-0.5002141286041234,0.8882024488255322,1.7788508541914405,1.7599030560214686
2.261088760136795,-1.0331437331263906,0.6673578473347249,-0.9911496123166552,-0.1654398127746752
1.073548303588257,-0.5426038345477543,-1.3240295174115932,0.7070069906788017,1.640891540968027
-1.4139492320350222,-1.1965624168836784,0.39508843087301726,0.07653145750475011,0.5177710624084547
-0.702300627254074,0.8609995291322863,-1.287557212670942,0.5706064862212059,-0.6454051695769129
-0.6963666892846676,-0.04849740382376851,0.12218940939303186,0.1549201772518859,-0.3655741720212072
-1.5919190465119648,-1.719315478461519,0.5588440012983283,-0.8680346736882989,0.13348554129596812
1.891952713530306,0.11160942405998375,0.6644539569559498,-0.22057173255841533,0.7334521660883181
-0.4603474268447898,-0.24320447844818482,-0.06915883274937729,-0.04125051468881708,1.512252907256452
1.9317286851697621,-0.30808710973063785,-1.1119726452826557,0.5894812566650313,-0.6390053995194469
1.6976521236271551,-0.6555772436062278,-1.3229813035843843,0.8416676125095197,-1.0687901769833847
-0.42850265826954387,-1.100110699775366,-0.3052526450509576,0.37663740473341606,-1.0034470854381097
-0.12188645842968238,-0.363781911886908,0.32114448805212475,-0.8972083738381512,-0.9554150169104829
-0.7386762384566771,-0.662365517276123,1.032728344908365,0.09683468945660809,0.7500161458435827
-0.1906024268978361,-1.5823170323953062,-0.6356958058698869,-0.3126900751845132,-0.06503139596675406
-0.6092937558036402,-0.9570387453717077,-1.9244090588095346,-0.9843344680183933,-0.5632434757807863
0.16714660994956193,-1.642716064364958,-1.2608972976578159,0.8861623945420188,0.6992291584764698
-0.711832906857518,-0.6368798689471459,-0.9071589851557281,0.576800781146233,-0.9907042510041665
0.3864620589106579,-0.2091513173959932,-0.4833447568387576,1.0313556422369337,1.2576991548776877
-1.3802470173483212,2.4255554174179577,0.7515730224000462,0.5506302516793454,0.49338173540065583
-0.8598649232878138,-0.4386733363445307,-1.5076269261913127,-1.0932394878199034,1.7340375917630033
1.0620743954082519,0.20463206876432571,0.2508488320907067,0.23331389718475531,-0.5552074613298279
1.095015964317583,0.7369429197191555,-1.788625780115851,0.8413206577662034,-0.3377743646859937
-0.2591508374577285,0.5813983723260464,0.8207627650770309,0.7167069940811412,-0.3774425212076198
0.21875800133478096,0.29167633605290416,-0.8582885765408967,-0.2619591068342087,1.2410479953190487
-0.007668880744014788,1.9659869246468822,-1.0080910047651126,-0.8155003116237938,-0.0688501921947884
-0.21679238016099486,-0.7005981312287309,2.2474964398398702,-0.6596242126124001,0.24866600626442192
-0.44399006499967403,-0.059715242572654065,-1.5369082180679878,-0.6760055112449656,2.656953567697872
-0.17868379346205984,-0.07457994768195929,-0.8972764073005293,-0.6124997963019031,1.0339430230140714
-1.533119642474204,-1.520995517781655,0.905822948017402,1.594718780053463,-1.1966501255118034
-1.4158193720532974,-0.545821969775301,1.2169369482382544,0.7291476039572483,-0.06610118616707038
0.5113518915692823,0.17619130518181667,0.8897429644121102,0.32575038716592475,-0.04930907530519703
-0.4100871398975483,-0.29666607216895735,-1.146928087795239,0.4939664963303556,0.09163182335185507
0.38898388220947827,0.6480267344979199,-0.11066462005964685,-0.29636525480184955,-0.5392147371569892
0.15457380578313876,-0.5881813790566733,0.6232368504134984,-0.3403757434455349,-0.9794567770481055
1.0375107992280954,0.29432757909489343,-0.04282558601579878,1.155115995511271,-2.238275453122142
1.6601251706205775,1.08719007153825,-1.3621780089134732,-0.08422268090641324,0.2666458025005079
-1.6987706903744082,-1.5093576610321418,-0.2875280213782085,-0.17118847087779904,0.3100916918153408
-0.38683993782339393,-1.0492596592453833,0.8439546120260257,1.685329459129839,0.5896619190800054
1.2343251211704642,-0.8793486481718643,0.2466469658128503,0.21876492888885526,-0.7879276369156443
-0.568513707255658,-0.10772448730621596,1.2101182952010698,-3.0637664716563067,-0.0021869289227560177
0.9402067122229075,-0.2134604950995165,0.17685025180941152,-0.18571193993470106,-0.794206875917887
-1.6115615982368798,-0.3212819884924042,-0.5174754681202017,0.33061008541728215,-0.9375934038718811
-1.8534324342369646,0.2044203176296733,0.865109419528165,-0.27808617093832566,0.2865635927732341
0.350988736761254,-0.7666702852043779,-0.598643170200654,-0.12994541381050145,0.6178677063459026
-1.606238751826279,-0.0860564090646839,-0.12515096574800594,0.019000414068285974,0.3461808879429928
1.5223951023072897,-0.678269779622818,0.6859119977359801,1.098345899147142,0.340918935262071
1.5853448115437168,0.6486591577084362,-1.656792462690193,-0.8586987330511843,0.6082758210649698
-0.4611422165067211,0.872399298905598,1.8068484537670764,0.7538100260507186,0.10182859366779548
1.349345992022099,1.1634525284980677,-0.1617644274195832,-1.339633612471862,-0.05575444946154467
-0.4471545461304105,-1.5581590467751274,-0.5938024124678742,-1.0608856202849832,0.645457853559778
1.3419107385393336,-0.6287689020597346,2.4148938670339803,0.42942167200495,-1.7119709582315419
-0.6444504411361934,-0.9148540747609926,0.05721225300951031,-0.07120978193131666,-0.17491582835759356
-0.4649142866020307,-0.8689714479993057,1.1250955827124656,0.8765578229673193,0.2492853903790487
1.2586145502026618,0.9415877157220052,0.4830155909231185,-0.7738068163014108,0.02060616817166891
-0.7677048287826618,0.32273163036422675,-0.05824386912435091,-1.298297193855476,-1.143792678300779
0.5088052368855158,-2.41254367528058,0.33578412513956474,-0.9246558282086473,1.0909715761310002
0.4284439081344729,-1.5331056090418196,0.7213906436422733,-1.0809119495451516,1.254012407959833
-1.121611119541229,-0.3814612737449133,2.009997822560357,-1.1010391421787789,2.0947517520390573
1.6264716118844147,-0.7406095078896628,0.2541090361981223,-0.8643683113202597,1.521907156816593
-0.7050002917598366,-0.2273313243576791,-1.2460234460704305,-0.14670487110482958,-0.4257560307732356
-0.8618228307335541,-2.0963590605756917,0.48222914856381033,0.522295084578028,0.5116588960395414
-0.7012275469812578,-0.32526008783552707,0.6143548736299597,-1.462333948157894,0.2668676899203759
-0.5071019930440389,-0.678972581951321,-0.5312870414172043,-0.5593248123976524,-1.0767920694114939
-1.3233453409504154,2.351675051729502,-1.43482124925083,0.5839627488931455,-1.0361456856724056
1.0561476874678302,0.11933240781084468,-0.0820323403091534,-0.13489536517603945,1.1165782961144644
0.5588615547601853,-1.0888629703748727,-0.16356009951677522,-0.7428213722189349,0.14012309034310788
-1.2184747920319585,-0.6371992114981586,-0.19093811688455337,-0.7296248204056323,-1.1319552661739236
0.5022645370841426,-0.049876002827435637,0.7793419669818756,-0.04973831846267255,-1.0570532796765708
-1.1166606413377012,-0.8232288343025889,0.5242437651315793,0.47306656834001864,-1.0748512984005003
0.21424622646320637,-0.6937644277386461,0.7464391900128032,-0.11545807162331488,0.5098099509161944
0.4907551270024198,0.3525861697865501,-0.5795601045667408,0.13720994200005338,-1.0337835130005992
1.2936846701207507,0.7295149267525798,-0.7585943302915574,-0.5450596165480469,-0.2336909379093021
-0.11512768695987383,-1.0242103411015864,-0.4256992748806857,0.13766093368891538,-0.28915737302142147
-0.46670323602988334,-0.09454886018782677,-0.2344062350361778,-1.1862310214239862,1.1483723325278725
-1.1342706156589943,1.2901058482214574,0.19397682647476325,-0.674849107919666,1.727510757502447
-0.4168336597406642,-0.9464262788121055,0.5513344482423441,-1.4755480972298816,-0.9637837709083924
-0.7033106953851368,0.7884983095928064,1.4466913447546044,1.576020911069327,0.5377747750047899
-0.7202800883889979,-0.524598890964713,-0.21532240311714085,-1.0928972403235515,-0.4213869518764438
0.1389184197162104,0.050834305959091185,0.9320606398506137,-0.16770471050790473,0.6065497253678367
0.9731168228819793,0.8775106213317605,-1.2432290902663186,-1.7657679879891581,1.0147289432500726
-0.6714191884753629,0.38622965729991643,-1.402597263874461,-1.0610527533979532,-1.9718207642267827
-0.6084611627843801,0.2189742551436738,0.2902714438994263,0.4828528283331572,1.3604516166038014
0.4131166453846446,1.3374460655549607,0.5012010356860223,0.9565956242909927,1.0121870217486126
1.3115920244400123,-0.3521773986368374,-0.036186236383092124,-1.4086637897893484,1.473494417288231
-0.5651329797603207,0.26409686572741237,0.2457140967975897,-0.8697510633520157,-0.11921152804259591
-0.12134913820788096,1.3881070210287578,-1.3811074407594792,-1.6427586513464862,-0.5017231495088069
0.45423183365885217,-1.191553847169277,-1.4206982754154003,-0.31699930817512406,-0.9124957857060603
1.0268380211701091,-0.005782352956439224,-0.3092882279905739,0.836304814622561,1.2636415895048878
0.5306494045794171,0.9005857700191291,-1.497830399091036,-2.0349016564569427,-0.9586068729675518
1.1342583936728272,0.5301579980723231,1.3181051096389058,-2.165706930888461,1.0393199870826915
-0.9988191355127986,-0.8883115352269967,-1.5947341605786078,3.3207177805576413,1.7585628463310643
-1.0051244221136084,1.6138739474869932,1.7339781711698175,-0.2625969800828918,-1.880144312463294
1.0081417592354296,-0.22444742187853034,-1.304270765326372,1.40970003843754,0.14950778170875004
-1.3153963398222333,0.0654961947074119,-0.3114923657430903,0.019187639668152696,0.37069677810879703
-2.0156277915396092,-0.29714544930124076,-2.7322606825428255,0.22067211151285696,1.0504081439629471
0.6586539198331078,0.6068902665074865,-0.1763960189327628,-1.1424993367801477,-0.8389963463604521
1.2561173452926089,-1.2934952487810265,-1.2927823095042823,0.23146585098283023,-0.35136774347267913
0.7597752520437222,0.009821589331127239,0.3134619978817027,1.9388556354629465,1.2134273591528917
-0.24568688013763232,-0.1585843657236794,-0.36408750841557014,0.39750801529095414,-0.1231661137266543
0.3552067538604471,-0.18009722719152546,1.1642785126051594,-0.44340710951934115,0.11883295522510534
0.08760120498588658,1.142412314439484,-0.16506302099384246,-0.32906404563238234,0.8627525372537841
0.07504622086764644,0.9190700474097807,-0.5795971640374984,0.5520703396385794,2.113151404998132
0.4081647904489974,-0.323946124421631,1.3326575433102814,0.10821575146310534,0.8101784010700009
-1.3963530194090616,1.4732435091914702,-0.2418201087414595,-1.3386467546519523,-0.334037301011898
-0.7308541290092454,1.5148454889889378,-0.40162794580823374,-0.5084314089592991,0.17697024913603152
0.3129320813478994,2.065944276202895,-2.5514273369253506,-0.30945183546704563,-0.5456727454231843
0.16652121894529337,-0.4190259406420277,-0.2296219906109261,-0.2902505491108443,0.142019170712869
0.5824849142793969,-1.9637835029340343,-1.135395773216257,0.5199888699079286,-1.3356134892285547
0.405999852740852,0.5214826501939714,-0.24630852307739476,0.35458137510883647,1.598454912548059
-1.562662829039557,-0.6824158186653536,0.06535466248917689,-0.019021542546789786,2.474540126522666
-0.9908727813731665,1.8083397541323236,0.53686614960995,0.09830504259094994,1.243788277283019
0.5167592544190863,0.8005779224952688,0.8015853410662802,-0.9563119351164335,-0.6485944310403787
0.024370214577012057,-0.7245314025389559,-0.5731311766998888,0.4514191357819727,-1.8597902782955948
0.04892970536198014,-0.7438912935409898,-1.0712715198277099,1.2259190616776678,-0.7945204609225817
-0.9573223560834652,-0.38233177692496056,0.27059060202176904,0.44167939900907516,3.178582730640405
0.5604574792845607,1.0761798779836091,0.09291721999710234,-1.16957472481119,-0.11451918177383005
0.7211890110150596,-1.5134732849535808,0.18820924253612167,0.4627994995277656,-0.8455237505765383
-0.5791572966872693,-0.5907718052358747,-0.3195931108863072,0.4983528850244747,-1.4698178053107585
-0.35303749706158166,-0.3042163294299326,-0.28413308287183686,-0.9540465241981194,0.3046956355165501
1.867585733312361,-0.9520798621563533,-0.28572869447599314,-2.214881967691371,1.6280472389506968
0.06666989271661028,-0.3792791063152662,0.5122305302816442,1.4293750772990834,-0.27103514546210855
0.3032328988399843,-0.8715771966373828,-1.066175838744725,-0.12672160608959093,-2.0273424892313394
0.2770014420125267,0.498607521871016,2.022984758092378,-0.1972074422480652,1.1585212964651357
0.29003621325882667,0.21201123980941675,-1.719848936455943,-1.7618714769487154,-0.5115725423548912
-1.2718047686093135,-0.3525435029393866,-0.5338758211015072,0.37848755193735906,-0.019199253462824827
0.40513354684053887,-0.6260592841150928,0.7921576799104076,1.0559520131622393,-0.4126315614198571
1.6677152913578506,-0.11651884182071626,1.5079251692478088,1.48773063503999,0.2471225211957997
0.3181105520861491,-0.13672678596196775,-1.2122202811909846,-0.6195693914062165,1.173037593666656
0.5316931855851691,0.21971191111420696,0.2830441199970887,-0.1928817747061821,-0.3281736096854107
0.2130627039837933,0.9012060627704055,-0.5972980447618379,-0.08584898282415958,-0.806971929297263
-1.6339424877015485,1.3205647796320872,0.9022160965516094,-0.9920328684756468,-0.9976338062019378
0.943498788777913,-1.4888284154256004,-0.16757084578658224,-1.3541083241357876,1.4059082073497355
0.969737799255724,-0.596303155184802,0.5571775112042678,0.22629789674107847,-1.4987290789827916
0.8508938846350618,2.141238313096049,-0.7050348791622685,1.4923670335426158,-0.3762682485684131
1.3765304580983162,0.06565189904500288,-0.9954035519654243,0.5309186022132069,-1.025134447300492
-1.5686912811104399,-0.5825910661476524,-0.6294620842417062,1.5085456583319465,0.15326488607881328
0.21610781516380184,0.07404782213513497,0.9009794813306237,1.3775655630194001,-0.6122685884850723
0.4064186035019794,-2.2536004987316405,1.1744652170887537,-0.14379304876630167,1.3736576785180865
0.6619836732125863,0.09713064840793567,-2.2309735377511024,-0.35438965763697683,1.198377054955051
-1.114570687005988,0.28157446959641486,-0.6547486121562296,-0.8513448617661056,0.13898452340749498
-0.3305246430049471,1.4890633973280025,-0.9069641491941343,-0.5358070340953491,-0.4414186712196351
1.042875280647303,-0.4388549244239232,0.31350630255854756,-0.5100838165238019,-0.1277078227281943
-1.3132533507768893,-0.60607061077277,0.03361671127764293,-0.18938815643128137,0.8276256839131733
0.05884403605842817,-1.64758507481519,0.20825716284304233,-0.5578942578862239,1.0392588443792852
-1.178382010568146,-0.9273334117202956,0.6170698357712457,0.27417269978181347,-1.3551635776179567
1.846333164173234,-0.6744287141819574,0.03778319016642373,1.6487554559473836,1.25667112380553
0.9041670106389529,-0.5891859778479409,0.3258341097015981,0.9757486874560574,0.3856075572210823
0.8697767984640323,-0.5188883638427164,0.6527960026371847,-0.5825385831421283,0.41907720039720836
0.10687270595759302,1.696975029257734,-0.5551011412327176,0.3092554818820964,1.4834351042687957
0.08327978999308949,-0.9401591502135862,0.5111330120843975,0.22440335044658255,0.17569368369434255
0.5613817578754133,-0.9302715419173971,1.0400432352974114,-0.4780207632852224,0.37425540893924397
0.47859989151049914,0.1543299564387507,0.9816389856005622,-0.2660947666004966,-0.8985976486230469
1.9471398937355002,0.3547460757738055,1.1127038771817812,0.17757863665346602,-1.4984616821227166
-0.29084410295422886,-0.459949285537506,0.9346881367383836,-0.9828125281680954,1.5135716477989345
-0.7926721075870229,-0.8185759792508296,-0.7851836331453929,-0.2875595810120882,-1.0603337484927065
1.543395402788471,-0.23111509871172553,-0.16025273998640677,-0.44166405398607167,0.5550009284513108
0.5242880512275314,0.014187417484164758,0.39081065233986084,-0.04200726288026288,1.3146306152389398
-0.7223443866248905,-2.2536551405753538,1.5732398804526035,-0.32592824142689236,-1.7778987472518601
-1.4319435007595975,0.9569565829764608,-0.8098957806606932,0.22308864475505816,-0.06423946562819337
0.2572958445414515,0.04503760283678536,0.6879047649743338,1.7964578700259834,1.0144517429348656
0.40062591759437155,-1.4233766970416517,-0.8782275512505073,-0.8484970504512683,-1.0457297182088154
-0.562378261676444,-1.3878186043100298,-0.7668870120148379,-1.4098899364333743,0.24827965083466014
1.7139557517973827,1.1216605629209995,-0.4611413640254525,-1.797723645793086,-0.016252659828023795
-0.7086991555582927,-1.4467564236241568,-0.20257982302155114,0.5797024312344843,1.6528491486997214
-0.07219824875436608,-0.38474246744318596,-1.7329701160878896,-0.7590933538752872,1.3945498863401005
0.45696850928182586,1.6126736025761683,-2.109034072678546,0.7035075996684486,0.7013454528708638
-0.556500398418051,-0.20838883973101463,-1.2056652159109242,0.5439615988706056,0.9114301513253835
-1.855395867791675,-0.35691213157571067,-1.6690090978373573,-0.3549733916581175,-0.790945777357029
0.8677302514606786,0.16577100064870554,-0.03974299407660332,2.191690924734669,-2.5112544592854444
-0.2017841629064997,0.12172717395861533,-0.15314461739424112,0.09529723823325098,-0.4450674323044199
2.234739954736456,0.543625907865487,-0.2454676667613741,-0.9932289212815226,0.06125016619312657
0.23083638828101194,-1.5169875642804609,-0.21227996494442936,1.0467166572402797,-0.37007431692353226
-2.006863214117371,1.2548123726614504,-1.0934084942801119,0.025881085865808773,0.9465288631738533
0.996888345630823,0.16859217250101102,1.3834116536353553,1.0823427088359436,0.007427945368498764
0.5989907538586707,0.3954118468768023,-1.1259606614460038,1.0047882604671186,0.16797290000633802
-1.0664552214737855,0.749914700364443,-0.14811476564788104,1.0333805350376013,-0.7867696330033565
0.27581451011290653,0.6890539952520621,1.074094007708042,1.9049552771534584,-0.05718386066358338
-0.620488929196913,2.161363742951311,-0.1273567725678475,-0.13732977020750678,-0.620052626643276
-1.0258523056306086,0.4820394191788635,-0.46824859042206707,-1.4060663786043393,-2.862009075251995
-0.4593796743440237,-1.5759316638056013,1.3597808405171534,-0.6229088928148354,-0.47513238822648424
0.476293739959141,0.12536804544470742,0.10652059180921136,-0.7194586647086052,0.4402947707496843
-0.5292087424147411,-0.047090378664782426,0.20619953114962,1.4040421097388662,2.270379521874909
1.1162915603569927,-0.6305877835175561,1.2381373649962943,-1.3147548878148503,0.9711585197874839
-0.8222201416059024,-0.5181482352450298,-0.810949383038365,0.5125405099606964,-0.380143710125899
0.028030229249412383,-1.250340260881463,-0.2845998247802972,-1.1308071842959637,0.7333400826719711
-1.0795698981129136,-0.06270038503783454,-0.9714219183777263,0.19715662178138962,0.07036545088575714
1.985680450558925,-0.19704167175483653,-1.095002022311719,0.9610478293879979,-0.5266238821864733
0.23067038816792199,-0.02954066798225555,-1.2354533663291896,-0.056123418416698254,0.7551003069928285
0.6913609898163752,-0.5169342125270379,0.5259033078695201,-2.367936884027399,-0.9364200995195616
-2.100400793749647,0.3191681612966557,-1.27314227611013,-0.3337021163346188,-0.6479815647751908
-2.0681557541321105,0.016572620355711866,-0.479028807331058,-0.09584643518305908,-0.23529166549541067
1.0738871758082082,0.30546270774981493,0.6465466905151692,-0.2613866967199312,-0.027019495316475788
2.0804138964163705,-1.06364548605431,-2.6330404010116335,-1.1630772602043886,0.4386985470097806
0.31065045050218854,-0.21658927144196677,0.3557837145217841,0.5108370308401617,0.18909752652055892
1.5648370113028442,1.4090068392300648,0.046475245152383535,0.6998793826400089,0.6498881042947438
-0.1809324360549513,0.21191016508226093,-1.5568938340420218,-1.5208040420238644,-1.6289334790249181
1.372722796862358,-0.2630087008645576,-0.3246716608727808,2.539774939039354,-1.3826209718493412
1.0025249228859876,0.18889647182603103,0.11110845381945897,1.5021483176875683,1.0833016144651046
-0.02006257828032088,0.710537224476279,-0.19666298551430378,2.7495919289314235,0.8335781070165104
0.39938538487700415,0.7181868673329037,0.04646278342137879,-1.5304608913530116,1.9072398146549931
0.5852618828428268,0.3081754958625157,-1.4524378350550415,-0.642720493328829,0.6842032226367852
-1.38435715145684,-0.7135656166643563,0.5598732052200596,-0.7179906137531611,0.7518516233089587
0.4637733408335492,0.18989206500430394,-0.5677242624124647,0.24490880557406755,-1.9230219077251784
-0.6744176704999664,1.0140337379642927,-0.24876951344017104,0.2408402172045803,-1.5369862324950734
0.4196853919818072,1.2370502288484528,0.4155091062213958,0.899779215010937,0.8186885846951584
-1.7642718041764054,1.1741039601103143,-1.6874751743126233,-0.542315075793402,-0.0073496367849803035
0.622306275158525,0.008983312309140627,-0.2589157330420962,0.33173564767927605,-1.2681523198196747
0.824173786694801,-0.38590526657450597,1.1096822719157757,0.11709081780095047,1.9226255265778125
-0.1720008110468785,-0.8321735872905481,2.7421891201743245,-0.19791374044153556,-0.9357170821151992
-1.087091538322574,0.7130952588805187,0.44687078917690765,-2.5760539313316086,1.6057913473455372
-1.0005094154173382,0.4107017989347869,0.12195436709181878,-0.3640924566346248,0.31617088167962776
-1.1682784389583194,0.662438818890775,0.8938403394914732,1.9753796154195455,-1.3706412441156248
1.2490491533314128,-1.3712012747760953,-0.7277945983588635,-0.6189109185817784,0.49940238040043616
-1.6160355053754454,0.4052216497481459,1.6460901268030175,-2.209757963240699,-0.8719328341242848
-0.5256145013005353,-1.2450528472397686,0.34987749541911656,-0.4321570866468372,-0.554063133798816
0.10090075410342679,0.9180092767281527,-1.2546580837032426,0.39542045458032177,-1.6992370191631698
-1.0326681048956536,1.9766950114562152,0.5218428690930345,0.22964062485762518,0.29660147486239624
0.4746416497553744,0.8439157354598226,-1.8455331618171527,0.29264324203680775,0.5260942743802837
0.17468941245374464,0.6024118702339646,1.791946766887434,-0.4076091933379369,0.1280779088617701
1.5367732398303482,0.25467653917278255,-0.07512494182906962,0.08136183774683352,-0.9667590797986682
-1.5718622601898449,1.3800005078483855,0.9683574107498654,1.2714387600576622,-0.8995197793548422
0.43131421540293113,-0.32406520228523944,-0.6411500329366315,0.2960520747261751,1.5481374390405078
-0.2519278221181455,1.0079209245327614,0.8202382760291593,0.16871750100000996,-0.18085973345989423
-0.2059646531656366,1.1884404933765083,-0.707359076044766,-1.5331736053013423,0.29387749654504236
0.9656683836902284,0.05954734869194977,-0.34514703289869547,-1.0873723348185091,-0.715340001874611
-1.9051355052701435,0.8486072838069645,-1.075254963820953,-0.7338398164508143,0.38835346674213356
2.3952901070942056,1.4733110885214868,-0.6148381648065468,-0.4723993648282988,1.8244032982884628
-0.99607006399056,-1.8453520072817533,1.2769625207740458,0.6367569167213408,0.6936502777039052
0.48586609742498843,0.3026686579537245,-0.7261621724181145,1.3779451946808143,0.7194743546280374
0.9944973155112041,0.17863854285491013,1.2522928566910005,-0.5614180401458212,-0.04984952707276373
0.41560147572197204,-0.5687882850129079,2.2219198677446284,-0.3677869562133523,0.13476517838285965
-0.9821501860361251,-0.13811132395042908,1.8948666619517458,0.1663732991535519,0.26112120038976583
-1.375697818431108,-2.258183875677651,1.1025278958806148,0.5037987984388881,0.9704140029461636
0.5290269114682473,-1.3298109976152253,0.21874994807789816,1.642633165258085,0.5958459970204237
0.09077405409265432,-0.7484141703019349,-0.48123149662072356,0.3581520760931981,-0.8780496459630318
1.5236356103079467,0.5945403202438406,1.356758250216084,-1.4213481700245743,1.1930302630939624
0.5697342930578208,0.10729779227109791,0.6966758902686339,0.6024568888497962,-1.1052924216131261
-0.7109913289793954,0.25407933502872193,0.5569832546466418,-1.500460565817405,1.09883033664754
-0.6700376298925658,-2.5415993403264774,0.2508803176094106,0.32073908843212595,-0.09242664178433378
-1.054092445256889,-0.49476537668572457,1.8029484764631611,-0.21984925442366127,-0.743155590470121
-0.6121042053208984,0.5121595175431549,-0.48455128987338025,-0.05046413509362884,-0.6089786174428492
1.0441934626019924,0.8630770543005913,0.9538775255055112,0.3316831067726033,0.45024211323849805
-0.572139386506521,-0.1729978456541799,-0.6595488029387616,1.8249706695429406,-0.599871107997208
-1.2385045247679898,-0.0007989614949047835,1.2351793827750897,-0.6849118939487909,-0.43975990202169857
0.7515170039446237,-0.6459500164638569,0.8143974031748589,-0.7057704761981008,0.6808874753475236
-0.4184266105066886,-0.3702872557653271,0.24721985702670166,1.1624422895615418,-0.44621357905275816
-1.467067310646903,0.8900141439946957,1.2193174422301791,-0.9190560785550002,-0.07116676796750103
0.5364476772179455,0.19931892450166905,1.4851422693489802,1.4930355995444995,1.1113371278280886
1.2350227254390298,0.19530246005418814,-2.2162389963910516,0.2485973277076628,-0.8516254822250768
0.02176411945694639,-1.5084603089212114,-1.0788019363558847,0.5895995765833523,1.6001158435956309
-1.0972959292861648,-1.394832167397423,-0.1742112328676959,0.48720855567080684,-1.1589669628771013
-0.6279541841716063,-1.090859864209207,-2.2390945654713863,0.6334327240887778,-0.35066392082348
0.3824115965460886,-0.28828114752475537,0.14253771302084353,-0.7953698996787274,0.670615833878335
1.3227525635793413,2.0187082549366124,-0.7961015955183021,1.3003960579202436,0.6916770966811187
0.6463746487674441,0.04656459552635509,-0.10347356653382112,1.2390922752647426,-3.1064961931660546
0.35777585330696204,1.1257610386500283,0.04883293209683865,-1.0498381323186259,0.7872464191603092
-0.5551815556876732,1.4770568905095791,1.1477817925103884,1.0402189321302293,1.5101451086468067
1.5132713795409638,0.5747827111025609,-0.4171363071283723,-0.5493043844472122,-0.2988603373087596
-2.074686032443165,-1.0208657238446082,-0.16913021431211764,0.31237871344466855,0.6627851307913499
1.5638687476199153,0.3679382845510982,0.48831363558109653,0.5172090868525064,0.18479149895797306
0.758026441044877,0.786805872354447,0.2997563696412186,-0.988486958065045,-0.2149866644071769
0.747738924177567,0.2871021082678565,0.6451509525966513,0.4549819284811605,0.8410831490046581
-1.6124274487518082,0.40702489565898975,-0.09860369905457757,0.8989659996517778,-0.364597406698382
-0.6712642793085485,-1.6150373054492237,0.5930294170458215,-0.9201725582940592,-1.0928626011738836
-0.2850241106296424,1.6217632780751297,-1.1001847558899203,1.047385325668932,-0.5029234317484413
2.215363078671286,1.5338598977023539,1.476246423218297,0.63765863133235,0.18741707492667906
-0.029266173535230196,-0.9307079613232528,0.3484913838649822,-0.5737752683991135,0.07846277851735568
0.9637036153826486,0.551983051663894,0.20927649115651098,2.0082986523246413,1.573684694304426
-1.5625460893830612,-0.5395225401130468,0.78020384483854,-0.516293561945532,1.1122552350117867
-0.9960873340194657,1.5834825968481814,-1.8472972203521258,0.8215162819851136,-0.019389531822586882
0.8425718918036107,0.26086421880294275,0.16875429659962052,-0.26478707777168786,0.9598453523381187
-0.9329478653518142,-2.072351735087748,0.5453193485549017,-0.8818519514922554,0.04188212625738301
-0.7852326656477944,0.830438169258718,-0.0800600069771308,0.5237710339599025,-0.7017604563132438
-0.10402279913694037,-0.68979133842185,0.9357878096702755,1.8203127872472118,0.3288469475625199
0.2674050785912405,1.0212596786135233,1.1139649784276435,0.19881285098505216,0.3846399014004542
0.120989968031278,-0.8111935882565756,0.005118729528788538,0.6649938101842245,-0.3986903812752002
0.7384134371985178,0.9421390795723942,-0.000893995366226847,-0.9821349211532993,-0.6300406804215273
1.8153505919565465,0.2074043922728976,1.204334615091147,-1.386393483481306,1.2481730013325498
1.2672946971278363,-0.8287367205381098,0.01660843240482127,-0.423630435584405,0.8308016171543463
1.9451369721538456,1.049133954724083,-0.9729278811875617,0.9229491771719849,1.363101786766114
0.38278229605205044,0.5768066977754018,0.5069200036663213,-0.5093263576172331,-0.5722032390546543
-2.002363256587083,-0.38426886054484644,-0.7590070691931089,-1.768048975954839,0.06216472186986652
0.017635292534545714,-1.9779517984856345,-0.1454134157696815,-0.14270543975364433,0.7579642700939782
0.15028864907570255,0.3493340524727188,-1.7537842542172024,1.7363153715180346,-1.0181578606249224
-1.5025654568702007,1.1776877775354428,-0.5319118956058525,-0.25890019638878,-1.0608325807936612
0.7878059799622162,-0.46841379689732215,-0.42194817205341745,-1.7624677753325149,2.4190333825209653
-0.7595798972852422,-0.8414070573955621,0.9161179056458575,-0.7322103010294421,-0.9213636556728239
0.004894961926318412,-0.46588479662405397,0.26071384080523236,-0.43504113487944773,0.770063101773809
-0.6333933766411867,-1.2656365601739143,-0.600397765066354,1.3973685745550826,0.6314910002629051
-0.010105960594433581,1.2226413902006077,-1.02772229887097,-0.7180396636156988,-0.3922691820395202
-0.8405108856516744,1.6430413602261238,0.5103765784234486,-0.6221539825831729,-1.3884621566973738
-0.2949219805585513,-0.936171911802867,0.7098800861305687,0.8735039634832558,0.6282312891055792
0.2915991203797579,1.8504104036747642,-1.1399595796249535,-1.4876575393270695,-0.006674773900445529
-0.24304896755183192,-0.573502907523605,2.0023061351744484,0.26304340574709606,-2.37181048844823
0.129557027893648,0.5237210927355953,-0.19178978290766974,-1.5923657052561064,0.6398309160296247
-2.073931407237786,-0.4950724316550667,0.6684712104864908,0.7830726657532572,-0.485966497594395
1.9545579272319098,-0.15834336158037873,1.3603607926390995,-0.4251397241053194,-0.9095138399523394
-1.0299390850141859,0.4801848289253127,0.9404930883823233,0.5714095928534392,1.395371037881489
0.4070529426778583,0.21153272813962562,0.5791657737224342,-0.9112717290931879,-1.0605397943410797
-2.24903328568756,-0.966362254887737,-0.20588857744197464,1.2197269838322018,-1.7663863209559518
-0.80126378344823,0.3273642406287874,-1.9654178543864633,-0.7300610981308816,-0.15876893005320986
0.14197950586774613,0.7680472471144674,1.3192928046834569,0.3215946829672009,0.35189473557791906
-0.8837502624851491,-0.7241797542323015,1.288970919945485,-0.2178219103258492,0.5890870085043565
-1.349617081075718,0.169838652609754,-0.487206684350911,0.9439256435777238,0.9293618269495739
-0.4134167766119035,0.021529893516861884,0.6614576563279415,0.6179016868836477,1.1254716314677549
-0.8666207115521843,-1.4038826872930306,0.446476205444418,-1.4561777310726698,0.37766545602535656
-0.09954577555580946,1.6564157525368235,0.9471650328520445,1.078929284375125,0.8498626480179808
0.3092312925051783,0.21591157983132087,0.8550361378692423,-0.8325957084740069,-1.2400912801012969
0.6203743332239785,-1.169419607467532,0.5206738467086092,0.8820697501470502,-0.7783722780157151
-1.0253065960037862,0.5769368824091707,0.12849277331914308,-1.8539846159374467,1.2692329269085993
-0.5605765341430439,-0.17058231671770757,0.48628936163228653,-0.10321654679075744,-0.8308485514500481
-0.7480289819632137,0.2721724184108301,-1.2421780160892364,0.27255988899298467,0.7499648142542839
-0.46235565645150056,-0.6920067595428816,-0.42180508968471936,0.07074358950100319,0.20117377233223582
1.3205849056440666,-2.1084009849691387,-0.39979787631621105,-1.4111255551451185,-0.1524434781413375
1.2114247287851847,0.00920150092814492,-1.6378284629577085,1.5832295070233307,-0.8310714245559147
0.10987142179145405,-1.9421361606948504,1.2735473827998962,-0.5669964680929838,0.4125735991731342
0.02895916990278265,0.340750975939925,0.13545224302000128,-0.9049762578558184,0.9283125658255202
1.206351346414856,-0.3522979918686387,-0.5228363447243802,-1.4722542321409775,-0.5776929941093089
0.5329268962663912,-0.36806261350658176,-1.1872805941504316,-0.13993766561344642,-0.33793482049864026
-1.6313467061451548,0.10486911202020986,1.5610477811230197,-0.4167384370251536,-0.005638167297199092
1.4763572797028934,-0.44691452468712584,-0.7625190908135396,-0.6762085452104021,0.5013209316728554
-0.9505128917208467,2.2410999324277934,1.6121797400516356,0.7554659619726328,-1.1393304126772994
-0.6259294283964302,-0.7520540367616106,2.430896617101689,0.8911334475163746,2.0060391599735943
-0.09280675293520983,-0.8904839316988583,0.8375326289287721,-2.000404109933979,0.6418514481119083
-1.2954638679591208,0.7161517221793633,-0.3821365499901614,1.1221065244587491,-1.212173628058118
-0.4729851178423454,-0.8256526746103044,0.42274388757405623,-1.2677312299034775,1.5911977464559668
-2.2456067729894786,0.885596620290568,1.7088949155052005,0.5494201312878797,-0.5241881246348719
0.6576137105284674,-0.3841358365552309,0.6691609435271143,0.6035405635911574,-0.8181741863036355
-1.337757368429327,0.4361794983857852,0.9060813593861436,1.0419381573683586,1.2677942085941227
0.15391356382553179,-0.24723114669011462,-1.1914070088745194,-0.16980924499992078,-1.4656325890051334
0.05876126064779994,0.05173047901684384,-0.558509851442144,-0.3339991726675855,0.16488167669591725
0.13190012050297134,-2.3538621757661207,0.009804169050223301,-1.0128585373181727,0.07441563080945557
0.29170072652499907,-0.2173821677173504,-1.3104417546420088,0.21309932438069665,-2.1880818422318495
-1.668538035394496,-0.2501941528800144,0.10447553000378818,-0.9602158724918232,-1.6511818581554611
-0.8412725221971956,-1.4726306947158687,-0.1697382668824851,-0.6934565383444828,0.8199980804169189
1.173984598221502,-0.34706612393701075,-1.6548336631697662,0.7570447182291726,-0.4713824058491195
-0.5449587120184628,-0.8598018125131556,0.7227535887822207,1.4142647548660143,0.8302683366640277
-0.5158916128029437,1.0370827240316218,1.5389877642050385,-0.8700209839487367,0.4645055528961804
0.4847181264600402,1.2973342265121006,-0.5308337920788678,0.6765296965850421,-0.9922427379055337
0.9107318076096186,0.8240531698289536,0.009694407267678888,0.9667992860655513,-0.25152692995189013
0.09158917555544079,-1.1122480080627302,-0.39872942884772783,0.559102608465883,-0.6970056715919981
0.2387077101096393,0.6491130244294856,2.5654606268961633,2.0611030106152697,-0.7890313042303394
0.9202208991971866,0.4151436265126251,0.36742519172993393,0.30593372815122727,0.8142838994962917
0.27299771214426577,-1.0917870723033736,0.09756223126059181,-0.02562525004776198,-0.794471295703632
-0.2600670695814911,0.14715253710328516,-1.1387411865078023,-0.3321028365264231,0.6167129350689389
1.2682693288849727,-2.9360941074777127,-0.15029793989204043,-0.27494141509213016,-1.2599526880820433
-0.1467102944384743,-0.684778531912943,0.42399194413513935,-0.37349856666542597,0.6966134804039611
0.11837935266743058,-1.7534892376201632,1.5429843140123012,-1.3170398849302853,0.33894509511104676
-0.5924911270123701,0.9161399357241541,-0.09992033027219935,-1.198723117807326,-1.302175468558375
-0.6877812235085632,0.806653414251333,-1.0831093052732135,-1.3419371356232488,-0.23496807867562813
-0.5309281810361254,0.7804783815941524,-2.3537441729791806,-0.21433434680374444,0.2695406847295941
0.375339416327424,-0.714411666450234,2.110153213765854,-0.14580303188001775,-0.545240634310983
0.11427745696420702,0.07703731339747132,1.3790631603594565,0.9593061928091239,-0.9862246136895271
-0.35305117368919897,-0.38620383319027507,0.7074039672263109,-0.7593727007020749,-0.9242462930485292
1.1717113990114132,0.6127803745730523,0.2384195501144404,0.2896060244096445,0.14792898342296026
0.6763611575151165,2.1752718308500625,-0.34685793393660785,-0.8793437570323295,0.861676912757137
0.22279826247938359,-0.40850457781205474,0.7188172391062602,-0.3112091168215234,0.29770132659422016
1.0152533023732049,0.3945269439857333,-1.1868397269685045,0.000875023953791843,-0.196420571021963
-1.4573486045292634,-0.7314984592362086,-0.9793118791446332,2.2484556439655474,-0.3970014176577963
-2.575206383454296,-1.4557295874170706,-0.7101048240871801,1.6788744207802564,-1.7584364901742522
-0.031390517776962286,0.9201146445224081,0.15959643764582357,0.9594735457304745,-1.1999243398021406
-1.2093412455701096,0.9020644911599065,-0.7057052739919806,-0.9208831439662484,0.9673611667707148
0.10598703765650207,-0.5822371368891819,0.3471853984602489,-0.07801419243932912,-1.1257121568945045
0.005388917195172226,-0.8800799076439808,-1.169564189099846,-0.730993169079702,0.31824722867190924
-1.658884221020395,-0.12526725426672544,-2.012766789972102,0.26634807193730925,0.35251309116928287
-0.41585339915556185,1.2099383923884965,-1.7410633404058171,-0.7500331298810421,-0.43873210326788786
1.6285512644575866,0.7239440246210808,-1.8697587275229492,-0.0780856246494947,-1.5159819200693487
0.6771574651407772,-0.1782889624655358,-1.2391611092618138,-0.8979383635148761,-0.3773314277787131
-0.22904711604564562,0.765125459420875,1.1137582236815557,-0.8531901886906786,0.26747134914693554
1.2028142238375907,-1.4631098216985505,0.9751703548515837,0.07578250077474522,0.46393628030119277
0.22473011981627852,0.13221726495787117,-0.9079380738368901,-0.2510659087381776,2.4331663562609043
0.24730875524924498,-0.3840066067209896,1.4874105536319664,1.0880352580196642,0.6198116594315367
1.219213949460713,-1.5736991473669546,-0.5787679959341925,-0.4514565316015471,0.5220197829595689
-0.15454269305690396,0.5639008499717622,1.2118069890653267,-0.37132512121281064,-0.838545657219243
0.7470232789527727,-1.4586311788635795,0.8223470817763625,1.4345501300680967,0.5953975383103567
0.16552873437887825,-2.036971343570261,-0.44737446836016204,-0.9623756072114027,-0.5001840606886506
-1.7668538033769632,0.24686709970678541,0.414891770747919,-2.8833097693572793,0.6067318820748288
0.05298763561761557,0.04119418775405285,-0.3817717938289444,0.3533168013869148,0.291278609875564
0.13941319529032256,-0.9786262488030755,-0.7797521481190075,1.3375004054043305,-0.21756968247921873
-0.56654164787836,0.30796730474329703,0.8553993074156521,-0.321179779915734,-0.1797219997630411
-0.9242294651470944,-0.7231642104873193,0.06899347196169035,-1.7171878381134758,-0.39091537498029155
1.746680881309021,-1.3875095332517493,-0.3499564178620786,0.3384076904168606,-0.03798584112011224
-1.4597001591942498,-1.2261159799924564,-0.2592537970150884,0.40599426783355624,0.2301576167053669
0.8473338931362215,0.378166805270466,1.641753861775231,-1.0923465154276282,-0.8779182344684667
-0.0772964490836181,1.3303005013089109,-0.03201171920971862,0.561922436345027,1.7235383719841786
0.687115738822698,1.535483172955837,-0.9847857159182972,-1.893033999222811,-0.8658497746555713
0.6632271322380269,0.03378698704335049,-0.600097589178154,-1.3432484041647652,-0.2079023043372648
-0.03114108251590015,0.07362815393815692,-0.5027121543578048,0.5407921202729885,0.8452861910020567
0.16913020258466735,-0.05019478586408073,-0.03368591196615308,0.21989889929514048,1.4058862994039552
1.0669742894191085,1.435377758395043,0.4552696258503251,2.229546127610355,-2.2611430634625
0.2507764746312297,-0.1608213868430504,-0.10181063945472675,0.01163705795617042,-0.4590124706952592
0.05273633514989782,-0.3713078779373606,-1.9083462078701618,0.36788386467931017,-0.5940068144163607
1.6776228684576926,0.6521786001878762,-0.13249955768652538,1.2602782812116349,-2.203098153258241
-1.0262411593642715,0.6631753670453484,-0.589341363921783,-0.6773746675963027,0.2161720508172202
0.0368328284443342,-1.2018772438060192,0.7683773667164643,0.45266866154385493,-0.8225597295291064
-2.3137889360279638,2.042033140849617,-0.7831559317651616,0.3521835121924963,0.4488064147819258
-0.010502120264119473,-0.2461054341741121,-0.7476464896873197,-0.13585518852403017,0.9935651049343761
-0.7676119112799372,0.3287288477454755,1.0053389821961378,-0.016230209330700185,0.3987549864060807
0.9488278065333158,0.6592702880452175,-0.15199376589668848,1.1697777511309158,0.6621536078892204
-0.6922647651607645,0.6020231717145138,0.7447675247271015,0.24026050859248504,-1.5067877336834845
0.31828816679928174,-1.092643047805301,0.6777292535057724,0.5022915387449076,-2.0922597638814464
0.35604857713037186,1.3393848558660082,1.269678705665222,1.6306395055144833,0.9810707293849583
-0.16407291251284228,-0.9218210435436494,0.397789194545678,-0.6465731931924169,1.2898699699784884
-1.9430974051836212,0.2394000084690031,-1.1548529250329338,-1.1269622419182608,-1.4341884406067402
-0.9379124179401575,-0.4385879302281232,0.2748197526918112,0.18561641182563043,0.3352802531911342
0.018910289540881454,-0.07040428189097744,-1.438425734165872,0.40206113737467003,-1.2055921662081035
-0.5045914936364755,0.7364384683209367,-0.8419540100838271,0.2554025040123244,-0.5280527340253054
0.637796237665872,-0.9750282722765229,0.9056551661925958,0.31165626050174644,0.10835593758124559
0.11872193718639278,0.3799444062220723,-0.21715289212283737,1.1494188450659713,0.08221582448505126
0.44206338395669403,-0.5141249132178356,1.4911122838549036,-1.0384326503281756,-0.20306472450329868
-0.05864236346508197,1.2942009996636659,-0.41819110291814565,1.1674692003469807,1.1744243812088495
-0.9168221662854921,-0.3668275182668383,0.0028006156800244927,0.10814791368966298,-1.5951124691304266
0.09201089904193795,0.6921617532801924,-0.5457865748197457,1.4064474332714607,1.2027124620950034
-0.4902205657328157,-0.1953822957762051,0.8844525381470765,0.5032087179053643,-0.6946325947702814
0.9786294096181755,-0.5971006478904474,1.1018097015307635,0.4212759649032343,0.9370506248273393
0.35064430710109884,-1.0058968949689693,0.14196579915593027,-0.5532795567503626,-0.6171960509220794
-0.6174360719984565,0.6491679920461283,0.27075460411982877,1.7803197767350825,-0.6153782852937218
-1.259566643297037,0.4017017108202999,-0.3376485697539379,-0.8979545389124023,2.000187947811203
1.296766292311032,2.092984598913679,0.8945847286575751,-0.33979297708210104,0.6335605824016104
0.10617319630878683,0.14168540412824515,-0.7369016476652319,-1.0354680543242212,-0.48471851789198195
-0.3254186511572137,-0.2884896590518144,-1.6947121875578348,0.38317663081654957,-1.0206347707837373
0.6041467296849546,0.6226689875672298,-0.152541457066968,-1.5546779847852592,-1.8468587274330655
-0.08269321984406029,1.9661636314469777,-0.09776640827575264,0.6769619353624164,0.9260231526374495
-1.3257983747329787,0.9888165977735291,0.3238289101935571,0.3761404213334227,-0.6419847904402077
-0.27319475827515677,-1.3466607382174847,-0.2037229999026525,0.3646854207892535,0.871035201924985
-0.3031350805355774,0.4500138135956497,0.032136110547891054,0.30221522929298067,0.48255638817824625
-0.8329279036526087,0.39231682403154516,0.04777155338108494,-0.663197189605105,0.2134642717248024
1.2743363868018915,-0.29205176178737235,-2.325561699169196,1.2480286141884538,-0.2486646491737415
-0.05051812889592418,-1.4631587984253236,0.6084528408247206,-0.8691102947335679,0.41501874782727943
-0.4986046835731158,0.006473625117273265,0.12064896145181425,-2.1883766928291877,-0.7747198874248454
0.5959090452221151,0.11609109945561993,0.28662147733968507,-1.4648579838154747,0.47072112514706455
0.4493617990637265,-0.814434981274214,-0.6502018367785956,-1.5523530395515899,0.21107802148534408
-0.3864406593422927,0.5245136449277404,0.09696730119302985,-0.8376743360575364,0.8896606783573722
-0.06000077174095516,-0.09511046245680443,-1.0318940209850518,0.6488117959658427,1.1706590442166362
-1.2543964955573736,1.2078810669331177,-0.31427739458178494,-0.616181467399786,0.6690382788431743
0.038067002772662416,-0.054957972347175116,0.15874553642988085,1.498745191493267,-1.2649168060448233
2.374410494862485,0.1983519790350553,0.7193242486969529,-1.063872659268655,-1.8638295748295
0.002428550555049854,-0.5158064038831175,-1.2504934679540043,-0.010004886214072894,-0.7229746038633004
-2.3109910597604193,1.5573175954863523,0.09283857273531232,0.24738488949950185,0.7882087650486108
2.2575085599624805,-1.6778149537959288,1.380649390028055,1.5940668524610644,-1.0084524641695578
-0.4233165656832028,0.8778457096145592,1.8507978007557913,-1.4676482596232943,-0.3120661212259452
-1.1177079399528504,-0.035466333268431474,-0.9028271323672415,0.755929338592576,-0.2878516412917989
0.9350725910792297,-0.1993156501561431,0.6738822567943902,1.1881654948828764,-1.0573124493578616
0.5271152611380965,-0.9470969960076359,-0.3269599917137315,-0.4817626702591832,-0.8592356881096067
0.39498810059452355,2.742487290399653,-1.5469050575298195,1.6903450443795074,0.7093505534794092
0.7075444480774965,-0.4021594141925377,0.1439753014482457,0.043958291320064666,-0.7619428243597092
0.06688669923163618,-0.1701100650386076,-0.623964630130437,1.8440134415096356,-0.6427490751419649
-0.1836550915735969,-1.0374356327489103,0.6002981487876539,0.7770891577768546,-0.7186951103442651
1.0812630465955273,0.24310494319646508,2.0852584442737707,0.7869004620835259,0.026939806078560703
0.4113453857176575,1.4484832125303473,0.9887074656697096,0.6564668042657794,-2.6387159212964577
-1.2890424137091174,0.47729968962942176,-0.9862596599461845,0.5596561699605302,-0.9727636960539561
0.33797106810018823,-0.48042849933746795,-1.3907316974289117,-0.6985270217595352,-0.2319636497610825
0.6246584378697341,-0.634524216087207,0.9283827549912983,1.3631613420211295,-0.19881339544582477
-0.634484585969953,0.2934807685454433,0.01578711338457816,-0.8268308019447906,0.0470867049370426
-0.8446339260509528,-0.5557232861234591,0.014418453496683184,-0.5461024557256742,0.44699068454346635
-0.2749335054835965,-1.5236610446484495,-0.6680898587297756,0.4516777758689854,-0.9690009300667618
-0.2554404779123124,1.6724382105382114,-0.3159930566962442,-0.3579229406432027,-1.3891885763293255
-0.016959273935442526,0.8937420292962669,-1.2298582945800731,0.6390432780321281,-0.049469831772436884
-1.0967455556617558,-0.5503341017363258,0.8659401910622986,-0.2209590711380311,-0.2568066179526352
-1.3301143319336124,1.0802821558317834,-0.5976580147164746,-0.3294350894895303,-0.30676725619580125
-1.070752616103055,0.9834977632935321,0.23523164110283387,-0.3051109195758181,-0.7901750117675956
1.0453551965180288,2.1900756215251476,-1.5387223213283705,1.8125112178165932,-0.38575460328870825
0.5350684625229004,-1.0788101845383231,0.5921237655573651,-2.3434464848190983,-0.5918105236791515
-0.04081760722883663,-0.7437066637969045,-0.6331463374514754,-0.2848548428406901,-0.5790215510272944
0.4398611568395815,0.4817323709950626,-0.09834198243304859,1.793827815547888,-1.1087462601153482
0.9243433773441156,-1.3276321328368546,-1.085298698809439,0.1101141530799997,-0.3122391477440641
-0.5258303383605116,0.2343177959552525,1.455149952100881,0.5598675809903693,-0.2117518174995181
0.6917686682651714,-2.720605325294387,0.4122362889626418,-0.5902309468240058,0.5049088442601399
0.33361775948349714,-0.2711041319347563,-0.9310164465489793,-0.04286289977040369,0.30780098390991656
-1.1803862749360132,1.4355128899808351,0.03525778808302178,-0.039971328982605255,1.1873215484367041
-0.42119088469443033,1.2461006974216398,-0.19675514851493664,0.5929752569705744,0.3467573772204211
-1.2880151094993892,1.0533745555470286,0.44093104018985035,0.8433417217156614,0.011545141732047098
1.0694546341398972,-0.15993980214607031,-1.1421049582396547,-1.330541809461327,-0.09403715827993994
-0.9378896146542609,0.15348922352537936,-1.0793961053426802,0.07015372095085334,-1.5172495592299202
-0.21672500310316872,-0.897919401705868,1.3948831892618323,-1.140012016099471,-0.06855535556884927
-0.006738117324488189,-0.3600866770642427,-0.3958427106826492,-0.07968257961115942,0.8466008224929783
1.6283468877881675,-1.0804374119078721,1.07509274415689,-0.1329896962884979,-0.14937629028002422
-1.1255806377691633,-1.8066113121529983,-1.7600133322374945,0.1376420835095449,-0.5358816533563999
0.5826353463030863,1.094481702059654,-0.03372189834153355,0.2504025130948359,-1.1366229784917972
-0.23032591054894264,0.12590449957174477,-0.1003875929153974,0.768279694518118,-1.5529007706009765
-2.247803158581749,1.1082776058796984,-0.1992566957275058,0.3826273455056493,0.35953907903097765
-0.5860835292397155,-0.10619280023535384,-1.7045590690043715,0.36598869665389766,0.572206541777793
-2.696651665838132,-1.1843968258544801,1.5111790199068134,0.4779838077372285,-0.9886051636618739
-0.35038751443496413,-1.7139589550233933,-0.23495069265787646,0.39125816452559786,1.171900058328789
0.2520658232650406,-0.9681180364950921,1.0687298361484765,-0.6034477692173661,-0.12575851214178863
-1.8773517910503688,0.7800418625868168,0.07043310650615638,0.037952167132646195,0.5240442022735592
-1.1159548648277617,0.5261731546528574,0.32374493050053543,0.6122382845416002,-0.6874675526518865
0.4619376092460116,-0.5542856243794897,-0.09988758876165654,1.5365601148549508,0.3628287976100839
1.1275992024601693,0.4390248924625806,0.13970960658144113,-1.1205415082584382,-0.09207973611148675
0.9091370158136685,-0.8827068914346344,-0.9410932451679673,0.09578303243336321,0.6493077681492422
-0.7913821430295023,-1.7134701191450565,-0.21417929017152512,0.09566199141565036,-0.5605865423560629
1.295027137276217,0.2762182492052392,-0.21721303359175842,0.2538281061773429,-0.6906966610823214
1.7508889030139723,0.2775510110620703,0.9533366292042487,-0.9130708945993613,-0.7051466031565146
0.02689938733594091,-0.8144977416821838,1.0737928990723964,0.4649599492479001,-1.1614131943059156
-0.41372286459719154,0.546714582629792,-1.767978857604314,-0.13737449384687628,0.34658982287065127
-1.6208426252653625,-0.4860910922701354,0.9128256459023665,-0.5091862730068076,0.33847623305779123
0.6398849009366104,0.5728521396212872,-0.07926605413674374,0.20239841691542412,0.21711219360810152
-0.008042593242203551,1.13649313013973,-1.0867643265456393,0.20881566957251174,0.957534147974156
-1.86533998700296,1.0106266554147896,0.8924258302286151,-0.17351711146650786,-0.21910911390380738
-1.0500732691052246,0.6126465196957549,-0.8324364102997336,0.6028529154054579,-1.0015305413782252
-0.6678390224472596,0.8925900316653199,-0.8462965719976107,0.8986522591153061,-1.0470184285448536
-0.5021540874012216,1.7199376150424404,0.4844660276430812,-0.5066087604774735,-0.9054461511843713
-0.38140674565175153,1.1614484672984469,-0.4017010222480521,0.8692639219591062,-0.37578299121800224
-0.7629501556852429,-0.536628128251153,-0.27558506247781056,-0.807221391193057,1.0265695970850528
-0.8500378589509284,0.37056770503944514,-0.47342294848677263,0.07662608400899015,0.20318404055638323
-0.9636981135629686,-0.46994723531256416,2.7485160563914275,0.10911088251061563,-2.126738922293697
-0.41267013732423213,-0.9150757452773882,-0.18751340236863695,-0.3376845659805508,0.9002829398762018
1.6356488067999504,0.4126669076332909,-0.3170667995598627,1.5112108403721822,-1.5102727924399977
-0.6341033313802564,0.5316836959099706,-0.39694011088998576,0.3146442198969547,-0.7381930850667348
1.0800918302590108,-0.6543089181731607,-1.2839437876417978,0.011075004578778762,2.4186452696257006
-1.6219463879020068,1.1465081224842542,1.2474970919066461,-0.2870388718489843,0.05290925109048855
2.071288631966266,1.3170520376914463,-1.1567102554097188,-0.48423326828212615,-0.9309825882012117
0.7679547285326123,0.7251794726345029,-1.4521387713912404,-0.7089868635248183,-0.09061890723771712
0.6296392081810301,-1.0236451830763156,-0.064218181983975,-0.5197574242221155,0.052712017748528614
-1.368310264613655,-0.3947051636258262,-1.518128994081494,0.6015216372420298,-0.7119685379177367
1.2107688726410275,-0.48605679545291064,0.3441426816604053,-0.7038190299580435,0.2922395826708912
2.039778788785677,0.8439140173573892,0.1905368654809726,-0.7237318579797419,-0.3679966073163324
1.275726057762139,-0.4041019775053388,-2.1459496490907437,-0.4921960977479859,-0.10285698879563897
0.8016257424514628,-0.7477792654136246,2.343626602270697,1.441912497011433,0.5633442767694303
-0.0831370933406216,0.88956773494633,0.04203827512875434,-0.6105122233195814,2.023160773813455
-0.8355851289220932,-2.107821843126127,0.9158323761422443,-0.34642175813470993,1.1668429555509603
0.6249071613403722,-0.6093983700925796,-1.934002004196548,0.3723381356076107,-0.2749599152017209
-1.728727098009203,-0.5213326477862398,1.566838095769985,-2.296154308942398,1.8909436953335057
-0.6033373180399499,0.9088899160536336,-0.5716970930492773,1.734642702051637,0.9586770734793264
-0.3096504701925547,-2.092144597166299,-0.856721459584972,-1.5330041356745825,0.0867559027250967
0.746952614497779,-1.0960678283390162,-0.020406495514270664,-0.3254056077182687,0.38066801192962685
0.003974049446304451,1.8977653067978029,0.022894508760987187,-0.015030005403238893,0.08751519970343792
-0.7064662446758414,1.1774375003992446,-0.6537018977642305,-1.6779948514800342,0.08552153104149889
0.5284454348980341,-1.0563401638376824,-2.621058340084812,-0.1651258627901637,-1.2833147779047072
-1.561719073668341,-0.47346764861048785,0.6756255478479606,0.255503892312714,1.3628500752460881
0.5906415574012418,-0.1500299543945866,0.052454079633445796,1.0320989197099382,0.5823626983612328
0.03843456641592952,0.8293589944737122,0.11507160443721835,-2.256422783529157,-0.6485763576892228
1.0532903670510825,0.7983877990035735,-0.16286579699703194,0.7670209177155634,-1.6630589800228004
-0.8867971036964181,0.33032523083323845,-0.5400091976319433,0.13187952517385482,2.7759066407360673
1.8573585468445357,0.5393313892761405,-1.4331815815455067,0.4834750760099509,1.5628380910181732
0.5713232370134608,0.3053859628163324,0.5218622271555616,0.593921062367985,0.07320004408334688
-1.105914343120709,0.7124645851937463,-0.7586908495964613,0.931749698837255,0.564792003180893
0.06669598424122157,0.1816514658342971,-0.017229532794708978,-1.1135597617236015,-0.48642686518103573
-0.8250815357611783,0.37023271936612884,0.8435266882102984,0.16190638581447833,0.4774452849283063
-0.1200464344492426,-0.989256634982115,-0.4937643445708989,-2.0099895281687923,-0.5268500447803316
-0.39911128184903477,-0.7515792435238573,1.548104567520803,-0.9310722746414144,-0.3789697633264015
0.2613482262166108,2.2321029544413906,0.510330516907839,0.0013144461484148875,-0.2988911015978779
-0.8194854046839343,0.10339516026633194,0.40818007999455,1.2743244974133796,1.1475090868644526
1.5612975678581327,0.3154020849754408,-0.21832467481882,1.5526728613019452,-0.14196256247127567
1.0723721173629421,-2.2059466141825848,-0.06759716659494865,0.21390516304686116,0.7211862096817604
-0.7516704164061866,-1.424957414324808,0.6332134037975699,-0.5430942304327256,0.9220812474111316
-0.433406945710829,-0.573581850861143,1.1719580463619,0.13161546953674072,0.2685398092725513
-1.8602292919270358,-0.07247880521218908,0.21094068455098236,-0.9041234857206185,-0.797916681259738
-0.1902253466891631,2.3246860176410524,0.9086693368479556,0.7459018075207744,0.7385380966771345
-0.5308412927334554,1.340687162880391,-1.3695233026026847,0.7223401168437503,-1.039402927945813
-0.08604537192570784,-0.4704687558221377,1.1664939545203097,-1.3058717336170935,-0.5058601914423896
0.027621414925340784,0.5740424290879519,0.7140820721078133,1.2302605754631428,0.0030710815190440627
0.7182648873956269,0.5618152781259492,-1.3451188009726784,1.7495477979825458,0.41258624338713357
1.4105246633149873,0.6901631542221265,-0.2514844503959005,-0.09430579746737018,1.1065873755190687
-1.7905755293614356,-0.8534873442375841,0.8898018530158597,1.0958497326516734,-0.6625892957648534
0.23225581337355947,0.7464757000145622,1.4998779172101775,1.1316377736455876,1.1034365420131131
1.1934102126199855,-1.258126959765005,-0.9108681580487171,-0.4354650949443502,0.7239268151135737
-0.6834646773257004,0.7030731737919962,-0.218369557014779,0.4569254537069782,0.22096392750654023
-0.8713423798418055,-0.5933764768876133,0.4857842719182,0.02762257727760324,0.2788149947638021
0.3212528405010375,-0.0777949013826762,-0.17704756310579647,0.48195998001152396,0.3932261592282307
0.2513445007285288,-0.8460183303035852,0.5050481555214609,0.07530125928437768,-1.7666580168603727
-0.04563186424695634,-0.3042416419691486,-0.5277408305033274,0.2677432500072357,-0.6819304323455003
-0.534032125619826,1.0919595367688388,-0.2151751596391496,-1.554443324130948,-0.944414104836446
-0.3218800848659911,0.3478342880988194,-1.4026171347952774,-0.05369877625786253,-1.6151074712760458
1.5592373952168666,0.622948885159806,-1.0502246655683347,-0.028672413330622645,-1.0095187674026629
-0.43976442331836146,-0.8698643541029741,0.2799945878770768,1.5267364003180033,-2.228129563199344
-0.10106183095687803,-0.6580651652870773,1.0646485272047028,0.7179900839676089,1.3958327481487702
-0.9236832345980723,-0.587745813624845,-1.2718598968944812,-0.23319459704414217,-0.8341316457340887
-0.2764134209649148,2.2665641237899323,0.5794741256886111,-2.0516620688527034,1.0322817958721868
-1.447889276707895,-0.7949684287868405,2.393689176484954,-0.15688929041660132,-0.04610340613718416
0.6890996285896598,1.2680214404641463,0.8772563520901506,1.5471988496145224,1.1633688634665267
0.4458776520323297,1.5664645915486195,0.3268613299563115,-0.8909446587434209,-1.0866624730366934
0.23122464096679798,-0.4027758263303258,-0.5085697789124275,-0.9119643620283746,-0.8821842152110311
0.3589425253969443,-0.03241024952384029,1.1807304921551878,-0.1874983424282479,0.24038111760873285
-1.622038306086952,-0.492042224607171,-0.7729985587436324,0.576661885884591,1.1535570277328662
0.8683541585657907,-0.17063036818332306,1.7643355957478173,-0.2872624010825354,-0.35451294291836444
-0.6761392057822747,-0.8944301436135201,-0.26325741357864096,0.6166958956413435,-1.086664715268866
1.3729445430236658,-1.1144195943423751,0.7492832285322686,0.08960696665761961,-1.2040506013610697
-0.24794552080341184,0.6349109665182598,1.4131333555875663,0.7411495009467005,-2.1545643308134084
-0.9816079110877287,-1.3337589608701461,-0.14596794248582914,0.7608160267134898,0.5473026355705783
0.7442752692684131,-0.8885104441338136,-0.37770579336432186,-1.5426647621413607,0.34370685293131104
0.19840564886494874,-1.1501383979207993,1.7887338312023904,1.4669986563544433,-0.84427292104232
-2.268264428753954,1.3636283452802145,-0.21646342205397148,-1.3084472821393058,-0.4787070382573109
0.3200912051348149,-0.929425555634067,-0.9344982050164402,0.4370349525321202,0.4829520640928841
-0.15609386506226597,0.44343850995327705,1.7366013553601896,1.059018965801316,-0.3406241852240404
0.3757825622249615,-1.3026120660410143,0.550366316124793,0.040231622887293386,0.3234985253929771
0.2892711770309095,-0.8708079419742084,2.0868812535796684,0.6722590802036819,-0.6023280088727169
0.7549164893639962,0.03069376757031322,-0.505594981931543,0.24120084399023461,-0.8795811284214347
-0.7258726409372598,-1.79254273522505,-0.3877540272818895,-0.9696621410792784,-0.12535075230785786
-0.4873878313016926,-0.9038827782326382,1.4126108057735365,-0.028968964241221345,0.9825005193626594
-1.2737180208538474,-1.9991274113346411,-0.2555960742912621,-0.18175297242348093,-1.8279955182119143
0.3641942127993844,-0.17761782882500757,0.31932053165642327,-0.4373219331107241,0.36018830784580275
2.4286726491612747,0.2843328683264659,-0.7989557425978094,0.8469209999639612,0.8272173446706603
0.15294913817400294,0.0538201971265693,0.09452793738915496,-1.6355383789817926,0.5563553763414382
0.19337164274803,0.10608469786247905,-0.013310273030421777,0.15214042927948357,0.016972476521168928
1.1254281689040362,-0.5723367237861156,-0.006948065892213436,-0.3097504738436431,0.22435215822436938
1.1939026279530633,0.03564382872173189,0.21896092938659786,-0.2826461723236083,1.5778408651246156
0.9132406478322574,-0.046529167574690514,-0.5624838742791983,-0.3474124882744608,-0.7315698040393772
0.06659459444952716,-0.5318448753520916,-0.48412862068164403,3.7630805973773924,1.1450058569839647
-0.6821374283182825,1.1261480076565555,-0.5462726389113544,0.07548337680743293,1.9737806885777287
1.2857078433498332,0.6021170538960835,-1.3196320740001592,-0.18138282141657,0.8616371968192883
0.496478538932661,1.1460309282683208,-1.677657190069231,-0.07157560422754526,0.4042603063147543
-0.12798597323491112,-1.5352610836855394,0.21667032534646039,-1.0110380848273357,0.6213055536241003
1.1113219366600136,-1.1774628537921665,0.12511100205443798,2.079901736349693,1.7465392357648861
0.2351791945536443,-0.5982838751067721,1.0339574965215637,0.8715376935525109,-0.3603215063693333
-1.477187136671734,-0.15263159701577045,-1.8763815326166047,-0.3919202882985807,-1.2067042828377
0.3757623742558909,-0.0019325434595029055,1.0459952855835204,1.1050079561712693,0.33035956425404644
-0.2812579647189413,-3.1882625779389735,-1.1716269028977764,-0.3730344402347587,-0.9718143778038478
1.2575081838183522,1.3923821805473007,-2.1260887697569197,1.6398606581997277,0.3359058141802011
-1.455210736839914,-0.215042955368311,0.15822646729131815,-0.06775071588636526,1.4405880687141244
-1.8221446923411717,-0.1510390059376645,0.4791360961699016,-0.03631472814060704,0.22380901732039588
-0.6675422587554305,-1.3696440149701825,0.28175229972428983,2.256978361727435,-0.4586116687813794
-0.5041011528665515,0.16395446815757966,0.6513244216200417,-0.8011090561703983,1.7276990539981476
-0.6088986358475025,1.8639747124587063,0.9419806452110343,0.7379646098220503,0.8676932072136501
0.588476872074766,-1.2491881695169702,-0.34983265877580694,-2.412576954306235,0.7828449390522402
-0.5665007877400642,-0.580953471217925,-0.26943796105804785,0.005057358449719072,-0.5664349146113892
0.9439664014060695,-0.18509382240557593,2.5287708419906894,0.7561591530804358,0.5477215325236636
1.2232259039285023,1.1364044468095795,1.297458157566008,0.8831431013239317,0.2921935750275078
0.28330248458719065,0.935937571363348,-1.9378477857477527,0.574666605545386,1.6489917844840443
0.25356362836380625,-0.7429171121158198,-0.8119634218667768,-0.7073308033275284,-0.6375927020550037
1.6086912975943872,-0.8607419033539985,-0.710923744562871,-0.9368247670161342,-0.43183195801502605
-0.03556509028719693,-1.6481674300489337,0.17844090834615142,1.5070395890598831,-1.416848246896758
-0.26011883285780046,-1.2552132810735335,0.4332399972603177,-0.8110871090691861,0.7004316008041326
-2.5768848993896616,0.24867915334232712,-0.3964583136260073,0.00528761794469447,-0.4631992023613262
0.397789062782398,0.20114241921311563,-0.744355082026337,1.0629095120793013,1.0934203638076312
-0.2025163346058371,0.5660598437410811,0.2890255247062635,-0.4131923524810225,-0.5908434445927647
0.7047548135409921,1.7813562156440117,0.8926047978393392,-1.1920448905500352,0.1446363726399458
-0.3754487534217281,0.7058119952417536,0.9820859227475142,-1.0066517911749226,1.7685014913134518
-1.0878845593584046,-0.15505674908921277,-1.6094257059304744,0.44640707456248097,0.18845880369261636
0.5076228934980215,-0.965728379958549,1.0806006857260388,1.4688139431076503,0.6703090946580879
-0.7305375131968672,0.7118856017827648,1.2244482521269255,-0.4513115687599215,0.8330538923439914
-0.5356187958634461,0.011694860508296052,1.042418861880363,-1.3106806452615871,-0.18960910480612336
-0.9324433196097182,-1.1640633731339787,0.07063572411857112,-1.7628081684630867,-0.22805260208621997
-1.5012370625870173,-0.4304984555225335,-1.0150803504000783,-0.5367253983346654,-0.4499529157332107
0.44813949020413457,0.10123284933448559,-0.10636672317522447,2.4449529491059723,0.7232463428524873
0.6056851995735708,0.5436573682678053,0.25814032285041877,-0.07108510188666797,0.8450746672986801
1.1448224768238724,-0.9857661824369988,1.1682677328884767,0.5354653203767222,0.46401377695045226
0.512895833656761,-1.8848624065049302,0.14965517120053848,-1.0921573656559018,2.0294925718245467
-0.7980390564428989,-0.18544429783790642,-0.39660594777721847,-0.24185009220444478,-1.90371253358974
-0.025579949974691738,-1.6768609928751945,-1.7362984086226954,1.4422686597878918,-0.529483772171094
0.06269780895365008,0.23303041472942101,1.6991428111813751,0.04142498092746235,-1.4740097537666508
-0.2893258506194318,0.0543749446352225,0.1282212333841809,0.21732573614084746,-1.0604317292570997
-1.5149327545005191,-1.2394663617072181,0.8295523152897986,-1.3517142054427287,0.38378579659048856
-0.8544961120789732,-1.4224875427482087,0.6023334190104446,0.6265614926206887,-0.7356204112098046
0.08276198203661501,-0.8302789543899807,0.18692909398089644,1.0320692218526382,0.18798178963178488
-0.7081167540404635,1.7767480114887892,1.2782050040773143,1.5854382498092754,0.13959114710316922
0.13315058381318662,0.18328611713868384,-0.6052825981355493,-1.2252761928537355,1.1435017751747911
0.408425724460696,0.31487923942737517,-0.13060825422579334,-0.4878500169879521,0.6569605391885533
1.3716637459498349,-1.4394925574370934,-0.6905116258279294,1.392576806210053,0.09409427477789388
-0.7697567576501564,-0.7496319130514421,0.6428226307521269,0.26894041130036583,-0.5466514258189259
1.7220149949072805,0.312585123958505,-0.8488713875350821,0.2540072454491434,-1.3012614362544945
0.4792203209484173,-1.474016530906974,-0.41470532313052916,0.7262648471859358,-0.2258055249270411
1.7192704997206578,-0.06256860714930433,0.7790656713567475,-0.9646257864541985,-1.5890253003688284
-0.6642876528677276,0.24856489907435275,0.22230974050748759,-0.4101742552718997,0.37307947229402655
-0.08205160406421318,-1.6107470934352255,-0.2017925597270512,-0.8114020399088754,-1.5066081647495644
-0.7796071332292732,-0.28737660457673514,0.24733480800986615,-0.5089322272290703,-0.9730488529513234
0.3034267678165744,-0.10468289281013556,0.38140349447532995,1.5040316903175848,-0.9733194974023377
-0.530532005344734,-0.026428555803103684,-3.4547666442672726,-0.4812552088433997,0.7249007971808351
0.6056182670182776,0.580133884643692,-0.3344962518528507,-0.07819314245529198,0.6845695510998776
-0.819739812482359,-1.7577903643704385,-0.10993915614603515,-0.6832948385759409,-1.5681520389117254
-0.3430585578510221,-0.5449168762694221,1.478095025935722,-1.5166461191361662,0.4279374553883037
-1.8328654946244853,-1.6630403562323257,0.29430823371575504,0.4879805349168623,0.26581054010470007
-0.15633025733711975,1.4908644472161465,0.406392591754467,0.25699635606709115,0.22248549028604447
0.7297417612882441,-0.38158081113418196,-0.18205679197558325,0.721044676986303,-0.4316802935911765
0.04155336989046808,-0.25895773164154157,0.5317028369222649,0.14424514361799087,-0.9924863495640626
0.2912262264157414,-1.4252292695416866,-0.07596350860172624,-0.30804259386734495,1.3112868307641397
0.7096445633267136,0.3752736435002309,-0.6178125750488245,1.5283993708303518,0.13015141335924316
-0.6371682936901841,1.115388604097819,-1.5113103178965008,0.10899647141281882,1.381506018699934
0.21919427538153666,0.48270512325252457,-0.007833132675009059,-0.7852313676079075,-0.42348891260738564
0.4058423406293751,0.7730900485972703,-0.4566802617172421,-1.3394202017815662,-0.25410534578552946
-1.3706758856035126,-0.5153502316878154,-0.0669214789508953,1.072549145740664,0.32928536979590484
-0.20582765849619458,1.375752400433227,0.8163698348228623,-1.928662970889496,-0.166090587978148
0.47680098011020733,-0.187261069849882,0.7527886559679141,-0.04088787322789377,0.8981891507604123
-0.6527274168876457,1.1902064906060363,-1.6225751265269222,-0.5222779712550809,-0.8225242530818128
-0.7093885920125488,6.203378694282074e-05,0.8240693404385319,-0.6287783800193302,-0.6518752609643
1.2451052202826456,0.6217365067482241,0.19883375328850034,2.164026950263233,-2.8002374041889233
-0.04532845746096147,0.1971471178657461,-1.1813230449655183,0.14145446516649626,-0.5492837553547129
-1.6951751345114607,1.5157748958179245,-0.05329183026287949,0.45488424427500274,0.7320335595843923
1.403294570287383,1.2264154625263886,2.443980205654542,0.7018916839802263,-1.5696317734560234
1.6028713331272042,1.0639876860343358,0.007724979830500129,0.08507095651093394,0.06303980742689237
-0.4779407794079756,-0.40288875255374357,2.9709958002697747,1.0975892182157487,0.12982430311115828
-1.1843688458958948,0.4145698226661967,0.7780411346050944,1.7532328130786872,-1.463745163031923
-0.08146848679698565,0.3899685839907159,-1.6925315366786455,-0.04063511328766675,-0.2549352987743438
-0.00859381634436852,-0.348504078935938,0.48538596714958415,0.5731451801283703,0.23247483000589975
1.6786446128585728,-1.3459610592589606,-1.097549730211058,-0.6964739404465947,-2.504787063617641
0.15640200172095095,-2.8120258364855997,0.9072802103710889,0.3305693102047157,-0.0662264299178211
-0.6808099572327152,-1.3668497126801915,0.7704814028144951,0.5263665345880063,-0.9811193569634836
-2.0274064776213034,-1.490662067829855,1.4404905566911146,-0.8376080047272485,0.625950890152556
-0.9223033646499204,0.5076347181900793,-1.7768880846136361,-0.17897675809328015,-0.7174855922280879
1.3589564936840224,0.5414698327931531,0.3405318829304884,1.1552669989092705,0.22418817248643533
0.02183521202916171,0.00016865844079911381,0.6204534239670862,-0.438636367071476,0.3493708720987413
-0.7367229066618524,0.22025312062822824,0.8750845758123053,-0.1538360470285402,-0.279050269905315
0.343745536336592,0.5032774579698969,-0.7372378530600464,-0.9932815582747477,0.23005590814810112
-0.9392362440050196,-0.1653836921734469,0.8824104049058745,0.308052769284571,0.3047091146024452
0.4923293065898833,0.08082283872665491,0.8792434918341577,-0.638465008405051,-0.14211412584340893
-0.7505017685040678,-1.3500073414396279,0.07123724229105423,-0.5534178925325326,-0.8370721866051447
-0.26587644181977477,1.0677875156140517,1.8939298878791042,1.8034962451508116,0.833906935818623
0.7049298559376,-0.08335729218389926,-0.6397411653392536,-0.20010986613733822,-0.774063038739768
1.8154420985797024,-0.588978876543308,-1.5627335105784397,-0.25691209905809625,0.28798860342260274
-0.1262683981553343,-1.576342179927109,-0.17116342753396116,0.2016677260382863,-0.0623969522950939
0.17117336606650657,-0.8247635759017287,1.8801935506313914,-0.8690668523383949,0.15407730765538188
1.1598465165473175,-1.5616565366007644,1.9368801715855946,0.41665703606628407,-0.41970386263227466
-0.8506658775455107,0.6938029599566317,0.7233633073208546,-0.14701931748278632,-1.470083124758613
0.605229496267054,-0.821927546593129,0.07282743001999295,-0.6418703783104056,-0.5782981420666107
-0.9662970360577341,0.7138844240548583,-0.40633720640429405,1.1673183877316726,-0.6814252561713142
-0.962701035013066,-0.871935681590153,0.6510783063729229,1.4687964456745635,-1.4589561869084113
0.7834881852584007,-0.25975194505275395,-0.34129662019469603,-1.30649137371964,0.2552966586983256
-1.1290592095008303,-0.37512073614608166,1.0239262749334859,-2.0317987103939608,0.3830727050673892
0.5680327104252204,-1.4090450977247764,0.2335247154178934,-1.0393829746935255,-0.01967769828346505
-0.3720047083339542,0.4701823009370466,-1.089143238240001,-0.9055481955640813,-0.3491817723915787
-0.835385098725666,-0.7689228785657359,-1.540307824205255,-1.4453308079370664,-1.2387277263446714
0.43672379644919174,-0.08908074813751327,0.01614932115204996,0.7849676152885711,-2.0171230653903134
-0.19483130130866252,0.5802874162204407,-1.0101211935148384,0.6086832018662415,-0.5263423178505118
-0.8445041633509797,-0.1951514571738837,-1.3687523536356183,-1.5566041863373898,-0.844974500820121
0.8637435549447564,1.1890758846262284,0.5131625537539652,-0.14097953277220934,-0.5769159828456507
-0.20666729012044083,1.5609130168221004,0.5514314738724738,-2.157521635966279,0.7555583959886429
1.0024980202318028,-0.07979792709101328,-0.045981915070214305,-1.080056698443856,-0.3916904819289405
-0.05041594553960467,0.7709509137145547,0.17558717871865348,0.4838782593133225,-1.1556519559925589
-0.9908843786389605,0.5424929515372844,1.3296019974218198,-0.1731913009224624,0.06131499148168648
0.27736223303980506,1.6041269008959924,-1.5656420745548136,-1.2412476588344104,1.0421003821381458
1.3948773895769055,-0.4556210875541063,-0.36744604660328667,-0.4052961524588121,1.4519165249085193
-0.616237184766568,-2.2515034504032245,-0.7781721073143703,-0.8367013221731835,0.12460474158555758
-0.9657435535309258,-0.06136225515686717,-0.2984668545495025,-0.06821720568572619,-0.09106327770020764
-0.9828932830081146,1.4409584795147456,0.850546801582913,-0.5343402447647968,-1.6694891347630745
-0.8263920703731557,-0.4217150324568325,-0.7491942038464976,-1.9767145456668096,0.23719885783402075
-0.684393359729789,1.045767310266851,-0.2792187412603419,-0.11307889461472738,0.9452219712233959
1.1187074858667345,1.557892073183128,-0.12346880549902321,0.15834957820776183,-1.5193615627326502
2.579674785868925,0.6406316570006697,0.17869356303522546,-2.6217928382733926,1.7870499157612176
1.487293212031573,1.3169324122603223,0.5405193664399874,0.8596943648291142,1.2986875795054502
-1.60601912008942,-0.01891963818412278,0.25115028627032115,-0.6350659341526931,1.420604443806084
2.3759973358410917,-0.2836350662289448,-1.5861356692615747,-1.4458521991286006,0.22074657123577718
-2.429357363072342,0.23452395212078433,-2.0002643883617197,1.1417905831765918,-0.5036015302538224
0.348085902121905,0.633478340894414,0.23854829731576754,-0.03000070866560917,0.1831771686257031
-1.6490096348742658,-0.10313888293141213,-1.9282766044868143,0.6966162901540781,0.38802726859685444
-1.2079834181319908,0.11037903248256815,-1.2353978283033709,-0.047779418654030355,-1.6283167173664002
-0.9813861963272105,0.9224517981162172,0.5885065607964792,0.5060757071692067,-1.4402240500229848
0.3614655060009758,-3.8537310574055588,0.47624847516848323,-0.5766678123065223,1.3519532760944089
0.18810785909625083,0.9626363015142998,0.9170482044333698,-0.4166252780893449,1.084593452071117
-0.060792826128308323,-0.25752187584709096,0.3114899622594622,-0.43132944453320676,0.26763283778742475
0.44585973730540274,0.8681022917601465,-0.7797917564337863,-1.3210206671594873,0.32921809820210646
-0.4354377467685344,0.057772279955398013,-0.6858675204490932,-1.181932056972948,-2.2377612050253393
-0.4498808942269055,1.2706924363736563,0.9034706165334635,-0.3457824628551843,0.000462997533498762
0.09508869890675632,1.5371100635723922,-0.3413365099772399,-0.20399360493483165,0.573820756764318
0.8781051691158467,0.8392827763958153,0.005519083418014398,1.0320353028788756,1.3340417884909301
0.0976462220872984,-0.7714746263862413,-0.5402203759664178,0.2062976771551305,-0.8733589886744821
-1.2132507828602257,0.053974522253455476,-0.881015453285492,-1.2317546622737319,0.0769704584404933
-0.32438230416568986,1.727940748839695,-0.8890997396840548,0.5412979641061104,0.1467579927319118
0.8089947431314791,0.13978231540103608,-0.590090176051682,3.1916866681343574,-0.16885305640845988
1.192725210200022,-0.5844679576844817,-0.4391673072217775,1.300180581871604,-0.10325407964541992
1.200298304205342,0.5931512794644284,-0.30155011606050736,-0.27955862568892653,2.362076612857835
0.7910981446851969,1.318334314891105,-0.30460244805522513,0.3086313630425444,-0.26263667140246805
0.08765876680504617,0.3591424199973684,1.2771577164234962,-2.388693168068403,-0.10295357269515718
-0.2276679558226224,-0.38727762614874517,-0.11194273853271039,-1.2296715967741898,2.4100418777846153
0.126332608048687,1.6199967970550828,-0.15266435656275074,0.1426518307606295,1.6423204338771982
0.05125817477990493,-0.12516071362165565,1.2640912484536662,-1.5574052733284296,-0.13171685853522072
0.9686774140225546,-1.1724297853743022,-0.8876903463008863,0.12294447856267186,0.06986402041177846
-0.24358073576233527,-1.860965093417717,0.6103682189321649,1.1381548761217146,0.41710275124766755
0.09068434865522387,-0.03866585584927371,0.8135341106359287,0.05217053368288574,0.6750283541589793
-0.102323905974599,0.3910310399341125,-1.3029189359320426,0.18912786178306695,-1.4461620649503506
-0.33385956322930804,0.9887113703108332,0.995847096844559,-1.5199653535231834,-1.1392662459107548
-1.011401017480746,1.166504207162912,0.089667062302091,-0.5393530804689138,0.12678046372319557
1.6582562461490649,0.7926473523121232,-0.4471762120557074,0.9334677758207376,0.36918132386114955
0.9845126522479504,-0.08224859574147486,1.8350038928651127,0.9109646342322365,-0.4144262734714152
-0.10010117716070582,-1.502916613138221,-0.8515287614278917,-0.39840938395797654,0.5406634202345049
0.2769844913066018,0.31645537688468467,-1.0622168925134075,0.5901538755201076,0.0722866286777604
-0.16982462745118163,-0.676903925880013,-0.2434294427700307,-0.4938303360050534,0.8198978808353643
0.8229208763071968,0.35168848983080914,-2.79536586758355,-0.9394411255717982,-2.2784130838560466
2.056804707226384,-1.2990902416834758,0.10421053392101169,2.1021165154768067,-1.8631001684946662
-0.004737229231518168,-0.08552194780804132,-0.14785270281014673,0.6060525952371637,0.5538588137337207
0.47840226866597657,-0.19535727557089705,-0.4420851145228293,0.37332350293506894,0.9346230018773414
-0.04766850349655196,0.9398637186570306,-0.9682735830448189,-2.344557439805043,-0.688749898441211
0.4404479479295976,0.4473497628897917,1.5636685476940393,-0.5252420913468449,-0.19274133406995556
0.37974469511108283,-1.7169984826540385,0.5318754173251424,-0.8808569044502814,0.845620049558455
-0.9496999852832374,1.549335556056375,0.0008833231168391572,0.5394828935291318,1.645553378923365
0.588008088256121,-0.15682163236068206,0.13478282817710927,0.6287104750995505,-1.2227367768030883
-0.25066099365524896,1.6566941044036518,-2.161548663177738,-0.8510178823649378,-0.07316404946756318
-1.754539605696467,-0.023413372811158666,-1.182996331805917,1.1911277739961184,0.19620872029331982
0.03877166116462722,0.1046441923587493,0.17260646789512643,-0.27429038154243285,0.9556300654539949
0.3692165751473264,1.3726829421017288,0.46742723645971496,0.7319387030161748,-1.9463622769557607
-0.0676269112443744,-0.4286886472701328,-1.1489704869599766,0.6553411852445498,-0.7360220936696027
-0.4119963385128129,-0.48874342242971097,0.7552080757121955,-0.9421469415995306,1.2989429714083587
1.2323820071524714,-0.10425169003248563,-0.41150042255983454,-1.1105292848255046,1.1373737240035091
-0.559149882583683,-0.48622972436169265,0.08322232612596274,2.8070216514070614,0.2706123977435146
1.5513801671351082,1.9369997155093135,-0.6634755303789814,-0.1634279745489488,-1.8926368291529319
1.417546182535638,0.4011927887146072,0.5737544601627435,-0.27183780584647094,-0.7159606988396369
0.8520413028726147,1.6453956953018476,-0.026156989009282622,0.9234925826156392,1.610751099149667
2.037643462333176,2.0242238987559094,-0.28326636721534815,-0.1995441740798863,0.04199921754261086
-1.1836113075824408,-0.5501461726612609,-1.9983947731850165,0.4665661829947188,-1.4235648560879604
1.9574393135812076,0.08516781802945131,-0.6616344157137464,-0.6038619271368906,-0.8365881655750858
0.4262981962912257,0.6369488121037461,0.5628367351959938,1.0390146073783513,-1.2472116153182762
-0.5053926422845689,0.8094201907592885,0.16472201192552832,-0.2876406204051764,1.4713595261829204
-1.2521204800040937,0.8659519795449485,0.3360926064845691,0.2650661890607613,-0.827831173241952
0.18633822792090554,-0.7605373176423724,-0.28855478348383884,0.8236404499329504,-2.6607375510460476
-0.17018070592147455,-0.40409390460409905,0.20218275027601668,0.5538314924457921,1.8086794094605219
1.5474748021546763,1.0360893847123527,1.576096856010967,1.160931886519386,0.412724512958556
0.157724907656072,-0.3078216665515066,0.5164567910544346,-1.4333110659154644,-1.07483035488034
-0.2785142811122107,0.5247895877724027,-0.6367023636139756,-0.05507200985249339,0.7104482721114109
1.0072955294015133,0.5439665677401114,-1.3189946508072907,1.037606601956565,0.752009864130245
-0.9614672025156331,0.39461518785462174,-1.8682147783296223,-2.0665387074552486,0.33007900027656656
-0.0832017076410535,-0.6653780653404264,1.1945750515296163,0.2527738906513147,-0.43981325032410323
